-0.04986349333599799,0.06609518388615498,-0.015290044999471189,0.013878818013379743,0.013719600286317805,0.06106815934294833,-0.015410275309642734,-0.04353643848382216,-0.029455913813521657,-0.021582233892363068
0.013801629981596748,0.012266570286692279,-0.052785757733663986,-0.06949542170121882,-0.002131278717162761,0.017047590036303628,0.02091308203620147,0.008398236622248414,-0.02444277279275888,-0.011691402151823026
-0.04186069646702442,0.06098542293755002,0.07283676840870629,0.017669429633788494,-0.09346675364859122,0.01129941982816729,0.06515573312898461,-0.018301116127340904,-0.025579530400797815,0.006823241905587055
-0.028562814995312824,0.050857144674427666,-0.000855268101345716,-0.0008687076987742826,-0.00015831730903618664,-0.0007014152728435238,-0.043796317771598474,-0.09022408702804981,0.037003538312673064,-9.697362536874256e-05
0.01918418088964128,-0.01195337749351432,0.010268196258887747,0.058479610708827214,-0.0030212228412855435,-0.04882309525818342,0.023830122563678512,-0.031580800274438554,-0.0015448410424278118,0.02450885835088723
-0.02049510611879279,0.0718549795055483,0.042850541249813995,0.00603328927082265,0.006587694353178369,0.0050939419435289115,-0.04329625776323525,-0.013768733215359676,0.020362291204425332,0.029020787540301594
0.010916540080280425,-0.03502817578132833,-0.009782154441975152,-0.06453949404841973,-0.06597812605669402,0.0441735985591707,0.004709820297047169,-0.013023484387496152,0.007331897789046469,0.015564811991261607
-0.028795403646816764,-0.007989254969495435,0.04281911931807249,0.06413397317720589,0.04337346397386157,0.044426927196255704,0.08748020742851899,-0.027341204929277572,0.02166708712961442,-0.009006080077100955
0.005259269748127737,0.08011390818244093,-0.033813517757555325,-0.028713949248904375,-0.016537240856085187,0.03284658118971218,-0.007246712730178491,-0.02658342463531102,0.03443191105011246,-0.01721567023825307
0.026353666861418316,-0.02933011288422006,-0.029406786992635093,0.02716543969980819,0.02260927752189743,-0.047182875891529315,0.0017434612045326865,0.0023535123706856617,-0.02497028539049823,-0.05235445694787365
-0.01607758370907103,-0.008652664802007227,-0.028530677611164616,0.008260478246724053,0.008641041653695196,0.07641916762803128,-0.02704956100382686,-0.04964195902640147,-0.03638981722429411,-0.0019900252882918213
-0.08615915865170787,-0.035228666004944946,0.006042877297756259,0.06117361160843221,0.05670773089595667,0.025028153458266193,-0.0010391856889990034,-0.05020403096497321,0.07930240514631587,0.02189680810103242
-0.014308901084383856,0.05700601232295465,0.004761987157887322,0.030910907247347803,0.037997400759406726,-0.03379840455148882,-0.05014533507333768,0.05697657441849693,0.041829722726788685,0.004798656533820414
0.012909466047845103,-0.03526259132915553,-0.035144671807201336,0.013633941716173473,0.038669823462221885,-0.03862763785851319,0.010519676925568445,-0.0003672868375944695,0.03558417475751949,0.01046348708584475
-0.004073949778425398,0.021717032576523534,-0.05111517704380117,0.02310393783553151,-0.07700977931998505,-0.015123353704988202,0.041853027347015154,0.03755561471977123,0.01692151083421271,0.055342356248051935
0.0019053358514990416,-0.017794850930146933,0.022276756541592467,0.08226799272472819,-0.010036042940932298,0.034250945385844056,0.02465857884166333,0.03489255509111784,0.00468170833596566,-0.029829001163795082
0.032415556778990696,-0.031246211854271042,-0.005948802034738164,0.010360495658912233,0.051684875396697874,-0.07425436355716758,-0.046103238321413796,0.0011895508456737996,-0.010597118414797414,-0.04692651251917738
0.05409788405696884,0.07299861660727096,0.0789425797194995,0.0033873785771200513,-0.01258632862805218,-0.047520891263893174,-0.020570057432165736,0.012973393103551728,-0.06193802117154647,0.02147074607750677
0.07515403741305351,-0.02185638086568159,-0.006395562479065009,0.04086372072377364,0.035401852053791594,-9.931350264484945e-05,0.023774186953476432,-0.023729789342301643,0.029832649143343826,-0.04040360959821768
0.028478496744699468,-0.0410832689635239,-0.03559528700874066,0.00395286335895307,0.00810428167294807,0.008332430349386072,0.03835913689960265,0.03897013861977207,-0.022652885104362766,0.07241741505117681
-0.00840319357652354,-0.026894054387159527,0.05391198999172643,-0.019279321573031007,0.02428144099954934,-0.010205372599743055,0.026736914651909766,0.06573285691030825,-0.027637110782538252,-0.010056581359055588
0.050388442418798994,0.01251138614910301,0.016385962066580977,-0.039780735488397466,0.02290976506086876,0.03204582970183171,-0.007607949606665024,0.004527291249978661,0.007621176494661838,-0.042555104214518046
0.04623244991860459,-0.006067740272681763,-0.0021047975139969004,-0.015431157878888232,-0.029651442137758225,0.08289487475883368,0.03928232266600865,0.04978590523799665,-0.03141547507036323,-0.015512936661204214
-0.05375178708811282,0.025252022824731744,-0.013821728092173208,-0.008295842805795008,-0.05813530157500703,-0.013294939752590138,0.023803415296742302,-0.00022408982140139941,-0.01221876518960598,0.014281872550124051
0.0055460313101171116,0.002739226662494158,-0.023509398766107033,-0.00302787131075661,-0.08458335702706433,-0.02511868970940776,0.034173742123978584,-0.05794715113496107,-0.02971892332208459,-0.003061522501499587
0.0006629511683508819,0.012386439090322181,-0.008137636154386245,0.007406201452890873,-0.010634081200275867,-0.04754950485369167,-0.05086493752102337,0.05900004568123219,-0.010216648201421924,-0.010099975337614803
0.10244613365695254,-0.03489033590566328,0.00885753995490735,0.014161463594906644,0.008603726932033748,-0.05655245816106516,-0.04333800161685699,-0.08800068895195018,0.04131261047908874,0.029998342398892965
-0.021727573510915227,-0.09579656251694818,-0.034443181520781525,0.017647321267714587,-0.012263952552938242,0.0007496259130382358,0.027828967105803754,-0.07761219518113674,0.0009255791823727,0.0036833110425382215
0.041343047781379164,0.011295016746661312,0.02178219004352955,0.006081264659103574,0.04316591147052331,-0.0414180372782238,0.008247395640446598,-0.021819475138494863,-0.02082341100165175,-0.032975919802843257
0.00404239463916294,0.010609926885138246,-0.0360288329385708,0.009984229547345532,-0.016725104954972127,-0.05150229446956352,0.012104532144230523,0.011237921743239553,0.007398454582542936,0.029402032601879728
-0.027300583000378218,0.029480119020834365,0.026811973288808754,0.011673580209465207,0.04640120791253817,-0.019376318999267124,0.007350186935445513,-0.10070483534254143,-0.0406807011189382,0.07040972507276883
-0.018760143528299696,-0.07779663757131257,0.03522164453667093,0.02115383883996697,-0.010233182995359245,-0.050626129997547585,-0.019383321159331588,-0.05388911597853894,0.0010572364045036056,0.05684818267390522
-0.023680758521264576,0.03413000216146788,-0.037290283901849915,0.025901644906856106,-0.00438578561886969,0.009746009848243604,-0.019359544602527624,0.032568642098251104,0.005512417745803154,-0.013578740911591397
0.057578740720715546,-0.04823727970760009,0.015266329045240536,-0.0010524236975505664,-0.03766835309692221,0.04732859532378769,0.009579408952930607,-0.013103231536702462,0.006807606335116509,0.04500568221778942
0.014522273517616277,0.02654241081104153,0.04257042609122102,-0.07170238972892849,0.017322972395447372,0.015462463595565598,0.04119037662233829,0.008484955756999417,0.04234805838325253,0.01965264023196897
-3.579837148741513e-05,0.023467231717302837,-0.03561101597957335,0.05325769519109407,-0.012763179775270814,-0.06316536039129612,0.007636826802546173,-0.03514797332494321,0.0036957655975547584,0.0773914689222197
-0.09596893803988683,0.014256527727477339,-0.020800363018562484,-0.009008893397736525,-0.030673425917134477,0.00935971532778381,0.08176320677617363,0.056828322081691765,0.029135109551216492,-0.01279025887384332
0.03078887366308462,-0.03978663304696224,0.03107832542890397,-0.06426093357471083,-0.013300599778883914,0.09483504265554435,-0.03097513404925626,0.06600044199412648,0.017618187850771426,-0.05906970240317108
-0.04916711602857917,0.042073019475788155,0.0630586039593267,0.038516231910145096,-0.005588236454456391,-0.07885023860953191,-0.047608776639245405,0.03246437581772066,-0.0004398414537085391,0.029087719513350548
0.0025800314533042947,0.009755534358718539,0.03809107345180928,-0.0007213114537904464,-0.06843456317038456,0.05384186885815684,-0.031140097496878138,0.07244151417978742,-0.018753863385273878,0.05779555821151241
0.05400138577043251,-0.07432629677080661,-0.021038473589718273,-0.014045470465143298,0.007453880810784913,0.01364465151076513,-0.0673930451856798,-0.0805205243210991,-0.028964528776713475,-0.003898289075759496
0.010762624144595017,0.006606322859184196,0.015499123240489394,0.005255392047326772,-0.05620058020188192,0.042487771416973456,-0.010056749550244071,-0.00794089117059851,-0.0008288239930729768,-0.03186536303951079
0.004873219142002837,-0.009290008197827463,-0.0071671533159764775,-0.009555344413976211,-0.005315726123332928,-0.05918166360568421,0.03919297254865608,0.08669950287248182,-0.02838789309442092,-0.00416390266282565
-0.06652177187821769,0.04189375302721586,-0.05422024952675287,-0.09602831454790295,-0.010071578101534294,-0.007456277951815723,0.027513057274084617,-0.062498532230237984,-0.018029291512217698,0.1195690319293218
-0.10412695921532554,-0.04092511549278489,0.0016940696065093218,-0.0037200087861873382,0.04956418757951612,0.03911680378418783,-0.021886004457032288,0.017711934471896507,-0.0041593056267456175,0.029722156829012147
-0.11037668719651353,-0.013392253850158126,-0.07942179452838467,-0.00880988235286988,-0.015580837928297786,-0.006252139809932941,0.018303323482899075,-0.057038758938984406,-0.028899288185868434,0.03605899957292003
-0.031244640506589916,0.06136463127836662,0.03321317473394972,-0.013856920492693511,0.01981030030599472,-0.03323277211068972,0.024839876065327095,-0.052079555411671356,-0.009232640088479927,0.041167446174439626
-0.005650839590956774,0.061796780888275255,-0.032797439086754504,0.01062594542454318,-0.03238959274975959,0.021092176316847004,-0.016749009618160223,0.056988146585981225,-0.011562013252490263,-0.04030927363841908
-0.016519910319917116,-0.033184849049098596,-0.04867809699414481,-0.02626259057501108,0.004297930548006983,-0.0032477783156832415,-0.02659735938503503,-0.06500236501598218,0.009052997292743602,0.04035277528572824
-0.06795717628080725,-0.022292084795294553,0.07220999148765776,0.0021801486731471277,0.01593226513793491,-0.011557733578980649,0.013351287807499428,0.009926905449781594,-0.0017962284374744059,-0.05167051114074177
-0.05187115996300733,-0.03043107350927375,-0.012723574495119678,0.002609795500649252,-0.009368178006261415,-0.013364183795860332,0.019878305323710443,-0.03294998804377555,0.029479936010400495,0.010560696474272456
-0.013106211604960824,0.047591526700337825,0.007573581781894738,-0.029531854346386645,0.055839458257913414,0.037738720741290546,-0.025364186608452827,-0.016756001054557945,-0.0300825179663267,0.08363306178863682
0.0534783584690173,0.007612583859411789,-0.06438066965449525,-0.012246052738859928,0.025281059403413006,0.018330060253885245,-0.07921787553314974,0.01674235045519416,-0.026639892251776855,0.0028106030087514063
-0.022709681455355853,0.02901930020331711,-0.031118368327677424,-0.006638299405237242,0.028946939863020802,-0.03002867404052225,0.04571242902713876,0.05559421683109137,-0.007801947966554874,0.006146302095562975
0.05502737691014877,0.011625751824494551,0.014091164992868586,0.027334889156602777,0.028777771377367416,-0.01826183066648614,0.051976186939255056,0.046096966637928186,0.04627638822438421,0.006312529395081262
0.02432847041178681,-0.017310308839459523,0.008033953237280343,-0.024067213892766382,0.002086506277955542,-0.02404361313815315,0.04204627510804484,0.012605842799961072,-0.023171348675978854,0.0008712006072639648
0.02843261427579242,-0.016759808579820516,-0.00021682614495589176,-0.01340123047718205,-0.058068184099534556,-0.009532013196087064,-0.0002114792638167222,0.07052674325590118,-0.005343605555355398,-0.045233806095561685
-0.039626928912150694,0.04772398726472377,0.016907800130715762,-0.039931583925994836,0.009940242210099875,0.007079646913858505,-0.013902104539617982,0.03165548043467447,0.07341300772109494,-0.0051572846443424395
-0.0055182100147570775,-0.05091957065868665,0.03354561131894054,-0.045188836593881954,0.02151893198635782,-0.015771054270651,0.09379300265467067,0.09215421905045888,-0.0643058052470336,-0.019998914635881552
0.057187052827675645,0.01614439803801936,0.06585113497329963,-0.011567667326885968,0.06825032358746647,-0.0037390675056627547,0.0029768584069207868,0.049802659944717664,-0.028364685780135797,-0.0031376500621390895
0.05986007064372144,0.04372389177275308,-0.0848513846236485,0.022416668968058606,0.09414192138926404,7.030214939641933e-05,0.015548529927239518,-0.028874961233326325,-0.05905097170219949,-0.04928909208691375
-0.04625673347134232,-0.022799581081574555,0.03244145189131522,-0.011998794124091938,-0.023174945435176845,-0.025351546894715454,-0.006904780558844554,-0.023564166658713036,0.030136253520946035,-0.005422278386236517
0.01305909000556804,-0.04815822833594912,-0.008805265309510958,-0.05151564784995357,0.024153187502712208,-0.010203798382549515,-0.01408748776600393,-0.03689093800380762,0.01831692831655553,0.009721249855667139
-0.0605227743681581,0.027213678908616555,-0.029856749683481502,0.06664636993614301,-0.04250787421580865,-0.02952383975186773,-0.01858061095448518,0.0007088698434706747,-0.038806070464733694,0.03139485998415048
-0.08261728756387254,0.04990506785136833,-0.051371060382536936,-0.039698215257286854,-0.011240295968304894,0.00022566547796368626,-0.024039094908776232,0.0408648238592022,0.04262584023318239,0.05856378953327536
-0.09650318578441709,0.03574940257765978,0.013221623052727678,0.010774377648668705,-0.04670308171771859,-0.07968217339050325,0.029102213874341247,0.04591681893037021,0.049221959779131554,0.06589458748415991
-0.09200181207859964,0.016840788542132237,0.0020025952482232183,0.01042969101562091,0.0005849008513189781,-0.10111082557832107,0.0519787250138993,0.0024828526944344256,0.06212189299286482,0.0953276533959114
-0.09168821388302242,0.04261354804966262,-0.01898695574798507,-0.018897703785451955,-0.06642362762917274,-0.013436964906914702,-0.04468017680041781,0.007324080901417975,0.052024319424335025,0.13051054764622488
-0.06110538191660543,0.11714948402629836,0.06143050000034561,0.007233991099461377,-0.04487375435224911,0.07587861543063455,0.05212652307159989,-0.04723942710766266,0.036539557844844105,0.1052010708347591
-0.10221824059864959,0.0401570882254358,0.09742293471786453,-0.04139447069100677,-0.06408421748533788,0.04414041103985491,-0.00041789829187178975,-0.06084674152716875,-0.0793699056014316,0.07857729990984406
-0.07290496282226298,0.06321477879856968,0.10536518848961585,-0.04376046433753457,0.020510859641051375,0.08295972580204754,-0.08680755446486614,-0.05914009174272957,-0.02514890094415135,0.08151547373708914
-0.1105137585100716,0.12962339227874964,0.10070413099421024,-0.045533725365275085,0.04628256712498728,-0.057541088495912204,-0.04159455246893675,-0.022166195204525712,-0.02488914040149223,0.044559311944878145
-0.11653719758761047,0.09650212717689338,0.0148769350810676,-0.01700668392377075,0.026194807937839085,-0.04375788679555688,-0.023518469296296838,-0.1227037179711499,-0.015873801799346103,0.01684571082277469
-0.06990081932200506,0.07265132303667622,0.07008193325963047,-0.016014090892968187,-0.01892595606608518,-0.04239769158839877,0.014897322740511488,0.0783365173282579,0.02193912532465097,0.03149337351917584
-0.03053888702361045,0.014225297160218333,-0.013974788696431487,-0.008330502585367642,0.02530836656482314,-0.04572470958904392,0.006706618871769146,0.016646749429350235,0.09779408844369755,0.12262193336014089
-0.09118985919283519,0.09201928371805292,0.01098226771596016,-0.06857360180035837,-0.03056425606915509,-0.07731824016111041,-0.07276285016100639,0.0508558833734419,0.11410675592328075,0.026316774064096205
-0.0011809087338113646,-0.034004588203829685,-0.0032110458113403764,-0.013481025891275,-0.039268990212289245,-0.017309378249946442,0.016139668799992363,0.020440008429548094,0.0473726910229166,-0.05440806540838904
0.03705636828590013,0.03507257042164562,-0.03935610014081899,0.004768423783296877,-0.037622730744558616,0.048922092157170846,0.023684479622212106,0.02060186641223969,0.01682845050898367,0.06520183823468952
-0.028305005010327206,0.04903767224498673,0.04752852457230969,-0.026494417644639553,0.046444280118915986,-0.04504091007897828,0.004179437705885708,-0.07805950377930551,0.057168524172930904,-0.03065051821427365
-0.12372754451085219,0.022307745931230662,0.06726634027809768,-0.0027436228671265436,0.014988646437804709,0.03461205615325104,0.045296051142455294,0.014302374244036667,-0.02648256877227371,0.06842633223454857
0.053455794796564,-0.009165358993101877,-0.029724032735026128,0.024826088746348125,0.036449963727469205,-0.0026197570168982076,0.014316066091281984,0.05684461486470974,-0.04926683936589432,0.0038056048416653973
0.004976930582273769,0.02975452300289231,0.026866221147599158,0.0072841653087861715,-0.02563938988797462,0.03539448972906825,-0.04760576647495998,-0.025518009449456827,0.021009242952010624,0.01594149858058653
0.07067480766916523,-0.029030026197043663,-0.012869952886123985,-0.03757963145372485,0.0016503419261134503,-0.05020502474999701,-0.02673936716207115,7.326252984255063e-05,0.005499553908448199,-0.032281852795190635
-0.03732704353332464,0.0064257062976654615,0.07492058847454622,0.026206664560179657,0.018361152244160333,0.040277947852555375,-0.03306012788814723,-0.014239093325504092,-0.038428263488104845,0.04031862533179698
-0.002726677926542539,0.024823882799549116,-0.023840754476233475,-0.003677694996179004,-0.029013615512582056,-0.016383938523543983,-0.0031260880849806583,-0.0004410153466532165,-0.01672382387879573,-0.05089231679276532
0.03733729812895121,0.032790927065727615,-0.0033064461557330564,0.002931130654677137,0.013518169365853403,-0.09561389828219596,0.00039384840410386547,0.023776806800224346,-0.04956349616209706,-0.00453288879210877
-0.007185570500907819,0.05162123478146176,-0.0123486434501204,-0.010864554509418289,0.02135880983257293,0.023743393670028524,0.04132690100569343,-0.010958546492895717,0.02062300266834372,0.05786132663903999
-0.00948638049965847,-0.01607355062685711,-0.0090246937045639,0.005205104299458355,0.018568484390773615,0.007717662264263138,-0.015168116586545103,-0.03080673092200292,-0.03136707036579254,0.016884791122142386
0.04691855688428027,0.01442663521380953,0.007432324884157138,0.044452426242842714,-0.009910512130559223,-0.03837424680844577,-0.006414704232538597,0.0355108354458944,0.031142856533557202,0.014156930014578495
0.03283928217923599,-0.02722880046629419,0.040538526590824284,0.024346013917901244,-0.04257099003657701,-0.04140452971203359,-0.018045417236936253,0.04050995095358861,0.02280572997901994,0.027941656313342778
-0.09538350451266235,0.007074377661076289,-0.008786997279477415,-0.04529203736486224,0.053616166339934164,0.011853500981395645,-0.0014895549694908807,-0.017579944672920095,0.036614187989819955,0.02384773980912575
-0.05590991116164689,0.05072058151161241,0.038277540947192844,0.034867182582892765,0.004172038828454285,-0.055983062126848185,0.030114529761576986,0.0035791649830341733,0.040825298007988065,0.008135039541590136
-0.06249233932067206,0.09694655413600353,0.06961100921803202,-0.03245954574994571,0.024210598811342247,-0.006485618371133309,0.11630555255210095,0.054284922787141976,-0.06995202888641992,0.025403282250174533
-0.12063251987829825,0.08439516315154974,0.16894749835078274,-0.09170228576763423,-0.1125517600106811,0.07055165725741788,-0.017891847810850927,-0.057495599423027656,0.009968611273826485,0.08866349325470806
-0.1937836448859016,0.12110219185066261,0.10879363768288032,0.0012737586436047106,-0.11304981873778754,0.03258538320361578,0.04437684560939215,-0.05909340145721149,0.027475417032646922,0.15701231912519661
-0.1803123525905716,0.12674926510625306,0.15895852228321738,0.020999106919772803,-0.12423622155828275,0.043047463576434936,0.04566354006517538,-0.04526097680403836,0.004583371675695392,0.1944544035530631
-0.18715296197464534,0.12873771401161438,0.013441634897593644,-0.011611300330519398,-0.18710279626446433,0.13596448803326916,0.017100061418030298,-0.04816989753016573,0.0013899996996808892,0.06196286589499234
-0.26950534780768604,0.20490303874861526,0.0799646149687131,-0.13705429169655478,-0.13937083110590837,0.1624263962539615,-0.02388891976923678,-0.1357449878090817,-0.1251568087269928,0.18320116927849006
-0.24237185101133407,0.19086456697158027,0.00829379466340005,-0.04654510451181604,-0.0938224148305847,0.265033087030522,-0.05988467121271372,-0.10089663473219573,-0.018806533514158102,0.17014453279248423
-0.19040097688149968,0.15949675498396138,-0.03758590834199665,-0.15635128732346737,-0.07188653242347148,0.19681476279589277,-0.015893587773248112,-0.1147843389077997,-0.02122310759650616,0.17797896475560163
-0.12130169662354853,0.17740530111311228,0.005423833110481695,-0.049129130826413125,-0.14594480513559777,0.13399717431007704,-0.02487422821390739,-0.08035625330737654,-0.04686394304703826,0.014003231052628984
-0.1887127923840281,0.2674961072140451,0.07327497151159654,-0.035617519148148404,-0.15457439204922063,0.15343173483453498,-0.0840040477165078,0.011031391669641214,0.027334005360349547,0.17076077812103727
-0.10903561800937203,0.22522297251367593,-0.13587312482252964,0.02126571049107607,-0.04920428392527543,-0.010739595863513082,-0.04404089252171775,-0.002970651191009655,0.1792916833103624,0.07168476775120401
-0.06836911103031616,0.1575763723077849,-0.09134337855096347,0.0186381605947272,-0.06747480502046771,0.009344611090183298,-0.09687288835168163,0.009539759229133837,0.1909404303578485,0.15960040604608652
0.0028567612896459533,0.052674801494128634,-0.14259450763566686,0.062438956308997144,-0.004578906426845059,-0.08319966746507634,-0.03732036392396585,0.022674712463544088,0.17886968399380107,0.05608800505067353
-0.03911403170921116,0.1150474238789891,-0.06946469224135592,0.03286934167981139,0.015316178314455989,-0.08787342987195608,-0.05100131442000296,0.09649153168192774,0.16289819339984432,0.014939193106911558
0.038991084073649665,-0.05098227044698463,-0.10810274780396228,0.03613907725997637,0.07349997906171406,0.021849832945721362,0.017214892708849308,-0.027334965988366225,0.050557878644523324,0.003302591533376319
-0.01959985022590786,0.017739295285412095,-0.023179507903070124,0.1148157929616241,0.054215054143753265,0.001502586875423178,-0.006044332625839999,-0.03588290574710812,-0.034057121208896264,0.07163335587448516
-0.045932439097824754,0.04405595423942754,0.020820356155467963,-0.02845702353455803,0.05284502976250329,-0.04902595161707984,-0.05097232016564449,-0.0014171046204551068,-0.004773940837807033,-0.009202648024533758
-0.013739114961596086,-0.040285858761404,-0.000405355899768827,0.010270691225539046,-0.03695252668818799,-0.01117261984481949,0.09100098996666676,-0.042948107423361616,-0.009394669833795733,-0.007187544956608794
-0.010734038624917458,0.07008790096208363,-0.019036343917691663,-0.008572074129484237,-0.06912774703479795,-0.02678072202345626,0.028892748794886448,-0.03649576088011415,-0.00968962020806464,0.017227886739477387
0.040406566214535304,0.030984156169694875,0.0696375539090757,-0.013674159647402692,0.04933426932734153,0.034528947443115854,-0.051814744566239204,0.046180693854109625,-0.0020880142494396586,0.013419029534350016
0.013392293006871291,0.020534996274423956,0.06529555397023686,0.04755552740346999,0.001482606710397287,-0.0832620749845488,-0.041777721928913464,0.10074727027784386,0.03905889639036342,-0.06719792328503597
-0.0067919339002027205,0.021722991459640347,0.004176645137067182,0.08359509357465193,0.025731207424040788,-0.006279650232890386,-0.02444861364290943,-0.01908168218352357,0.017518896832022242,0.07153326295078498
-0.026956998903358217,-0.009915226270022686,-0.07138648693778715,-0.014442590218912388,0.030879164974827667,0.02429071642235135,0.011111121549821088,0.01511849846811421,-0.031753966371447125,-0.052217405538806556
0.041189066175977535,-0.0015406290688276016,-0.018506228958440882,0.023289373930136085,-0.0559857012450893,0.024395622900668584,0.007601491020756665,-0.04339797219377243,0.06624000770798559,0.03399427527395506
-0.0008540610185690746,-0.018380119368889298,-0.0024487647299942304,0.10360877478917725,-0.04826458956650889,0.05299012093186929,-0.005682361897509545,-0.01699945457184358,-0.01109814018675988,-0.004013634666222473
-0.052480397659933196,0.05858791309521944,0.05273023507463304,0.03549640139636943,-0.08187466348708144,-0.05948832934971433,0.054685566615104646,0.011595961425791196,-0.012998235887934003,-0.06272772187152498
0.01788333028369803,0.04909183898357334,0.021659898071489207,-0.050352836970342804,-0.04207390291180314,0.043701612922215076,-0.024694607964526594,0.023050670037481874,-0.0634419469438876,0.012825392358816756
-0.13991962284195952,0.0017379760466953522,0.047487282063666675,0.08870103303097114,-0.1029383023574936,0.1023716182440816,-0.007849085467632853,-0.0628586023454768,-0.041133783344471764,-0.05102225092842331
-0.15236548330751762,0.05568709782233164,-0.07195008198055314,0.05585483892325357,-0.03403812922920361,0.17093956256289158,-0.027922305436946623,-0.10270429558365977,-0.08107433671792555,0.041752940793573966
-0.06140908534332729,0.1046882266550063,0.12753196523464386,0.15442901435788572,-0.19113660052816575,0.11201573220181596,0.053479143191609506,-0.11005798814709711,0.0326549262441972,0.0933680282188247
-0.155575095263873,0.1345855400249926,0.05165673428637683,0.16664161362053234,-0.2536898585324699,0.06339403987911242,-0.03596936521805568,-0.042167840628507036,-0.019175179078908648,0.052160627599504246
-0.08771736679258527,0.040266652981147864,0.03323217346006524,0.07317024234098457,-0.20213430812621053,0.32283222927047184,-0.029243807898196694,-0.08084627900219989,-0.11552870096782092,0.1795256891749482
-0.0027115319955012852,0.10914109224500347,0.06551909778476729,0.043522009487482104,-0.18422244183751335,0.3758866397545882,-0.14788610400254024,-0.057651548946739406,-0.14192290101129823,-0.002559717279850209
-0.011244029495988794,0.0717583953909116,0.0035372562822472272,0.004343796283103542,0.04602401874190466,0.282704390561875,-0.15743978597917094,-0.07832786159921848,-0.13730238683123538,0.026527541086465652
-0.11824826382917601,0.0662733973230844,0.005546844795671184,-0.03482200364650373,0.12357425373569084,0.24238771369440723,-0.15777291271230864,-0.06230707455125337,-0.12121588781991585,0.13151229603119594
-0.10437960830733978,0.1013989743504603,-0.25504050304560427,-0.03911526182899297,-0.010512195244115072,0.42205407833434444,-0.1992058753012622,-0.0395131579505915,-0.05697781587672838,0.006303281394719097
-0.03846724360576631,0.12731172251196185,-0.04995755264762184,0.08008731904749244,0.003987455184859748,0.19669796744221923,-0.2616324622162173,-0.07284549018806573,-0.09895072918773515,0.12672015927868804
-0.008872334336437181,0.10976393633141854,-0.07266411783956074,0.034694121774653905,0.03373524806904881,0.23409391678357466,-0.2575583429021079,-0.10395419665978178,0.012903368928225236,0.14853394363639572
-0.02352525403647008,0.09658860860119291,-0.06938901859996192,0.1292661058559899,0.11457468399946591,0.25676600337088895,-0.2325798092329309,-0.07997457298220678,-0.05176372729300365,0.07510769696310887
-0.06501805463097665,0.07967758068375622,-0.05901558790376657,0.03008458304946106,0.13738051727879094,0.016017633240389496,-0.2141242233020637,-0.03540536609464106,0.017794352613161875,-0.00786181038726154
-0.040668413160605654,0.09448385147792297,-0.0969369309635129,-0.05033838596723476,0.11872590302940152,0.014853693161531002,-0.12787887021905506,-0.04355459261577957,0.1506785342214111,-0.07558864161431582
0.07076943218249548,0.0036282915066522215,-0.1820382223086428,-0.12803027388051055,0.07734105463422308,0.042220301105528116,0.027399963626226615,-0.07186617960233276,0.178887983213339,-0.12350844775791532
-0.0772732967475431,-0.009668580116567668,-0.17289729393041672,-0.015290350310459323,0.12536910325119174,-0.03498361010327392,-0.047593637287863005,-0.0764041042935108,0.1280243332149262,-0.036770024298277366
-0.00274685128573973,0.048183370409885545,-0.09837544453088862,-0.01925477994650223,0.13553118994207905,0.00769776808287349,-0.051471464464532476,-0.008545988914275443,0.06712398996142296,-0.07558245608666096
0.04845673635161561,-0.043133142498898984,-0.10656145411901337,0.02058570726782459,0.040000175913533165,0.057446132172663374,0.013486705247439468,-0.011050535594326859,-0.020749301025496082,-0.039966518990384475
0.06281316665104045,0.04175944479958772,-0.06969734568829708,0.04759107833081081,0.045579291724908974,0.0670456219114473,-0.050529603710289556,-0.061068072200258824,-0.041059278084166095,0.0035917669537864085
-0.010155238518601659,-0.030615040036052893,0.017444785712630837,0.02172200768514632,-0.06370448395663326,0.007032411434999072,0.002661500411587351,0.03289156437948325,-0.005501496580540347,0.06313187831936738
-0.009515562849483268,0.027079218634678708,-0.01838231811308872,0.002119552767026413,-0.09176894980685292,0.01781971647793125,-0.0020649560963373614,0.06280513013886696,0.02375273755605324,-0.017155755871811458
-0.017038115955145264,-0.007630771571563911,0.029908931446034664,-0.007231664269400184,-0.053348138198331146,-0.04402396452343937,0.026986800049250952,0.0382291808170043,0.006920114318991477,-0.027867961757772765
0.023894077630693525,0.01806944369793679,-0.0542433265631202,0.03589388784537269,-0.023414896425203238,-0.03076856366561924,-0.026422898079089395,0.01125580490171894,0.010308865307488313,0.010305094618280497
-0.0009159846426768804,0.043153743374728194,-0.026180398285419387,-0.0074420517533707745,-0.02642947737159079,-0.01947833116781603,-0.046201625480479055,0.01613661530655244,0.07119993773110964,-0.03287220502611405
-0.043615725679373475,-0.035556954601726976,0.06449614908015516,0.001222993409756544,0.014026386939401177,0.039829307519355775,-0.022707024402637103,-0.02742545781374649,0.017178126796423557,-0.05222335195401052
-0.015637937158473454,0.03204117475572033,0.06522444687778294,0.040322630251753595,-0.10491916621139255,-0.0186585199371717,0.018481715002230073,-0.008091885832301027,0.004895648987718451,0.009591113547844284
0.004257642226890663,0.10088134623260621,0.04253960786123201,-0.009428932309335098,-0.030794839480113908,0.04336374990482892,0.013862472417947348,0.024677244204420055,-0.06242231850671652,-0.12134917760727454
0.028319238428701616,0.10013376354451636,-0.008498555959561024,0.07896678361794254,-0.04932427924960182,0.07533429785471732,0.04103980319850458,-0.019309845390198338,-0.07708114595183932,-0.021412652942681784
-0.1283412300160721,0.1285303572031535,-0.014089155961809288,0.07062951883249921,-0.0844675724357676,0.09288389687072933,0.03137066064665085,-0.04678905098271848,-0.12643117134794865,0.0337846988512828
-0.044135636917170554,-0.025622131146094542,0.0373875623384528,0.06669577924393341,-0.3007917931221091,0.12497681537535561,-0.07508356215417604,0.02025041683433483,-0.07920714357571061,-0.01264997938617296
0.04135210526562782,0.0318921389401135,0.11157536670696146,-0.017121460806055238,-0.20484357461781125,0.07202856840716787,0.026402467463829796,-0.009590883984188819,-0.0064074834168165624,-0.12776109468642038
0.021253358862129687,0.12172353390879835,4.789467256626871e-05,0.02440689730976138,-0.23813748382909516,-0.012533994517441851,-0.043259019064746974,-0.0461869989157617,-0.027651385287491264,0.0215276280764592
0.06370109240717006,-0.022975267695035367,0.13671678410365534,0.2644252094367092,-0.02410498864309935,0.022325317508690296,-0.09006049092002737,-0.11360677079325887,-0.08250469485100123,0.09941809297604706
-0.029208422188577027,-0.09750384037847072,0.12870286636375958,0.3188976839822299,-0.028886686550812845,0.05342393589930032,-0.06737939499819194,-0.17334500813516815,-0.05811243433906776,0.07571886753622849
-0.20412993334952848,0.07898944647714766,0.11565137783904604,0.18663891195145968,-0.012813237218422526,0.18554262566446378,-0.11091687888728813,-0.08215524736021294,-0.2674058311246592,0.08522727691836442
-0.1144891882163699,-0.02463577811568228,0.17960300714398558,-0.008158716402802996,0.027236789813605812,0.08990750871685019,-0.28243129553640145,-0.13402200882859888,-0.0840432913819636,0.10549431472405775
-0.16367193360146237,0.08209107219348492,-0.014258007815897353,0.022038097144357564,0.16164523488634705,0.08413155334438806,-0.29064808408888854,-0.11645242296465402,-0.06731287650793476,0.04922129684598323
0.08414786119747353,0.029923523153120753,-0.06985442529527457,0.06839437710618454,-0.03949968353487833,0.138195025312569,-0.35767614057565583,-0.14513611174407132,-0.1604794055367254,0.21764294437522871
0.21731567725292975,0.08073861028499763,-0.07619263514176979,0.12191889845788474,-0.02031834167031408,0.1153648375349846,-0.4076371431980081,-0.12160808558296826,-0.09237504712215927,0.1673989714563143
0.1534934895072477,-0.036452520780978964,-0.003801379501805563,-0.012880446172531777,-0.1377035557998791,0.19378848433816462,-0.29054037740668803,-0.04268386046689815,0.05475047051163771,0.07797968851316041
-0.024061921855540538,-0.014545356014849539,0.0007477069373502782,-0.00559286682295852,0.005828910675094963,0.05647080053840214,-0.195521311881016,0.017765678337738063,-0.06554930508483958,0.23338281001853414
0.07802298937341119,0.02204673349677864,-0.06427798601335173,-0.09292580491852925,0.12232022685635015,-0.10628973029482236,-0.13250019314961584,-0.18022268034038202,-0.03472539600324138,0.22152958721580068
0.0334244281873636,0.06125152591815626,-0.1478937805099813,-0.1928086279230132,0.20379366508953728,-0.14538723715200716,-0.034237293764591,-0.009717006842866206,0.07508736407559047,0.14374111057172967
0.20857415640458213,0.023287102853346963,-0.17542403462840958,-0.24481300698218367,0.15757811752607584,-0.037491755282848975,0.07028254598682629,-0.0595137183704032,0.060193438331844665,0.027430980823202326
0.1950027899458458,0.0585677259490655,-0.1342002133964269,-0.20214733879567576,0.03923334289004461,-0.07832414306859052,-0.00591320179875696,-0.08927866204213727,0.18887809765308786,-0.07280419968519741
0.1584870713304948,0.004930579616977506,-0.170409242176478,-0.08769541798170964,-0.020605924364721757,0.0707009491427358,-0.013444608431455392,-0.017037909684160947,0.05356092405456426,0.0003130193702153422
0.009339054819959742,0.028060363234019718,0.004608409771986735,0.002610901197914081,0.0039045862016877076,0.07057771518356792,0.02210231540440367,-0.009739397187835277,0.03752776895627281,0.006458136240831964
0.016263602273539547,-0.01758329808531927,-0.00259055073279356,0.007998969506483902,-0.032489995687785635,-0.005031834263693647,0.00314713726637644,0.022669724325863155,-0.015872556592831995,-0.005025642791303236
-0.0056406413055747305,-0.02646215181852924,0.01724529319008336,0.03176155483096598,-0.00837512662997961,0.00430145235161893,-0.06504403466476728,0.01271923181136758,-0.021944802940042238,0.004045540966790502
-0.017915224358373116,0.04274115007735562,0.009566482320400103,0.02201570542336469,0.012692285760484178,-0.002669715403423171,0.015543847709248026,-0.023915523818273686,0.05451842496956416,0.0012408311740606391
-0.014131315943100048,0.01168230992658901,0.04934155941138067,0.0036471146582583718,0.06530770696499288,-0.0026126962086107605,-0.06035216217862368,0.04587597434934184,0.0381351980121214,-0.00455565253286299
-0.08268058945208262,-0.051153499118856645,-0.04492723245971484,0.03757340089341388,0.03792033211078613,-0.008322183801395525,-0.018567980567207182,0.06742396814987801,0.030024038446134684,-0.011666433373501848
-0.04389905064477926,0.06954244987969727,-0.07195393861427493,0.021440244084369516,0.04419991491025484,0.09800700329414859,0.028007858243143915,-0.05582339973422968,-0.004826151716054495,-0.009495206029388276
0.00519453048925912,0.04325745649079797,0.0332593572772572,-0.023884586209897155,-0.06391236400860062,0.0006043290340617089,0.032864889124028504,-0.02149691188532722,0.0035578885931936088,-0.06925749074682049
0.07279210096813737,0.03171564597160696,-0.017607695099941163,-0.015621313291485719,-0.14236813608782692,0.1455390668413293,0.054900297791146385,0.00015393256112610003,0.02733024424737654,-0.07911344607091911
-0.00943651798085752,0.06840662849878369,-0.022049750741336704,0.06184159026939462,-0.12364239933764407,0.10542724863739478,0.008063129152822228,-0.07228066057749614,-0.057326001059475176,-0.13411438258092873
0.01080630297924274,-0.07728327272709126,0.026319850826826727,0.04094416617114316,-0.2271009620075254,0.13442509258046248,0.015565257537882146,-0.04610432810825123,-0.1057738210536463,-0.0933016337360102
0.012452253446743342,-0.08534840153944291,0.028459424589286398,0.15869328589405318,-0.2067100932371011,0.22675639203931075,0.04734844088832641,-0.01387940856266397,-0.17137477588915348,-0.05510335021417181
0.032041206810366527,0.062074849756261985,-0.11241787448747578,0.023917676220592595,-0.18572768166406595,0.05504043881252296,0.07284032837973559,-0.08778707479497742,-0.033269094063018714,-0.026562353579120613
-0.06047314528440289,-0.007617245734478397,0.041480785954518776,0.08447187008058488,-0.044445685679019145,0.07965191835181645,0.0687159509409039,-0.12225349376026166,-0.04715934112216515,-0.11450201014277267
-0.019463937933845116,-0.08322682740009607,-0.032997412972235234,0.12986305472873524,0.06532369626724696,0.13426671216854713,0.019576479196469883,-0.13569319991238446,-0.04793760990041029,0.09539783286502698
-0.0621695210382411,0.02226606542068721,-0.034146358729363994,0.11336161682900159,0.04714242567890775,0.2213028234690576,0.07541357854110509,-0.22653391906450343,-0.14126400041367648,0.09060791183327335
-0.11274194372375977,-0.05848058985137178,0.011821388952136629,0.38496563771372216,-0.031838368358878974,-0.0016014650328213353,0.0020837950828371697,-0.20020107214551403,-0.06097246545668125,0.06262434119442965
-0.0326115196730659,-0.027205283044589024,-0.03938489436742962,0.2185105562052448,-0.1389895138701591,0.02813542434012113,0.019549906157802395,-0.2380279136103192,0.021360577462612364,0.1949028234420727
-0.22697991919326485,0.06594008207454012,0.012854649308957893,0.1908637604819634,0.03219905998378926,0.07490122787389446,0.049078463157305026,-0.05779837924237427,-0.18010829618036575,0.16112474840743657
-0.15173430141203534,-0.1394059018731353,0.0803900519089186,0.20238208730837154,-0.04574438080212093,0.18198258580776047,0.1442776518460343,-0.01337810958760294,-0.030812231374619827,0.08053729241373969
-0.012220716934217798,-0.1270518764340498,0.14614848447154652,0.3161831896185294,0.05295639518911765,0.08658588646464256,0.053323195105928194,-0.008024696401668504,0.10330136504707864,0.019068550233210444
-0.07280616965871702,-1.6773680025793038e-05,0.1419563541822427,0.13757105772094053,-0.000538372007589494,0.05804756651697932,-0.008701851579507832,0.01791840724814527,-0.04348126356037722,0.004211491512110004
-0.057627261651803464,-0.043298054583562284,-0.01564243989977163,0.14933130242434703,0.010010020081798429,0.15289648079260665,0.00993878915733194,0.04398445749229324,-0.0916845983264228,0.12038981068010987
-0.007499136564297732,0.03917966157489201,-0.11841364590565823,0.033295767805621164,-0.005003925811550744,0.13338131112759566,0.06981583604759009,0.05399336158687708,-0.11947578474183812,0.05129522895368546
0.009881158844016627,-0.0589683112539974,0.09353308437151542,-0.1185339353579723,0.06419582392654179,0.057930199543503785,0.12185810539500243,-0.10105955090788485,-0.08579792725893183,-0.0030841520593484447
0.25647076119181206,-0.12167923947568694,0.012251180943989963,-0.16318744718449346,0.1571778984300186,-0.0380938650093553,0.035688192025808495,-0.05171658421430045,0.03840359538809671,0.00705134796372308
0.4562488198552229,-0.0184335132528744,-0.11519295803194236,-0.15005538185701695,0.020793148588788953,-0.052408126567158334,-0.04936556181299222,0.0022412298764709487,0.18379809254757018,-0.04590140407747362
0.2982037288232248,0.0017876686323567508,-0.12489116719963085,-0.049876803044484094,-0.06354069004208851,0.027779507705201795,-0.01667833151274577,0.01879024007860671,0.1236136928287513,0.0410321882277851
0.16952964771838483,0.03713971630105367,-0.10405145786281048,0.0632022030894377,0.022496488338350593,-0.033956269293757904,0.04232829335100408,0.05787609492186512,0.055984105440963786,0.08053625478466392
-0.007792318429791653,-0.00020902920998248751,-0.044598089663673866,0.050582421606335276,-0.008965879483630694,0.03534086982433542,-0.012522451714013486,0.007920610919039993,-0.028937155457154553,0.03832798492590242
0.014817871242614073,-0.006208083236591374,0.0787982523097637,0.04933218611729619,-0.05694183753023399,-0.01036798881356159,0.01798690024286709,0.004166108190722967,0.01164961680260919,-0.006890454033798724
0.0210910258869597,-0.019664372187634258,-0.004417025045145311,-0.024777627007761465,-0.0033494069725598036,0.0094588618130187,0.03777431213878042,-0.021243005074399454,0.010720353941783013,-0.010481127078725928
0.03317702790503093,-0.026211197143697896,-0.03223804822041206,0.025700392414025837,0.02420045096303692,0.05299645799732231,-0.02732347014625664,-0.04032632884481272,0.0716262830162841,0.022301194413017398
-0.003722628952311418,-0.04631172131872539,2.510992733784683e-05,0.02116191527317616,-0.02891094109631704,0.07843711474435573,0.05457539613695702,0.014178853822898638,0.014624252322425743,0.02603798961445236
-0.05121685538896656,0.057059598562691875,0.02782465717781644,0.05256502468950374,-0.04491844895188489,0.04091627842244601,0.040252790607647505,0.006737283842944532,-0.09467861073637691,-0.11175119697082764
-0.12225761133635941,0.03898256117477926,0.04190393645543995,0.02941948005223682,-0.11492608910382818,0.21010613759917732,-0.04066210104495457,0.055070266710492456,-0.029166734177230223,-0.10270225593117646
0.02235339761669117,0.03458212768212061,0.02774000541672203,-0.0019310427829209139,-0.04466273129917008,0.20640718533495503,0.07889841113090897,-0.02074759057462768,-0.03455270361373321,-0.22569322885030496
0.008580985411655036,-0.10648955719581282,0.10045923758883514,-0.040630632344078,-0.12537529353428747,0.2078865626057685,-0.03169413362414394,0.028360013608141076,-0.08786908822187377,-0.09942066775428507
-0.030488228932480974,-0.09948749339376048,0.02786085489651195,0.005951583541744084,0.0005404077184093879,0.3027216774961396,0.061081862299044,0.02771738249141045,-0.0619914818040599,-0.12209519150401404
0.18589138699748958,0.025951435433291068,-0.0032322650168568486,0.09148894358319047,0.023837849111719423,0.066131793677725,0.10392146996523062,-0.08374558325249064,-0.09276219551071817,-0.0012507875814413924
0.05991868192387189,-0.05291375021352061,-0.1051193309852958,0.07627043023868146,0.010154082942347754,0.21851028770373612,0.21665908818097074,-0.13807061824543898,-0.02001154639945765,-0.00856452507008469
-0.12173084680214039,-0.054295050988589076,-0.1409515062008221,0.04232421367480504,0.05754885109918016,0.060895385914628265,0.1917648564691971,-0.1602689212061236,0.08728647780632043,0.0524923923008312
-0.17198887356266446,-0.019295074312052733,0.07620546158074584,0.02101031565469247,0.038318270653553824,0.1369134057317058,0.1871255924159815,-0.18713650522749778,0.0473269726575227,0.03219479952061999
-0.19623162098327326,-0.03946955601826218,-0.13120409205172287,0.30123813226319873,0.020767563243798994,0.11671308324021623,0.3018944622125915,-0.23443210541239226,-0.030071534802323233,-0.010239448301073541
-0.14807055002590946,-0.15371295582136846,0.04981321520836735,0.3397633463571849,-0.10268543940067543,0.018148367420636625,0.28795688560410443,-0.14246585299115205,-0.09674752316626088,0.19836484238369897
-0.13261695846791252,-0.06881051212311372,-0.07103118619644726,0.19437161060176777,-0.11477650369024521,0.025547108091872356,0.31329903897446876,-0.143780473323479,0.08243511515318555,0.016178671089160032
-0.3325977974934241,0.07907609623829229,0.09364094775159607,0.27438092620765037,-0.14112867194488588,0.06514364747575235,0.2910287084266583,0.0447812580497768,-0.014596098701784905,-0.028086491622600677
-0.08819885004337004,-0.13302134160145515,-0.050060701829616645,0.32070428453890226,0.05664066628701923,0.06209531507195976,0.3519788030556206,0.17660756840168804,-0.020045042244003202,0.1435920894177894
-0.05933663766662013,-0.22042831562417334,0.04054014581142433,0.2923262548201103,0.08099646414244759,0.1222710802894137,0.25121695021234347,0.11953702128534062,0.25592042654027236,0.0496578183734743
-0.0005712973013433821,-0.08956578378864559,0.14186170126462314,0.10558415734415201,0.1445550576528174,0.17654630624992618,0.13094340147837752,-0.011567860679730507,-0.1030154455692367,0.0687103389311135
0.041968583885823335,-0.10457749921780066,0.13656210823843482,-0.018397436145767894,0.18845532079780525,0.14344076735988648,0.05393145279932407,-0.09290182774992518,-0.059792766212435636,-0.07947830619336595
0.04454399677187445,-0.193601221166783,-0.10778266893651506,0.014569931716416122,0.05540941915174822,0.2578938242334519,0.10480238648268454,0.12372938475960873,-0.009735399780153463,-0.07138756289387735
0.10921679404136793,-0.0121385578809267,0.06329322595688192,-0.1916973708929699,0.010123525617428039,0.12296655010377124,0.09318699100970111,0.03727784619962722,-0.14547697160457768,0.011519215081965569
0.2538250231518051,-0.0009429562673198139,-0.0017285161711811641,-0.1948138242856583,0.09759852701864313,0.07250756056503575,0.1383560896711356,0.030531580984460772,-0.09363805554028308,0.031902568873252914
0.4613135163990998,-0.1375971127909009,-0.1623912727044689,-0.13140652717474785,0.22036307529484497,0.05629055654196203,0.11760300006798306,-0.0549246499460971,0.06593261544306345,-0.023687952291640304
0.43504494447771797,0.04906085120294527,-0.23614228369874204,-0.02304608054991517,0.021735991839128128,-0.02075638634007136,0.14107751993419493,0.13596232178519832,0.15462645825642798,0.18778201106255843
0.15679088914993433,-0.005359485284253123,-0.16611293780120578,0.011704331600783347,-0.02507600207165842,0.04991158916190445,0.06217006553181761,0.038211681739169584,0.08406910003311678,0.09934141369943145
0.07370773166200312,0.0070781289211455265,-0.004093700695828224,0.03215424665777097,-0.014520434067386727,0.0006842003421984037,0.01744694487489142,0.08536854254029766,0.021795501144845113,-0.010529669560763337
-0.04205767041443455,0.008973273350997847,0.020526386023575382,0.040323396652745,-0.03404954788706671,-0.005764974805429486,-0.012651456430066873,0.021733157506735958,-0.0018669733360651346,0.023501481790216376
0.04780030203606928,-0.02206118526558986,-0.045829602790892036,-0.06283626141985285,0.03367334447050946,-0.021778077228514606,-0.00773465596994786,-0.016409308396719717,0.005575245093657252,0.00609677811557173
0.04299247515075365,0.005367512423805788,-0.009224436355243485,-0.02966064242385155,0.04538960590348406,0.05308808547925268,0.012668146485436769,0.0011960977392495257,-0.004953235663879761,0.058339968870031816
0.051854439005326214,-0.04606476740446332,0.06144195350644546,-0.06185864378226247,0.0024828276936141895,0.0025140265269570266,0.0872449984719418,-0.04781449704074744,0.028783549969746688,-0.051859411700194945
-0.04425121142823766,0.08196371740151276,0.06285386023595876,-0.009500498153853662,-0.0367574033554696,0.06455518767201027,0.03722295092210223,-0.04497509826630979,0.02501719678006342,-0.05343083862737625
-0.17907133914983261,0.06283021805759245,0.149281840225815,-0.05069654354560072,-0.08418611872230361,0.19651100245613748,0.02242994655960105,0.025218739227411358,-0.08469068066821454,-0.15511603018659748
-0.043964203352851824,0.016566856361520936,0.15251942775465163,-0.02233609074443943,-0.05884534729743988,0.23796996079654653,0.032387403175167286,0.0038292274111760114,-0.06150983164768737,-0.10319853545487816
0.014004316255521312,-0.044650870490849134,0.08210131334906894,-0.01897773203744932,0.026135510468283215,0.11136235799428951,0.02110946286060991,0.001811386584392194,-0.034797941978559836,-0.0515163677177909
0.1389302662455093,-0.007241779697926742,0.11323022262763936,-0.1052484779314443,0.02148102002143042,0.23296933803249786,0.13634723622629435,-0.06262381669743051,-0.1082115827782951,-0.08743164323910324
0.059030794893999185,0.085243741061268,-0.058120836777966055,-0.023059858677976813,0.0886730891066611,0.09641191787932167,0.22818591467102153,-0.08793022234121567,-0.04071237848820037,-0.018038512412169073
0.11944890533463147,-0.08552523694602443,-0.003248470691233432,0.1249336342665253,-0.012281837612977605,0.056914432099803985,0.2779879221658947,-0.22431213117678242,0.05881190463419233,0.0796762753380974
-0.08725066178263767,0.10833892936133208,0.18232083400438573,-0.013086195974906928,-0.10382868149211487,0.029287124185114213,0.32018824949205976,-0.18934554294595224,0.003202495642658706,-0.009828292016003595
0.033789160910713135,0.06913936620841706,-0.0453076517175011,0.03919770106527783,0.026856790536420597,0.12424961983356808,0.24124461880657544,-0.21911982246909784,-0.1306079740830107,-0.016807141025155854
-0.24913305473401043,0.08680283853533452,-0.1734620658390981,0.10884768681122714,0.10028421682081114,0.1361665795133002,0.186559354337517,-0.2021602200974708,-0.0721872135790875,0.0026047605192037176
-0.26254018317998,-0.08207622211157131,0.03540514375944336,0.2288797536836042,0.09921130863368952,0.056456871583967526,0.2400055426969353,-0.14195546060153094,-0.028820592265774353,0.06775086321283753
-0.24478268262140557,-0.06564935049029427,-0.0041801526483469945,0.09680782916969198,0.06993072799744292,0.1445141366448482,0.19551711352057738,-0.05475754604385064,-0.0032568071392502823,-0.017300187994190572
-0.16813548100550635,-0.20380429898916536,0.09656760375400991,0.21508360825937192,-0.044348464741644965,0.1282232778723926,0.2500562712785983,0.10550634639107496,-0.18573774023928852,-0.04060818611466772
-0.019622020685693003,-0.08855499811204959,0.1231715954873936,0.213355606905451,0.21330211515392422,0.13198159551649608,0.22270184579235744,0.15199125177794112,-0.2658370879994838,-0.060219329510407586
-0.08347581287491479,-0.0908861836653372,0.18714695617380492,0.02171222310540581,0.11682080438041655,0.2059595704490619,0.2970462490693164,0.09897707002986723,-0.2121999575717426,-0.09016894603207573
0.021154621817729886,-0.08420978613821802,-0.08718565257611159,-0.06559305996510885,0.30373627222498867,0.31086697475056335,0.19030816120882682,0.09300840088259399,-0.20667765655665116,-0.03213815655438479
0.17720055303221666,-0.20359960968482677,0.11703209669659632,-0.053872705867435575,0.18034893667895036,0.3473254199817393,0.1293669818327403,0.023193426107912075,-0.18306737453325225,-0.1258841099381229
0.24292860510111816,-0.11341222254375419,0.010339456868915839,0.17226362973214326,0.1432399950660874,0.1880045210495412,0.2899839638371769,0.08581716037350877,-0.13435249084605264,-0.15077576088097175
0.23974098852284115,-0.07322019279397111,0.03750773338732454,-0.084280173667636,0.03496476028704547,0.10161491025875706,0.1779145154348339,0.11785942738606059,-0.14039073706439673,-0.036618403282887145
0.18904815986817078,-0.1360296790405775,0.06391036387709927,-0.11231300245021206,0.02304469422073993,0.15340436655913206,0.1388899100811941,0.0752200603058736,-0.09093219633721158,-0.04553114216232376
0.25371371957646566,-0.20594992242857857,-0.1888836547481546,-0.06407005698840519,0.1546034810709654,0.09640708340916808,0.21461205853357837,0.019615219546968467,-0.09064007983533935,0.07227387028252452
0.38635212083234066,-0.06443790928110756,-0.411289986051625,-0.029658039258951534,0.17839660854168815,-0.030910656137533202,0.19327758970329595,0.06378936359688356,0.0952954909842182,0.20234405478329764
0.25621523199859053,0.020103472973480786,-0.2874041860540199,-0.04018551966731138,0.01548941330905544,0.06799224651716683,0.10224207608912948,0.031067622118624027,0.05842667138968197,0.080545648931897
0.031907886733810356,0.017059919327220546,-0.05131104416544273,-0.020014280108433643,0.04246099724283322,0.036029855323959255,0.022436952354173596,0.008109597548488228,0.06186001404407824,-0.030884914458233333
-0.01079608527886388,-0.04080984340815717,-0.03133227352268614,0.04999462121044944,0.01081836618155356,0.02980550867321479,0.08531038832876581,0.04350364478387151,0.001627576216566854,-0.039053028255667074
-0.017937873067460464,-0.0030404228001062704,-0.01075856304961272,0.050300507163138615,-0.01255440058535539,0.013978194337347,-0.07687523780911988,0.004603631452155131,0.0007460574560133344,0.011523148116804072
-0.02861930847577718,0.008870589606133312,0.011447324291503042,0.01820726111056702,-0.08930105914692427,0.04787526484412866,-0.05396183346439581,0.027799363683718877,-0.005084280177067231,0.006193882316724544
0.0433092319404666,-0.0964679729113983,0.005482278261901842,7.957390413989886e-05,-0.03393820635446626,0.0969446397102732,-0.010780278385465879,0.020039753921127477,0.042485421716394724,-0.01865642010514338
-0.14805928493446358,0.03999822318073137,0.03032512875403862,0.002362726637635776,0.004661412243760473,0.050150615035911825,-0.007672722969808108,0.0022432646901663677,0.048811821442188714,-0.10373995336175836
-0.08397042339616428,-0.024328315781536384,0.19304188940514258,-0.06907369337087285,-0.044311332480235235,0.2823028214781248,0.05932308860632617,0.04808012625144195,-0.00685161442940135,-0.1818010377966059
-0.010983209650420048,0.10110099184731122,0.1383446647218791,-0.10504369081196517,-0.02516818115093879,0.1850003524805664,0.09647876363510331,-0.05111468596178158,-0.1154143354995921,-0.04831505246344993
0.09164034439152696,0.015762898309564392,0.10617054640794837,-0.005328628122894701,0.06127846169684039,0.150159387803094,0.15572808968746227,-0.017018254739615653,-0.1487119407489962,0.04459688376172651
0.1261550122160236,0.09923596476352994,0.09486534552220151,0.0841127387988342,0.12334803742204456,0.1117900235111526,0.08577771523417453,-0.05819008827468362,0.03570036983238142,-0.03231021529512456
0.05266765644212338,0.0006481220582769783,0.08746672986124027,0.03984630479401715,0.2127210108369477,-0.0014322891571461425,0.27595467665335777,-0.21745168619487487,-0.0409480906931665,-0.04830854133834878
0.0746487099876125,0.03362298393527253,0.14531170489369985,0.20993798262948257,-0.06744992632671098,-0.1184409628577591,0.231997404013312,-0.2008751559210225,-0.12464486278418055,0.09698394134211737
0.1525627414420201,-0.029302819775678945,0.04199903751091402,0.08646962082375932,-0.005516490027997902,0.007815134974405759,0.12807254738032087,-0.22271947812341572,-0.0380871222836838,0.012445174716291607
0.0743916601295387,-0.0867114618307791,-0.0464600919576529,0.028408679000586485,0.09778106546490722,-0.07469305976674885,0.26160546098831516,-0.1380728328490308,0.04129086062068614,0.04241096294327999
-0.20213092855620107,-0.1890844596144308,0.05963023715036863,0.15894938043367773,0.0916584298669807,0.05537433637811471,0.2716794444470041,0.007956108069747133,0.016705442513693738,0.0062129475053923485
-0.38455376144081815,-0.1375944602703501,0.0974931318759487,0.08694306262878962,0.16229019882823378,0.14547232073297578,0.24795373325407957,0.07312981734231792,0.022505682286600607,0.04732341580061793
-0.6101806506077693,-0.07255791228779974,0.11511705608492816,0.12777846366262766,0.1253124435290006,0.26930319061823954,0.2883656323613793,0.15163772301106343,-0.021854061351005646,-0.1982340214870116
-0.14327154436925044,-0.05809823746731419,0.16702748018084557,0.03745789248755603,-0.10449630508609586,0.22592333848607102,0.18228322569115554,0.2038895085301018,-0.0983229093284753,-0.13423945213685207
0.020260903164743518,-0.1978299229095834,0.28759766203971376,-0.07313873214839132,0.03742775279711401,0.41256986527187656,0.15923595991603487,0.11006498871540814,-0.35831313996459435,-0.30339976920948386
-0.06297985347983368,-0.15993487159438144,0.20519330925096202,0.012251090295002128,0.1554766438505846,0.2827035581614877,0.13675680027325393,0.09484507752288095,-0.3064306720261982,-0.33864656021990225
-0.021118990812315105,-0.2040420569076878,0.2305444263612502,-0.06354435360747991,0.09604174839092658,0.14393391336395864,0.12947131715831742,0.12652752077438653,-0.2345122968356478,-0.2460818564388678
0.12239951971723706,-0.2525438956898326,0.31892532752159103,0.059626868189023595,0.11202480873400981,0.09334368276248553,0.16980846738759645,0.20274779835298845,-0.1475664940361114,-0.04099785744087368
0.0724516144033279,-0.0700288971290339,0.08380422766310659,0.1271793911010923,0.08130195099812486,0.155383724078555,0.05239835430805223,0.12965628215410202,-0.12413704497653442,-0.11640246693382544
0.18222681044122668,-0.05307389058795262,0.07840994639803962,0.10994736431107377,0.2604872076010131,0.0905741099587268,0.004595493385727824,0.017673366531468407,-0.13393188524529592,-0.08901653494681894
0.11010902951425165,-0.20539588394891536,0.09676355190320751,-0.0778374919865572,0.11258658353921515,0.14985852144804218,0.037093702377780695,0.061248171130477515,-0.15427646148879678,0.015724476709755502
0.21570433840685505,-0.18255590366371532,-0.29538264513632084,0.024389759731004334,0.26034110595602933,0.07806726852115922,0.034788135744756046,0.06105721036453489,-0.15656819160322358,0.16358793459538928
0.3106439683667859,-0.0522898759134424,-0.5716754496172359,0.07280570027926085,0.23750439934806186,-0.0048318932287774495,0.11964347079913132,0.09302627784639773,-0.005383409513347899,0.31853829021730473
0.15798437820246158,0.05796968302896549,-0.45769071641008524,-0.03370714973103789,0.0656786598854667,0.02021330130207252,0.0982756514388282,0.10766338497162517,0.02376300036637179,0.14959074073780346
0.09076760034894682,0.004886177178568531,-0.12326797257563663,0.005534832970348675,0.02350794498865911,0.05937067296286216,0.009264427833295636,-0.00017043002526649886,-0.010995881431094874,0.049913540569372646
-0.013674932635916225,-0.011067899128933698,0.042470260627840865,-0.019138621401861785,-0.0022797611275408945,0.0002882623475006797,0.002812377602745275,-0.005557384582487027,-0.02624370179843716,0.008774384073617308
0.017736670918364162,-0.059696949184656,0.0027156972536849623,0.007914446048201825,0.03158607499283523,-0.034896841073123956,-0.023333920976401423,0.0681212097951585,0.0027776192141137504,0.026787910605858084
0.05527697303756332,0.0584983595468268,-0.05058539366138534,-0.003158998893591632,-0.029880780132030788,0.013116622262791845,-0.013674441193975791,0.0430734348510524,0.06475449570868445,-0.01797936131363926
-0.038377042823277176,-0.03055399976263308,0.01581872358976046,0.02420367607644906,-0.012038632183712032,0.09180839308149752,-0.06698788079977194,0.008597483796089428,7.585586998214297e-06,0.013382255897474923
-0.14326778581552685,-0.04981517133369176,0.019105425313657144,-0.12415834042167034,-0.05554404052600285,0.2702124965662282,0.06106542179950735,-0.0271945361593594,0.07478373662037896,-0.06820413578633
-0.06933895390973917,-0.07292885794127588,0.12441402964382198,-0.21940927840259772,0.14113353899395395,0.21864445063462876,0.034961194406023695,0.00631354943838218,-0.027696266182366973,-0.03054499271945226
-0.014454956921487242,-0.029817202454858333,0.12975029442538796,-0.014266992325935118,0.05384995412459527,0.17628235014141294,0.13289598148194037,-0.024723313316993192,-0.025112948172478368,-0.11965448996617507
0.02137336401443363,-0.12078152187141673,0.08621389428925766,0.18237907695486966,0.06817713357056461,0.11263941176686211,0.16308960040837128,-0.1897765982359151,-0.08695034564424266,-0.029278901057101285
0.13289603872057087,-0.009730152721128088,-0.02363005510094192,0.1297739890327523,0.042489139567076104,0.010541257644166357,0.018552165323285276,-0.15618489324318327,0.08809602604863062,0.011305627460695584
0.09418415423411862,-0.1111375189133573,0.12441262711112575,0.06481075300324149,0.11167976605931543,-0.15693935199302123,0.13629239612936997,-0.20953141494041855,0.022035885224433577,0.1715638232697703
0.1602265942990902,0.028292758624650086,-0.04593741711876402,0.1064647687571439,0.19467469643250854,-0.11909486778596858,0.20850539632523568,-0.21780407187491663,-0.028561449461663217,0.22871103133059772
0.2255242082613959,-0.14696461541396275,-0.128293737201357,0.021059815250556575,0.31415888693618477,-0.21462623352196708,0.16564921923683548,-0.2341620428627884,0.12567903803415614,0.18402494482618523
0.1630282706595444,-0.12118757093205589,-0.18748829491438554,0.06074399300839124,0.12181413155071873,-0.10085680708101542,0.2170305402945606,0.0571567463342421,0.2699014033563615,0.191012231942365
0.12140462410300146,-0.1769792952712884,-0.13199683744602847,-0.013983117893560253,0.2368851667247811,-0.10558963647017124,0.14914122293411372,0.13170674786859196,0.07039404413416205,0.25904810996676464
-0.39126505778232107,-0.08403806207776034,-0.20448154648767775,-0.2635031439144768,0.3438406487667756,0.08022009917871527,0.32871886343385626,0.17801527272887807,0.13509014515159967,0.11629203696171668
-0.5049742362754553,0.10629694786700561,-0.2141111313469194,-0.17112020573828204,0.2575572664925242,0.24482088856776182,0.23620973856338282,0.15147939920785047,-0.04090018927345396,0.008027615657018646
-0.18130237294155233,0.0642273713143342,-0.07756165902191418,-0.22194283555019695,-0.019617617183148906,0.23286192240165546,-0.04088562561602715,0.0014785888836882234,-0.03664798950857777,-0.39601095533650166
-0.12045467374880964,-0.17538476618885945,0.12106091952866523,0.020047930926493686,-0.03171746577379804,0.3721377207613784,0.05670640173123997,0.17758585705917082,-0.14513827739803953,-0.3931396317649781
-0.011040388165470767,-0.2525939801406998,0.14638261462818475,-0.15795491094927028,0.0211912132766841,0.32294405285267097,-0.09539599546604949,0.03534049277645859,-0.042654844143498016,-0.25362206752945154
-0.11452491308417652,-0.25993322349606507,0.15197356413987226,0.03996201416448816,-0.07699380368116163,0.34969614722473147,-0.08325589746611092,0.07295514625246949,-0.08666479044897724,-0.26990669236015985
-0.0078060159176061685,-0.23693923103731232,0.13116727190297592,0.10670268249310928,0.21831623862738223,0.05706410323035537,-0.020063054708050584,0.04958947949037221,-0.13240530098152398,-0.11798652274174327
-0.09310570898215309,-0.11493810516410514,0.043728996539344,-0.016957685640594036,0.11732753766430426,0.2198374151379201,-0.06623915105214347,0.15126835582804735,-0.08500603153338288,-0.0746242411699416
-0.0885833509216039,-0.20340170421246337,0.05553195944900285,0.08957757760871218,0.19402944174551973,0.16311781239718134,-0.0392198520195041,0.10350595211555452,0.04636857513930731,-0.10533145036358406
0.04017963200819858,-0.22797111718644905,-0.051669819587697494,0.036031404517942525,0.2277809315193534,0.21008397267698872,-0.06289213271344114,0.053781934889136324,-0.09786954130468634,-0.09484141231406663
0.025855328402426735,-0.13296612286486256,-0.324496751385732,0.08298043618826212,0.20722153610507565,0.08189939804649937,-0.09068536023460087,0.10156522087040074,-0.11963639377322102,0.1568843453359773
0.16482236970303027,-0.05037084392195041,-0.5652434812757147,0.059969617362958215,0.22921660347287373,-0.026244355722325727,0.019352006910234712,0.1618206909045819,-0.08674527981513104,0.13044979075905122
0.19705617198566514,0.10107861444107315,-0.5103615929366987,0.05723768512784088,0.020358697147997592,0.027926896695936676,0.12746037587309483,0.12177370701724458,-0.05340771086815618,0.026380027824271114
-0.028079236630955157,0.04413295434201218,-0.10846565919163872,-0.008919172330816592,0.040263886937990816,0.02088032734814968,0.04829028694401294,0.04897012787450059,-0.031613072028550106,0.02265852018010136
0.010522767348812195,-0.03594420306290244,0.028659539932055236,-0.013805842004363099,0.07677155013578794,-0.04504946023404139,-0.005081300492457159,0.010585843316683835,0.04129677213339518,0.008017860398317757
0.00774857828246193,-0.027842949286410443,0.028755606532416052,-0.007544515748942579,0.009578605996423057,-0.029371635805782854,-0.031944341067058304,-0.037348405403996476,0.06942286070431337,0.006236336590507139
-0.019623354045116524,0.01564125912970658,0.001836182231692352,-0.026890470442296924,0.011259430362043936,-0.013449535758108633,-0.017507261778307064,-0.028504770155551556,-0.005172425362895045,-0.005661909595085596
-0.10735666818303005,-0.02752636719448563,0.009269937222402908,-0.05084971436724116,0.007704914882953016,-0.0032092421272840233,0.0105809554086487,-0.03963326684689956,-0.033666746930469775,0.035114431879370106
-0.08545147943870744,0.034272375930838817,0.03662340731334941,-0.10279550623861103,0.003600783651153347,0.22713642136241904,0.05720041441344745,-0.03227758013823586,0.017182163660628646,-0.053167924775303056
-0.03175559041838052,0.06513701909631349,0.10959935106456747,-0.11207980956285397,0.0575871881632115,0.08821083488987906,0.03279382751647546,-0.04529894384751953,0.0025622726467022746,-0.07745402666495314
-0.03430466717197006,-0.013419949075782037,0.115443328943472,0.12382172000087016,0.05071397794382776,0.0325778576500615,0.07578591714676243,-0.07333254581400463,-0.0481662115108789,-0.061444616512936936
0.05550234153695172,-0.12743497734633927,-0.05366569798784788,0.11382708269589069,0.1253797617910919,-0.06153100408444037,0.04591041505403749,-0.11346783893112275,0.06389999721368346,0.08806746336911006
-0.0016115666604590356,-0.1005281470019109,0.007436092164591106,0.1393139813172879,0.1121653207464041,-0.02539037791955953,0.1582251708148048,-0.19690328595234838,0.2458938719841037,0.03453622326257067
0.11763631124165537,-0.0872515880804507,-0.14360945078003814,0.10725671126311109,0.21310675247866476,-0.059871552707417064,0.06632906458009197,-0.12339141334231446,0.22323535644199333,-0.008565607037284215
0.17459218448356748,-0.15402984500719152,-0.10623714362857499,0.2879317239050329,0.24160310999992657,-0.16918529394890772,-0.008993189628825443,-0.1219933104206146,0.22744252781587093,0.13639334388893015
0.19930724377881068,-0.19895506270994562,0.08023279200156878,0.11289340183865369,0.34831182416502054,-0.11297740666888144,-0.024178591370161154,0.015425080281660552,0.33256096096441246,0.027835713353765792
0.2917266882472588,-0.0022414853797470056,0.018386433361108564,0.015936149784136492,0.13299630940478321,-0.023342326535721287,-0.05099170380158625,0.041832457579241464,0.19185671736854853,0.23274976232280384
0.2820471642766023,-0.06251164631683889,0.04039926976143721,0.005430005061888972,0.23983267294857977,-0.07432633599632055,-0.20459654266331628,-0.017654820600879844,0.25975525226884816,-0.02929177086960118
-0.29454736877051424,-0.04085565408623939,-0.17045522571194716,0.07551227349900859,0.5184240070256173,0.04917581372913343,-0.06919352164409996,0.2210715925821073,0.14805194661014962,0.053388001574485956
-0.598077739630829,0.23512220513602552,-0.05398089611771652,0.0968005339206272,0.3887750413107377,0.08807587232639137,-0.18508192765790435,0.24222428718602732,-0.13933322182029031,-0.2823369041115221
-0.24283773821494375,-0.003788585358091222,0.055442446070308724,-0.015725798722688054,0.26743360889559076,0.02020850901673417,-0.23191952700338925,0.14647160254025404,0.07143901984828019,-0.4652140659250468
0.07088530124632589,-0.10417180791797184,-0.007507970148302364,-0.05637035663893939,0.008396802136948591,0.06005373272771816,-0.21961001016645185,-0.0018214128980379033,0.23173721931228253,-0.3934874090856749
-0.1235288393612114,-0.32025139180776474,0.09384441662072143,0.13014643132306392,0.03093997866487723,0.22162333644738022,-0.25552285119690615,-0.019289748886605278,0.1385577401466097,-0.25963291710675324
-0.44896206343225137,-0.13471577915701732,0.07548395008206808,0.023364806203100663,0.1560467455601537,0.2652100730067544,-0.1319085683833082,-0.11307581611675535,-0.04603131265826308,-0.32713633227816574
-0.28900099168605664,-0.2792715378918383,0.20655626755183473,0.08402718222385798,0.04590004548156025,0.23626343798311422,-0.2524347146799918,-0.15522703168291285,-0.031822829156929876,-0.16990456602982673
-0.3712387348901474,-0.16607747901477837,0.31164313649847913,0.27430458008231534,0.17314368445366934,0.13358151477613117,-0.16856953668333688,-0.05061066995576186,-0.07106952172029296,-0.04834941743363631
-0.2665297437558939,-0.30131519495104153,0.2630707761339392,0.1207667372724565,0.21498608688699444,0.019228160392668517,-0.19056486182606144,0.07302808499276943,0.15450121923361285,0.026371331224773514
-0.18176230431475576,-0.2535728372751928,0.16431601866784176,-0.007655267984444014,0.17660705005320237,-0.03760086245920628,-0.19859312352305816,0.06410027275177746,0.04228409764499726,-0.0915199355420566
-0.09472930820584302,-0.01160046101072848,-0.16266909948531205,0.11661193420669416,0.18114635697310028,-0.2179346261944924,-0.18329298801928803,0.03355026834682171,-0.05557903775171156,0.10738231859705986
0.03723877481593098,0.07634894709078581,-0.20620546907270915,0.11812180242473881,0.2555549966624492,-0.25477016419684867,-0.136241466361437,-0.028255893208831016,-0.09793792615610289,0.14560000132011555
0.1618830953007428,0.18725988908115937,-0.220110673538733,0.0586696411082851,0.07332707240762032,0.047856084448139484,0.08108444924826459,-0.03149760559159126,-0.11924608707828012,0.08359713469649956
0.0515540578074226,0.0616149157357502,-0.10762938043297325,0.034732885393296345,-0.005729812050412493,0.01712096114942729,0.034759981507967636,0.0956840858880688,-0.014997768331953836,-0.08960542862067086
-0.00797648072842735,0.007340420206245255,-0.024581452678275537,-0.05618806649769914,0.06315049197877157,0.009859667852259345,-0.012169057491115905,-0.007933684194751156,-0.029014476392039232,-0.0487703134858784
-0.016385738817626432,-0.03622737039705632,0.028744863602818766,0.00835422889850552,-0.02934231398763857,-0.06106120651304171,-0.058928682513788994,0.014687530798737358,-0.051889997440852986,-0.03455908514841668
0.04987497773659061,-0.02036655212466878,0.03801089168661832,-0.02035172512749843,-0.0090564255534811,0.05330800826135879,0.019508926047873867,0.027495336605151022,-0.03376416570763662,0.000643209183063317
0.0035555678666997254,-0.002345612097678201,0.0395966357266542,-0.033158511709241265,0.038980194703151935,0.05047019838348254,0.02189444560971322,-0.034468679796533064,-0.07745130031522665,-0.05598851848638148
-0.07768222948224084,0.05103331969786156,0.09922353398629338,-0.11972242714120533,-0.02733411767657116,0.05645900356647245,-0.054708908099632685,0.0008242144299843301,0.044926853159816996,-0.07524131994129771
-0.1130213683534911,0.06058473378290786,0.044577739784722924,0.052952764788091446,0.10313596461758451,0.06284090056933232,-0.013613724930879985,0.028651700985905023,0.06445613378463327,-0.1836704986113238
-0.024916012327451314,-0.06478706043743233,-0.19499587437921734,0.19665134141327598,0.10639192802537695,-0.09778065119273957,-0.04619525617366106,0.060186068540010004,0.020229738919850967,0.017812863118526492
0.016244001349308222,-0.0812786945000844,-0.20801109918624497,0.22228061148059505,0.31884135797100477,-0.2995232799114815,0.0005130084818716405,-0.06696688155206289,0.2638318160122222,0.07102894812161342
0.07441549811772968,-0.1931363057282112,-0.24636858499542832,0.04037090203776495,0.3280296835518191,-0.21131678520765668,-0.0646347404535958,-0.12646058021150164,0.5700403293998648,0.010823848382305847
0.07742726458849788,-0.18775078017776825,-0.09770044849564936,-0.054603836658798394,0.27446221558536316,-0.06133400774351131,-0.09413982597812198,-0.16871802793098398,0.4006409692889255,-0.027857280284319236
0.1589889553274393,-0.11235277764308099,-0.048829427587933315,0.14025092195135738,0.16319756891535478,-0.08733851775623203,-0.17924982177821155,-0.11151247562436731,0.27753802089942725,-0.1038150852295223
0.2194459465508203,-0.0984233373607574,-0.10097046598252346,0.20767572557267383,-0.04357955711597262,0.047676147053401355,-0.19638379377083473,0.07131057643441711,0.2633844830844682,0.019037846913746097
0.5270720113660414,-0.1335977936999501,-0.05589179075374613,-0.002396959996095108,0.017289797635333715,0.0013028259626485113,-0.3662744354772729,-0.02350567395726632,0.33307981952571797,-0.11919812936002096
0.46759276663294724,-0.06009183381101212,-0.050322133650922446,0.15916077752048646,-0.12345674737784805,0.021324909961823908,-0.46527417099919305,0.04940502177191624,0.23601117622168538,-0.13928859271950206
0.280917264138427,0.08589703492954405,-0.27297530441197043,0.22500382059382307,0.2590931555565216,-0.09058913556962811,-0.4372848459366192,0.3041477579536574,-0.07243395060337733,-0.06189826871459208
-0.12169165766398969,0.20624965032210113,-0.037871871231920096,0.27206170022445064,0.39065399462054734,-0.1793215482266951,-0.32045936331396513,0.23578321998024682,-0.04665924935980532,-0.25061166993611145
-0.016331492000379116,0.045101083490943994,0.014381649232508193,0.18377167033815062,0.29401454875030336,-0.1744158547959218,-0.24525624883101324,0.12279511507943322,0.16891243848300225,-0.2912965099886355
-0.006509771633899814,-0.016679845388571406,0.0998861242725445,0.1420101669468161,0.05884014878948893,-0.028439528228938443,-0.25936449552363566,-0.06355698645044343,0.19767011953929609,-0.08932395421709412
-0.11877730361758267,-0.005500146517015464,0.060034072408842204,0.2724183589433968,0.12107531126812467,-0.2004899640328801,-0.21292468715764376,-0.006888939634876181,0.1202718717468785,-0.05232829932304327
-0.12213259873189354,0.102324990495311,0.032666349050647935,0.05687618021539077,0.09117716221118173,0.043590772893959635,-0.15228984975449678,-0.14418901314960342,-6.812375368370404e-05,-0.0017968543418034374
-0.018124048907774203,-0.022070493205094573,0.1777618610275707,0.18707752430377855,-0.023820421175626768,-0.01672140309527386,-0.0773976529286053,-0.2029980576645423,0.0081970680897697,-0.050320491100385556
-0.24275766562858925,-0.1673224746374585,0.2887972226842236,0.22400923077120843,0.12071053623010534,0.047758675230693395,-0.21807595863265222,-0.14541967612061504,0.057573339612244846,0.03320059392534343
-0.18943224136252457,-0.2401411037630718,0.4514280293438216,0.13173158896445747,0.1258634755325142,-0.2584609077003121,-0.29516885825873634,-0.0005381058662237128,0.13422378587078163,0.0738533849515048
-0.21957824968868725,-0.2901622482894392,0.38217927548680647,-0.04299437808294577,0.0851595192268947,-0.13081117473157425,-0.20425950795898407,-0.005869298057881019,0.1253176245281473,-0.08284194703263945
-0.2550800039658775,-0.13535956659156875,0.1157250473678593,0.03738532527858112,0.21684313354695187,-0.1246877153643458,-0.23161207651697804,-0.04667152824419576,0.04424932727282951,0.18153879986960655
-0.14104936051960673,0.06484435995298782,-0.016572291896125593,0.03827404892625731,0.11406417274465644,-0.26134898813178,-0.08197861880852746,-0.04240752028603822,0.004834139574603176,0.231263315251878
0.02935977314958807,0.11111650938565369,-0.004118277456523396,0.1205102212114081,0.008983080662623556,-0.029678649925638505,-0.02694268822880225,-0.07417118031774222,-0.15450704368775584,-0.0048569314726910565
0.05357757334651774,0.12134643078184867,-0.027232322193956476,0.04168618348899288,0.0406235505421504,-0.007927519826197946,0.04861473760388464,0.0033396790700902803,-0.12927973199318787,-0.015596716441052845
0.021829658417943546,0.013706636312275802,-0.027705740881694967,-0.06992114681376412,-0.019188523292050418,0.050257063496776666,-0.0874817297857991,0.0008474227623897147,-0.017641965861088384,-0.04374902209190935
-0.004373765616736581,-0.047219650435176265,0.02301593837883326,0.032496668148310454,0.05221368768260182,0.0024143822102058953,0.017242466212659627,0.020295464095005485,0.033684998565063566,-0.02191990463005
0.020199453591156137,-0.021117970602553115,-0.014342632759339289,-0.028987979915908194,-0.003133518289642802,0.01951751955928772,0.021163578242916422,0.08629913359615403,0.08945515169699293,0.02578240906420783
-0.001138659905788808,0.011313346097228883,-0.001500493043759889,-0.02552769025762944,0.03415771192437281,0.06277725386512027,0.012401565148897087,0.018929971772639723,-0.018797618030573903,-0.052869429627194195
-0.0512025456617136,0.014497127183447093,0.039174597245863564,-0.06074199019040285,-0.02698694698308867,0.04611377042965592,0.0454208195050188,0.011743640773552506,0.026163338250668956,-0.023876671671693914
-0.062153105040496925,-0.024551236693366122,-0.002271354672953298,-0.02009406239183283,0.06234773009249194,-0.00950176198518734,-0.05387842033414665,0.06538610771467532,0.11658501257807352,-0.1614570566236172
-0.038241901122161234,-0.18717347128420653,-0.2047147998691439,0.04467733879886808,0.09907503697565503,-0.06029796313192605,-0.04148168207329461,0.07202321932659783,0.362552725292537,-0.04507668650595576
-0.04996117125255052,-0.24075241594313812,-0.31939562323805937,0.1116952361845386,0.21949875427860388,-0.2676608326674901,-0.10613723550481437,-0.08291804620940779,0.47081257489384953,0.15749965785750838
0.2697994860422378,-0.20891388882822715,-0.1784417440070857,0.12658991334900124,0.12586802942920589,-0.3095863612860336,-0.136710894359008,-0.10134223588141622,0.3530539338350621,0.04061168591155716
0.304560825571775,-0.12019186337526169,-0.04823964501209353,0.08374019422241169,-0.046628792382404236,-0.05307252079029391,-0.22080636806951498,-0.11784651698005645,0.07888431812851059,0.056112904651144754
0.17059610505636874,-0.12059203652168382,-0.05138223917858775,0.03278262599394562,-0.0911405677319043,-0.12718619990106592,-0.15510519556594912,-0.06796035815293607,0.23524013140224914,0.11678441605965327
0.14760040634655325,-0.23020405487074908,-0.03847887989793278,0.034428153315901794,-0.21494562526909092,0.03629422373721009,-0.11750531758278135,-0.059052696025420105,0.19061913974731112,0.025360064327108137
0.5010986457487618,-0.17937165031000157,-0.07069133035217208,0.19091291607259667,-0.050410048986420035,-0.1722631154127038,-0.2715136998262295,-0.024663982412545873,0.1657770703302063,-0.044893970199445424
0.31034920357516554,-0.01940785247414186,-0.10245560950603118,0.15602749515939804,-0.10374448789146262,-0.37201541490643625,-0.38257579256739593,0.1430099742182384,0.021928849099020625,0.03714704796945469
0.014423511047603562,0.15142332646929632,-0.010188615937482463,0.12390323830119307,-0.010003067520734035,-0.13489597104851894,-0.1457311228559586,0.2174535182088914,-0.402107755263653,-0.02282950571367697
-0.140909373045793,0.2759566096222449,-0.06449200785046263,0.19162787170777054,0.08410949588759381,-0.07514754919219237,0.033326548075045016,0.1289138333818722,-0.05957584437808591,-0.1603180011580304
0.029814206553832934,0.16368240043736731,0.21733680747626463,0.420501235730037,0.19916631077478908,-0.3472820009650629,-0.10258469649030705,0.06731998867134582,0.08847679317673104,-0.1221298041590191
-0.20556147348163148,0.05681983758515924,0.19090329864176672,0.3550343346179432,-0.002604539754419112,-0.04226242667976564,-0.053888037692676916,0.04552971678750087,0.02227232709110499,-0.08969303921297195
0.07587599204054221,-0.007057915335764808,0.1539255439198422,0.1658163504921885,-0.22041660423102385,-0.08384597071420401,-0.10726507040695382,0.001317020985344437,0.14552156231809943,-0.2079467072105479
0.1378344853318358,0.03023798773753423,0.1438193327149794,0.302753460361043,-0.3131267790700142,-0.02640605379383997,-0.07275773281894896,-0.10000769573466736,0.06467202406641723,0.024269438810836683
0.1500749583346371,-0.02295216564490361,0.18523039874469288,0.3006345833538708,0.10326040244215927,-0.09049635990959513,-0.02932319461346904,-0.24822441066836373,0.18075945357301468,-0.008300547004461565
-0.043827410096364226,0.17408941354423582,0.05513660526344537,0.1684022606487665,0.06594432245643847,-0.11098209221532512,-0.05351132794471888,-0.15575399608229462,0.16236356834601468,0.024594360121013153
-0.10940474258010911,-0.002876672424639489,0.2499355505853897,0.04899376339752779,0.021520912351481045,-0.1733490923575855,-0.19545188700279656,-0.11478370038660239,0.1592118848351154,-0.01730847739574312
-0.14531436193742614,-0.10482372576807344,0.18601296267579062,-0.07007103490552444,0.11154271972964232,-0.23807071289038917,-0.13832984824275607,-0.1017175132283663,0.02476352342885837,0.23237244225636403
-0.13103013926872306,0.06747075377285791,0.010497121908116034,-0.04700453254091425,0.20319293818524437,-0.21840754718977842,-0.18237703260400198,-0.058701633301592726,-0.01761643119881191,0.3843853045551844
-0.20028781936206103,-0.04863658182946779,0.06182588518765942,-0.04350703335144736,-0.07370192755353401,-0.10636109037783391,-0.08067005465909674,0.044206578540065114,-0.07910358734735057,0.29691135094147236
0.08313387873893742,0.07072225853267086,0.13282742528580413,-0.03261749003622447,-0.09156087599571808,0.059106344048760445,0.04516632308469971,-0.05861437231273,-0.11918233861241594,-0.04181088346883757
0.020372102084119346,-0.021972440795164108,0.020512106762712035,-0.011120249962404335,-0.04593457391546429,0.05231510648565896,-0.035033466624354345,-0.014529260602017145,-0.050718338895960856,0.049434061512347874
0.038691717609186944,-0.0259535532223118,-0.01014525395645344,-0.0006074799609877605,-0.01618593223899308,-0.034404632370789834,0.006623018886643127,0.0007683333797697682,0.0435974674335466,0.04295909213324644
-0.00806210703052516,0.024056588872116137,0.026940543343841813,0.1012298146869755,0.028245583628301655,-0.04882230086428586,0.03303607166940237,0.017462673815846628,-0.054779671481333586,-0.033298738956024074
0.009610424853461983,-0.0025041095466529586,-0.062234787136515805,-0.03920505027721712,-0.04763566311379338,-0.07581672835186128,-0.007089745703587258,-0.0430006112550587,0.05374786931042553,0.03703019223257032
0.05348873820999642,-0.033463656262773055,0.052515412534925504,-0.04089475889159341,0.05079247193563013,-0.018749707569904923,0.015432959344958454,0.025543066774743158,0.0008049169778345957,-0.018010170102778236
0.035214845431452875,0.0520022288352796,-0.01973293514698784,0.01661440248226058,0.020798503653065667,0.016408770926008856,0.006414321816761404,0.04400124006849087,0.05250213761906746,-0.05562675168421904
0.10746067233779438,-0.045462561770705075,-0.10063353744692458,0.07803694311363178,0.08184313602317152,0.016569174988531575,-0.04582793709720542,0.07453959418033708,0.17221819785725564,-0.04261423762913801
0.009159907627562545,-0.26148413316770586,-0.1145871733022187,-0.09585510014494661,0.03509443042248475,-0.03156474245934265,-0.12649592843171456,-0.02931826785303332,0.39009677377329494,-0.02622365052275769
-0.007673444407549665,-0.2159607143544796,-0.07968065472407092,-0.06171256416669306,-0.020872738824451398,-0.2290942774085581,-0.06438943563767087,-0.05789826323533375,0.37133106978955477,0.09197685591126344
0.1340216452800595,-0.16408952747203756,0.09562533453435451,-0.13613122269278732,-0.1469033375309209,-0.22907178572119802,-0.10102237710188063,-0.19029579129802965,0.10613037108706459,0.13102905264123546
-0.02204485766973198,-0.16297449126606045,0.0392092753365132,0.041533109894350335,-0.16250362730576348,-0.10785877346326533,0.0010055920698650862,-0.15220562560117706,0.010784202856106262,0.0680980256095541
0.18095060025673124,-0.009425928565759216,-0.21042810151890404,0.010599966336972669,-0.09243977557001756,0.017768874295735083,-0.1373145731481912,-0.1068534993977451,0.006437605340373234,-0.042658699596563016
0.144657841633152,-0.0761516618503207,-0.21207501402596798,-0.08644525743044694,-0.04118558495393253,-0.18517826152566177,-0.05370288250711136,0.03059164668297616,0.1674831728824721,0.1403786279093042
0.215312572894254,-0.007320384886498872,0.12639228325036386,-0.058523959506624715,-0.13790616089762978,-0.37835257690138335,-0.17899022893270758,-0.0032244678240023667,0.14744500922589393,0.029859070714606757
0.33540040406485505,0.07315107156052895,0.03513413878967568,0.0232434013395091,0.06990393452079727,-0.34336938708112014,-0.2311017615186259,0.1607256422524559,-0.17680008502238653,0.06785500214185584
0.04385263263442155,0.13318610712693554,0.06247185895862269,0.07813391657560094,0.018424607113100105,-0.013168493835076362,0.02375026566474515,0.1326684637314813,-0.34799309589434013,-0.060656789763073204
-0.045917538741608845,0.5449098907667108,0.010391623927365111,0.04941224117686438,0.1964376632281941,-0.11566372945397838,0.1756032293881449,-0.02723377257800817,0.04213768650838698,-0.09324939884511664
-0.031188438717237203,0.31688828871197033,0.16889205159817197,0.1563469627080145,0.0038557475313054273,-0.2754389294977004,0.06818428304298321,0.048827722763661006,0.007940310010779644,-0.06161981000066875
-0.05504372553766687,0.052214615764659876,0.23379018762136575,0.0825690464984057,0.005218691402518864,-0.17067234872603756,0.19520852205215927,-0.08503234648021828,0.10830072951119418,-0.1981973783560649
0.33824033271087295,-0.08742037992529395,0.06962965019037129,0.20851218728045576,-0.16608699588824688,-0.11525929728009567,0.082013388963553,-0.10418645557813587,0.15699276089212957,-0.13677892263210514
0.1516447685054212,0.005837192102138095,0.13988395721102306,0.16961193316262735,-0.1962759642553399,0.15605150966699496,0.08587940536992053,-0.05487130745805185,0.2743023731558599,-0.08143811611375001
0.04791018235308361,-0.05121627937512722,0.2532810117686796,0.09472552904520151,-0.0043740176766104725,0.11771458340455634,0.008739470415010282,-0.13364524552116736,0.2624074174277728,-0.05097394849342384
-0.12270268767110212,0.05106248395919459,0.16292826483732098,-0.029461332296520207,-0.13283261067526436,-0.12170430168629856,0.04953235280492024,-0.13831769655078785,0.2839481940858961,0.039422689605327
-0.11422960200297491,0.0695369088750445,0.00893378810211409,-0.037844936484546315,-0.12391235096516182,-0.17131655256549133,-0.1475238567071054,-0.13787525811975893,0.21043705139120014,0.023804891163713125
-0.050330791714213056,0.05048951955597102,-0.09535547639534181,-0.13802427942571513,0.016523466001865703,-0.1046166110023791,-0.13164453845228533,-0.1501038493498242,0.25089419230915194,0.19211024333517118
-0.2465568398231567,0.05151573455162281,-0.05807605105285311,-0.23377406551387195,0.08437586610553392,0.035318084820938685,-0.17074694711581567,-0.11554243391990279,0.12019982621806474,0.2927756223631532
-0.0635633507618614,0.056837974338754545,-0.001169490899804478,-0.18753215096175263,0.014570875390060108,0.01132844121982178,-0.0837089924867214,0.04458113173968586,-0.09639458963036852,0.24988266722840832
-0.023605063937037533,-0.07742339061565894,0.1000290641086276,-0.10934428234779067,-0.04430860017119281,0.1128118299232402,-0.015012111437616412,-0.0549860736448227,0.02544333196039807,0.04738643541201732
-0.03378600307122016,-0.03336789107172178,0.024952969603313575,-0.014339373961217284,0.006194506726668583,0.019141241113569712,0.05491701116838549,-0.007753661064512793,0.00981255579998382,-0.05448662616343896
-0.013460958721488421,0.028457568660355613,0.015067566026430546,0.02533712291258724,-0.04935729908663286,0.02042804797500856,0.07126113629962937,-0.052956407214850745,-0.01926018383044704,-0.019320643345726567
-0.001956503468759998,0.03672598062823397,-0.03455981603630414,0.044216947431097504,0.008761265017814027,-0.057344393527566546,0.048206880715442615,-0.018302081362453856,-0.006671213563019222,-0.03506864022887205
0.013531415319333048,0.05431671874846393,-0.028675716377680297,0.02475867903132468,0.07011737291417315,0.06660584790674227,-0.047542969979231374,0.006855594333859552,-0.021569002832214978,0.021542551027389084
-0.02283394908069838,-0.0009362022295895805,0.03720759410172509,0.042119949469538294,-0.030814479293332486,-0.011208615594483143,-0.06191671064702203,0.01785734687998488,-0.047832327568109075,-0.0693262698638033
-0.005370478743365229,0.051843252295517055,-0.07114408878079116,0.002762564834987928,0.02193780517223147,0.016839350428394354,-0.09839024812400544,0.007540487582532356,0.02634323615626249,0.037036173697060394
0.00441953764321928,-0.05050335066465387,-0.01884372590536461,0.023707712721563336,0.029098921308223894,0.11732152879291555,-0.0776661621197695,0.09215042426609418,-0.019852584398931825,-0.08392797630701453
-0.014480655237381053,-0.1244397664454367,0.043075395921851466,-0.11227885250230787,-0.036269473736550685,0.01320176399530994,-0.09668702687411614,0.011878084465769727,0.013215364143517394,0.1699088155483082
-0.05016249226080257,-0.0826892213632685,0.21929906515785585,-0.24330655063381468,-0.07125201336963558,-0.19493829875932883,-0.1259193470299242,-0.12824501198882127,0.07548328862700152,0.1233445719160219
-0.03524122053754039,-0.16436169359203337,0.10932598622371838,-0.15400338951797182,-0.19034210886582303,-0.29623068802970437,-0.1668652906629667,-0.2191179290625196,0.14446049102010244,0.25027163996576257
0.12052504885742225,-0.20250117692782432,-0.012445608023281743,-0.08795102185657595,-0.10868159847362212,-0.2609108723689271,-0.05184525596310465,-0.17809424141921312,0.21418052170694418,0.14673328190430132
0.23779060770327062,0.013088454999424994,0.028301596599334893,-0.02855071467513573,-0.16022067671600185,-0.1365384254870444,-0.15192070232197546,-0.08623166403729463,-0.15953866546024406,0.08981263124997375
-0.003214861096419672,-0.026152281140149235,-0.05244650554606934,-0.054711327620553675,-0.23227843620254734,-0.25559549926864467,0.06994584385891252,0.05690600320999398,0.06452449164709095,0.24252189940568153
0.021022212304183868,0.12077653552090165,0.02500339298242353,0.08559856405832104,-0.15417453388159014,-0.14247389165391652,-0.03787363864773258,0.055497707830597195,0.08304492622505175,0.08819460206191353
0.2840608009496578,0.2288453580710754,0.028351321023503077,0.11035361184863102,0.0011813546115241771,-0.17980623003507482,-0.19318561362625494,0.10309324814124148,-0.0046492001757569455,0.20896254308247825
0.11535373863484365,0.4719789736151221,0.13492715954114792,0.16799440655424838,0.05107930321634548,-0.08096581055555858,-0.12012796194794581,0.09167640220268704,-0.2059417351087875,0.05616695383064762
0.03276496804778539,0.7467118515856691,0.11017080365659812,0.08992860316151788,0.2413870115606567,-0.2137148716455897,-0.13674674505040305,-0.08911109470950727,-0.17463465389956562,-0.13554776389865966
0.016018349016209212,0.11760139465439169,0.3029589286813781,0.05454715020731267,-0.047912118191743826,-0.11607770421044973,-0.09635653256676291,-0.11185153615792606,-0.13971998561342025,-0.1586859903964664
0.07216403763449868,-0.09537376840102368,0.20705155639056574,0.18128597053760231,-0.030594261945317888,-0.2378818158520158,0.09093588856645449,-0.011659294296961725,-0.043400944891515185,-0.19062814268526515
0.15506512128641323,-0.17188312509946435,0.19870556062908376,0.1298521941649551,-0.04254127529634967,-0.04044950099696861,0.23225760707381926,0.019331949692679498,0.24673692971862685,-0.06052932838009641
-0.11326036560800924,0.024432518382297208,0.0041276996067866655,-0.04506510966807759,0.09784064090217198,0.16533193979989907,0.16542910463627808,0.06882544721953232,0.24312703274690325,0.07297584195096941
0.026518426660350695,0.11451517104324165,0.1732997308777919,-0.047372608285419865,0.0377274630488877,0.13243299658522675,-0.03512288989697916,-0.04445065196535961,0.1258073079900535,-0.04434687642313138
-0.18183319601213732,-0.11448191571365572,-0.11600816446433662,-0.06648309794156516,-0.17428171278067517,0.11693164270608435,-0.004301643601836244,-0.0550202554148815,0.19697037557439,-0.05010386244051424
-0.2891680576369324,0.16906477828204883,-0.09953858213160026,-0.020426543983847193,-0.2708233471441467,0.09109774789900889,-0.04076644354883145,-0.04381708303330638,0.22194306804340352,-0.10676497825892775
-0.05688555640579044,-0.1214860044592047,-0.0894883376405034,-0.10074803929304878,-0.18458698464776993,-0.04513233613398688,-0.16611026055199118,-0.12421837099575662,0.29042202745313095,0.09771102583270613
-0.09630610668848853,0.009204002685001596,-0.08240714890258166,-0.09344029473300454,-0.04124464706039331,-0.05857453845922308,-0.1482650290377507,-0.09523426837812606,0.040304160650830284,0.13884079850668604
0.009040027605164253,0.1550660453682358,0.004989478024955684,-0.16525557897256482,-0.03937623261984598,-0.009190166067594485,-0.006549098562316054,0.0017711888923104932,-0.20622350417896534,0.2845924205913682
0.015570750134030033,0.09455808248948748,0.04112236582732266,-0.036656486548216564,-0.0861385964352106,0.050145602209730925,0.06298518989124,-0.06837206169556621,-0.1300705854417569,0.03061315442360732
-0.03304574594283112,0.019325067602322655,0.022326323269337152,-0.001511976569886163,0.0038647629008912113,0.0733300260917017,0.02292208016416667,0.09356608649659552,-0.06337846308776067,-0.029084118658318458
-0.013516478214751958,-0.0690944625402121,0.0366312672660538,0.023710516752287386,0.009309507113727886,-0.011997348335698816,0.032099399340396614,0.00035737587184175184,-0.04332323149368442,-0.03349027443721911
0.00656793650952711,-0.025092563941451745,-0.0548266723052942,-0.0034437194255011495,0.06472409800226987,-0.045115174278416804,0.052887346252682814,0.04248983147247726,-0.02531911798750338,-0.013458487949279192
0.0011070301562376276,0.01042490950683073,0.016280546989555073,-0.007095658082415434,0.00022026779682993036,0.05356200106724205,-0.00598687251045928,-0.015590915847826146,-0.011843134657281665,-0.06392155962692352
-0.048119998282781934,0.039111928151567485,-0.005188790160409459,0.02666164362872763,-0.04885195286824013,0.03974476870669137,0.002339247957067359,0.02845045883937079,-0.010989404076034784,0.01525848571155636
0.06988688635914315,-0.008306558802962018,-0.0344434879969466,0.037392393027431636,0.02544095482582388,0.014306586959344766,-0.05395956092071496,0.03191159782628827,-0.04153720196681742,-0.02302785154574458
-0.11332675671469097,0.03326446293340527,-0.12249036266334583,-0.005580498805536149,-0.03882453218218247,0.21109718231685645,-0.043748662496326154,0.0637738727690586,-0.1007714501716179,-0.06830220171462591
-0.059179587023701755,-0.030724099290480266,0.2061524857977742,-0.25057203331714717,-0.09401424661200798,0.0014662829237721627,-0.030973405574375227,-0.005678850752407266,-0.24063487173643908,0.04595612743423957
-0.06818332391429392,-0.06247809777637194,0.17204102836557905,-0.1573045810015641,-0.13705904708790415,-0.21031910835407683,-0.03806647826739882,-0.024854814213668305,0.07946248218262686,-0.024276237907445482
-0.007708673931771942,-0.23818096231819355,0.14666390703656984,-0.10194822628435918,-0.0841389981227912,-0.19437792147355612,-0.05016249319813893,-0.06632663147263596,0.17307715472439364,-0.036938403993697105
0.20197495913072172,-0.29418859043347945,0.10373509245015196,-0.14952353544052263,0.026115994099589143,-0.1904501647903519,-0.04665035385836824,-0.21402292938931544,0.27393514444759137,0.08347473054444388
-0.032438778008318514,-0.0628669069879575,0.11330539299807757,-0.09345239991818252,-0.15364191603424995,-0.10838352045177511,0.011685544715390387,-0.14951594316196828,-0.05317442413164129,0.22005526983471776
-0.07137390373773067,-0.05379949761461263,0.07035321437933661,-0.05425319738915285,-0.18011535700856965,-0.15566242256283566,0.07234194411732546,-0.059926874726187476,0.11668868445862621,0.1819236028835698
-0.04904554410265439,0.11095370835072094,0.14634679622749897,0.0525186347422773,-0.10491644633907447,-0.2916822457353615,0.012465411211469454,0.04791408925797553,0.11710412518226032,0.2782104942266211
0.21202798957345767,0.30482079994503875,0.17932261138436215,0.20705062261277093,-0.06122864709779006,-0.1722694168633518,-0.039712055752889296,-0.1508110279050646,-0.03196408057392115,0.06660478413689408
0.28296091075141266,0.3930459010857664,0.10676920643857701,0.13630643599904327,-0.056353984557308175,-0.1489581040369736,-0.05227627378776601,-0.10583233165081189,-0.1809314049288026,0.008279553958361979
0.16386436053499331,0.3273637485050061,0.16375679358611175,-0.10817285702493319,0.23851355962064286,-0.19615376448574973,-0.06634651416738305,-0.1798034788361622,-0.0805697906371244,0.02154151005938005
0.0377682121241239,-0.1251749879840211,0.19882923571307795,-0.05353343207727193,-0.024195214415612454,-0.04979178103282979,-0.07760322842346053,0.10683853173091819,0.07320927268336364,-0.19679796320672288
0.13146109239660134,-0.3300623897225791,0.3052059457123462,0.16180758408320092,0.20965101689075438,-0.19849613366240512,0.10010023238750575,0.07010154235046297,-0.10757120221086129,-0.2225356953001742
0.21213764211411004,-0.11491590838472084,0.24538514675519674,0.01657498093704111,-0.018666637718532844,0.08709311789960747,0.1382569955293562,0.006811267066586927,0.013263595893831345,-0.07023466016426204
-0.07145606086121098,0.13484117864774403,0.10537581119419143,-0.0679303926459195,-0.16016184266966693,0.1857958971050472,-0.07561476775135935,-0.002336742440546759,-0.004181234886167324,0.02628160915338705
-0.0025711644490941507,-0.020992006609925767,0.09837205588523489,-0.24819131221446847,-0.22266576334438345,0.28098874407783136,-0.11728341243134988,-0.1033363961354031,0.03784691634484843,0.022694654347734444
0.010057930701972981,-0.06713261629712393,0.011782084849582274,-0.22194247885679327,-0.18857752478017434,0.20690293681075042,0.011915798560476979,-0.07517307663472099,0.17609389868601494,-0.0015705502479120119
-0.10113144566290758,0.14742377471903545,-0.10234677363271766,-0.04513716306758796,-0.18079587159896826,0.18284891364085273,-0.05372590755022548,-0.05335963507091833,0.045119727696143044,0.008550444171314764
-0.1279534794355689,-0.033106797595602984,-0.037932672608774747,-0.08369997157417039,-0.2899914565596039,0.12187977453963078,-0.060366126887940005,-0.1757677191891085,0.19756636224501264,0.04558210359718526
-0.05848014494331616,0.11995504463919371,-0.02932283961855476,-0.1278397337716685,-0.14804746814282782,0.12497594851369233,-0.197833448717825,-0.10626794147881931,-0.20776426074609028,0.27505692674324467
-0.0018496203455323225,0.2107154965411886,-0.018631526575542783,-0.13828478856061663,-0.07311299124286483,-0.009752344800594639,-0.005543655426874681,0.0019214779653933486,-0.3084527249258666,0.24672612211419565
-0.10339661209544236,0.09548924729755605,0.21288307326958947,-0.04448006308729801,-0.1312514676903618,0.08686414759983928,0.09272652406454406,-0.034585673583268056,-0.29003678048482795,0.07975998047118946
-0.04916141391759891,0.02642636794233552,0.02090941691065246,-0.01029556290026582,-0.026573578158588212,-0.03219022417606278,0.04580348279023592,0.0044620732111010815,-0.11717180160147861,0.052104641980598734
-0.012525857923703634,-0.023387261156035153,0.03528326681756657,0.011047432987456007,0.027947373781322386,0.017169292999162408,0.06522507894371898,0.028672596852009295,0.02918907991318354,-0.002930217663166408
-0.02274815083502727,0.01671241596162978,0.015154999202228453,-0.04675229523152832,-0.021063454245927545,0.050319623068160534,0.04591199194355142,-0.02069707525570312,-0.054185672995791315,-0.021823911459466997
0.04721845789515703,-0.003363457579881317,-0.013024128893863299,-0.06297892937921243,0.0017394123711649322,0.029543687943897542,-0.038477782906546874,0.040318071320381364,0.05568822901508395,-0.01805851995314533
0.034131507233551094,0.020302646546076716,0.010480573841127213,-0.011398257063968797,0.009692397241485564,-0.04367336809654905,-0.0009045218425074088,-0.053641710648076914,-0.025438626971692357,0.030256745976172252
0.0362356213424884,0.07983419320155262,-0.11277610416219158,0.04371721500778019,-0.03751381865307987,0.008349702231503067,-0.06161529712879547,0.025017966442232375,-0.0014142349356395254,-0.03213700114077203
-0.03943982590413611,0.11152784960097728,-0.03545782504903794,0.031157216506041696,-0.031726227235490685,0.20029620290080147,-0.0033919282845393064,0.06480121406337093,-0.18576510894642306,-0.08962988670500979
-0.0734834309314438,0.07305409916525615,0.04141950109133903,-0.22376404459788818,-0.061861349041731614,0.1815649786882932,-0.022095979704445354,0.08396431251111776,-0.2526487240443062,0.100855916434359
