-0.05822493102631068,-0.022244642599401565,0.0037378641324051433,-0.011527475930679449,-0.01304556679875515,0.026733448748081676,0.05054195896194265,-0.01815835160296967,-0.03614965252796123,-0.019556904288330852
0.048571687186573974,-0.027641119800572357,-0.027677086889384667,0.011097980867438855,-0.08830195556677899,0.08088444514527587,0.03371162020134675,-0.058754966004756326,0.029041149328601447,-0.024605620895307757
0.12353100123089455,0.04911931912682024,0.061920267652594826,0.0651336661061378,0.01788472701501459,-0.04501726160965962,-0.0014601493582143956,0.0052630261541810235,-0.0006987455048600555,-0.050889886674517465
0.062402169061432235,0.03387966435713765,-0.022753741488602514,-0.08462979370973772,0.12101611148770489,-0.01632425877275781,-0.03264554330905153,0.020984176447633725,0.09368037160973103,-0.0054789908167350585
0.022787578365978868,-0.02373504522982304,0.011213348181057391,0.00756420017513275,-0.015251623417425628,0.06300280772157475,0.03559820405535076,0.02592461471545341,-0.04969596785444359,-0.02660568085842268
-0.06899076174615583,0.03799092538140985,0.03420635082727189,-0.027150884009599873,0.060314205706934375,-0.03752294438472422,-0.021675426599550986,-0.05891365133885587,-0.039957397166177376,0.039000243537587596
0.026769246218712104,0.03612715238354558,-0.0622950303977244,-0.012560746285763461,-0.014197502409879078,-0.05466894796353497,-0.05792523697843733,-0.006222520759919475,0.03647713976191104,-0.00422760383750288
0.022315329140500113,0.036553496391870104,-0.00972436141474569,0.007950557107697351,0.009413837260042945,0.03405238026323546,0.00017497649741158585,0.021100501833026537,0.001973054588325388,0.03874209695357309
-0.0244247196082917,0.038869852253533836,0.06175643620466166,0.05508483378788174,-0.009842196173369323,-0.004478095267370615,0.0217968777689438,-0.016787990196132762,-0.02146239421857132,0.029996320701599986
-0.028919372518896373,0.016285972262163505,0.014964546874778332,0.07861466677465424,-0.027700503646058576,-0.03976678190577862,-0.011928306798239781,0.036688410794564426,0.04372513536866707,0.021231140480966585
0.025970920921647798,-0.04296606160114387,-0.025866993079996015,-0.04954560122304941,-0.007685020989554363,-0.012815002075977695,0.05037424834274424,0.01790387770337409,0.001461344118419884,-0.03549676509986569
-0.02472380725515831,-0.05056298609375076,0.0048179267828602846,-0.026531297225123845,0.06690925833520249,0.044719514930013325,0.02682068857229312,0.023446651960626157,0.0015726474914259034,-0.024530123991628242
-0.003782394291596075,0.04654061961240059,-0.03751515374846395,-0.04072333217484919,0.08100067520445892,0.010250049456223244,-0.011767503989038421,0.022675985867943994,-0.02328770104710761,-0.04907418806555525
0.026906738195485568,0.004933531353374175,0.006354562201317172,-0.014819744279318006,0.0036764915129554763,0.09087974095169482,0.05557532706954274,-0.017663205668927453,0.03984132659165712,0.0011597634867839103
-0.010375679124182104,-0.010977586642223792,0.008051028148239254,0.023646767487674157,-0.06388838832300664,0.03182154330538806,0.05351800843469999,0.04310476800702358,-0.003617659486702662,-0.01908416439480373
0.07258724076102693,-0.01379211445696042,0.03925300526214548,-0.08504052826885668,-0.058504348377068915,0.03868639545108809,0.05808519313568365,0.03231214923411976,0.05028221703250137,-0.021336874297456836
-0.05010821735408711,-0.031183866808716255,-0.03826861796719785,-0.04947417889048547,0.024133518933253557,-0.024535918169728867,0.015245473485122599,-0.024686675084368743,0.045998507857043854,-0.03497312593860926
-0.06458860183211562,0.048668525360718695,0.013816916831697073,0.013493311097353463,-0.022519524864957192,0.03004402764213176,-0.02282512322935121,0.04337098214795106,-0.021476556239579888,-0.041368432393872015
0.007460243371305354,-0.0022408534276364875,-0.04422911997592795,0.054582463498367526,0.002744260672281784,-0.014956823377441248,0.04633107473435897,-0.031347001560548045,0.001758725758744022,0.07411651847235211
0.11961790550086443,0.03501821689649906,0.020806508963321958,-0.036919606187684556,0.015950962001619187,0.08243242195168911,0.03177173066441777,-0.07050003318334652,0.015073120992936716,0.027282737233283925
-0.05182916200930933,0.032326666017903634,-0.028749506044733836,-0.052525202457332415,-0.0018344870376998828,0.05255210644217096,0.008105527111868713,-0.035957039302963005,0.02473738086516181,0.013675491838739466
0.021569066506395618,-0.03817379176888004,0.04015626807873516,0.011869219120638418,0.019119564738975303,-0.0715661955835095,0.016077905129346304,0.01178180719558667,-0.05585809081795099,-0.06287195655327768
0.06014075356837989,-0.026384189408832456,-0.03503235860799711,-0.02218352910516211,0.007634943950775029,0.01642647803377953,-0.05327262333307579,-0.014102679414155866,-0.12090950778110025,0.008647873913285527
-0.03717404996073573,0.0012142347300080813,-0.039148814928021865,0.055061180282820546,-0.04545961184028504,-0.041827917377304076,0.0055383264241224235,0.0017117860577351447,0.0017243437482880371,-0.028142589462252465
0.05578466858228723,-0.004257277029532792,0.010807023002475323,-0.04881286817758704,0.018014131453404067,-0.06773132733018351,-0.05510288354904218,0.07050181477025967,0.10938680459193684,0.06396047829701579
0.027679516576338953,0.04407703746937258,0.04590900756447331,-0.024194082121272623,0.006335697987706336,-0.009170101022103229,-0.03778022125005657,-0.047127451725195835,0.09277248045800271,-0.009858402573693968
0.01187823620139555,0.00253648850310142,-0.035767074877291256,-0.06738256051886936,-0.02502925289373238,0.01864503663317928,-0.03518452928780261,0.02333595158530311,0.01792784093552965,0.02333206169869173
0.040242784152128515,0.015614882957544854,0.0459058547493277,0.04178219026516294,0.04689566734735409,0.008825601735447004,-0.023904381939052713,0.012899033797142561,-0.060596016642812424,-0.008056934343278133
-0.0027234893394561728,-0.05503991114560145,0.003943375436981821,-0.018869741493879915,-0.0020295802071553376,-0.03908438782564283,-0.00038105150845074145,0.011286564644977574,0.023509593840745795,-0.00836200425281034
-0.05552350440601437,0.0683939728639836,0.04770811464653205,0.0017325713868579168,0.062482294048324324,0.059079274767214175,-0.015237811611181195,-0.016075930308130825,0.044163631598943515,0.0035884510039051573
-0.059408249247525156,0.02336873476840961,-0.005159325572030498,-0.021007846446042866,-0.08627053198904396,-0.00038720607346362285,0.010947605040659798,0.08464147778800497,-0.0036501635890738653,-0.008248709088732879
-0.046877023714498985,-0.026698150694628598,-0.04742475249150877,-0.025810898910728197,0.0006891075503077745,-0.0405684210158496,0.006871346347458565,0.03727218351099485,0.014118454311059136,0.0031123383589485463
0.010212564906552877,0.012679939634412763,-0.015576547996828252,-0.0732118488929832,-0.035642107701643735,0.010899358929366202,-0.019822832951737663,-0.012247840400810511,-0.03977128296211682,0.0740716593522053
0.08606486909267919,0.004422043975191355,0.013913773191212286,0.05293620421749195,0.01936293067183958,-0.017414124282294635,0.053971050544101076,-0.06732314736688937,0.05572524751874636,0.012323319933384631
-0.02127073586415425,-0.03215018971959283,0.028466617236423904,0.04002230939057835,0.06077442932690148,0.01735866660075023,-0.019384332212132094,-0.0028096470887627213,-0.010551477827217407,0.03429169977373161
0.0253934231985169,0.030360508327212578,0.0276153475422953,-0.03616185856543664,-0.03127040546879111,-0.015523576229406495,-0.04652178668432912,-0.01091582268790257,-0.0020354928864473876,0.04415211776067551
0.02171017045859269,0.05503984044367137,-0.01772775947091683,-0.0030316398610685993,-0.037404142612995114,-0.01080422479443243,0.015306152524133363,0.03502151341408203,-0.00015422646500782064,-0.022055836022496136
-0.022573859438001276,0.057255490180369094,0.024397137733035392,-0.01332432764909666,-0.030696600083439756,0.017291200348698684,0.011535504740684663,-0.0245009450560657,0.01099438125560491,-0.0484711054286868
-0.02861316505306666,-0.0033116485088800305,-0.01845854811532646,-0.011426372824960724,-0.024453448714106,0.0030248698651273243,-0.04602448638663698,0.017615908299925792,0.011848620737895806,-0.07904903485330696
-0.01896012961909231,0.03241538319285344,0.030297694575086097,-0.015585040606327503,-0.015230116644782233,-0.004926565700703656,0.039834969286368746,0.04805944672795953,-0.02438578946886308,-0.004974158255172319
0.026064058690179255,-0.008977403143708023,0.008133043138316053,-0.025037596128760654,0.0070942510764917975,0.01904878888948867,-0.00852368789800234,0.020028021219485322,-0.022812592658562423,-0.0030164264423764376
0.01918821353030442,0.06749309986602214,0.05795008311718128,-0.05234397711079952,-0.06786343752360757,0.015081329905593509,0.05726175840809619,-0.03997110357650558,0.039725445602808516,-0.022975682778228142
0.002153142066241266,-0.0517562446851381,-0.010163547812020802,-0.025625859925100643,-0.02517137135133122,0.0012193757172311546,-0.017799667890440456,0.050234531792729076,0.007131213949277584,0.05331082537467089
0.008368638935837207,-0.07860395314255146,-0.04477336627172468,0.05380587778774933,0.027273239528400068,0.018275297808049512,-0.04291911987413656,0.07351421733839253,0.035055541054545926,0.03202266730349057
-0.02576023680009655,-0.025313841978661454,0.02282321076519,-0.03659552959591895,0.035621214714973905,0.027889648257180735,0.020297631853480224,0.02510846207380038,-0.08233910130214195,0.04010223187342306
-0.04291637407135026,-0.011920020407353099,0.10087376466825505,-0.028712929462612183,0.04728148432114155,-0.03835027659284939,-0.008827510537661024,-0.03895129230024391,0.002394353961427514,0.03954886910422184
0.028488697508696,-0.019766806453506498,0.01553147326334695,0.038974556150805015,-0.07048431533076499,0.017721401641198946,0.022146638573510447,-0.040927848812353125,-0.07104372193064366,0.03188544347873258
-0.007947122475810363,-0.00036986372787242244,-0.014100993204392316,0.01177673685812776,0.06352164604910882,-0.05864624282378504,0.03143018110581002,0.03924182065242001,-0.03250825532500007,-0.023984488750799445
0.0702159685457356,0.10758216728541503,0.018485296572775308,-0.015284285948314283,-0.061523931368033004,-0.012465725345988207,-0.027543180495271637,-0.046910641207454765,0.04544689173691609,-0.04632097956386039
0.0023918345129469087,0.015463158468739885,0.03980535171472663,-0.04113304406030819,-0.008015749746796945,0.04110416968126414,-0.009952137762931596,-0.05505510587783676,-0.0011463452685234674,0.018942981175738366
0.051711673476759604,-0.020509224100062496,-0.02436964749195084,-0.029261755773875596,-0.04619129766783622,-0.054928131525400596,0.028809843012634482,0.04676815967368286,0.002202587750725118,0.022263924055450992
0.03622711075934494,0.0066187911940972875,0.01644679145075137,-0.008787705740181753,-0.06412636687920165,-0.003197097400120257,0.02345033360177951,-0.039772343580791986,0.06114661271416959,-0.06474966746188107
0.05066069335585771,-0.0017503234765104253,-0.05133417463745421,0.04042520980783611,0.007660224531173844,0.03275435657222479,0.024215536451443094,0.017424112489342766,0.028655695101768547,-0.07058026337536369
0.00846974047297402,0.01935064464612529,-0.009376956445593713,-0.0004039450660673452,0.013756445734159357,-0.036718545306337204,0.03157095241404688,0.001663833950666182,-0.03431807969072887,0.01913936367633855
-0.032373015485897653,0.005488726953856884,0.027375969611023638,0.017152275548561836,-0.02064822229752328,-0.07101281400131589,0.021023293938027834,0.020544190164196008,0.015396040875374616,-0.004476583585760717
-0.04882132642638953,0.027226858942727406,0.048734016098332805,0.039313964910726244,-0.025595009031776625,-0.045055402015857074,-0.02857935115270511,0.018232716437460664,0.030015754893685583,-0.01692509387162439
0.03114023368880122,0.014004025895580724,0.03319335577358245,-0.05000311122996097,-0.015467734031745761,-0.025435229790237067,-0.038937500798012635,-0.056515962847592346,-0.04216309912062893,-0.005192319179262404
-0.05363797277809036,-0.01956891551612738,-0.02467559668752907,-0.02429056007681117,-0.0347832439094918,0.0309555391979264,-0.010677189079711677,0.024028859364404808,-0.07506637825908259,-0.054393122165724714
-0.006032987325343556,0.07723538905829302,-0.012706302980235649,0.033598385220263045,-0.013540444034411252,0.04204830688589187,0.020613446391959733,0.06830532667052873,0.03699910543850849,-0.03828136839472702
0.05337553623807364,-0.013227888909148767,-0.0022337876553155454,0.0386076466244077,-0.0517500723825652,0.02706270172429194,0.007078813362538739,-0.11331785285888034,-0.030692940263227428,-0.0394382566786354
0.012679165792149977,-0.06498456477794255,0.016973372599367622,0.051511654076640184,-0.008639416767371524,0.05514517927165933,-0.031519690741911896,-0.009714333457453846,-0.0009311451930518841,0.049773763324204995
0.043408691258473214,-0.07665372551374318,-0.03272134698705013,0.06583306647165658,0.033827634996919854,-0.0006858578928454892,0.05160519755068219,-0.02586891855946674,0.008228092907135437,0.0013228106249241632
-0.017434324705838198,0.03029466288932773,0.006834017578077245,-0.0633719083366339,0.03378761166528017,0.012041807356334392,0.0004900178768642405,0.0012031078619624347,0.04264328668268413,0.03766720718181301
-0.06199052176847487,-0.0120207486124788,-0.03989418949147549,-0.041521602344741546,-0.05182374889261128,0.05848207983052397,-0.010736056852028207,0.04099087839068204,0.02459353796876152,0.023597245891514535
-0.08692977378351698,-0.02874753724257806,0.022116610284101397,0.006947881951422699,-0.10530138753527979,0.05363873082168801,-0.007993381027817742,0.035306079494027226,0.00539296381798067,-0.0012218600417380039
-0.010421605941579109,0.019201612617324226,0.0941316612295129,-0.037479056811225056,-0.10847766299541416,-0.033055490200502864,-0.0281985465433272,0.05277611086395123,0.019629232116919335,0.01712233368073303
-0.05502695496082403,-0.017119378002433818,0.048458904344349754,-0.002769953967612263,-0.031243526320508214,0.0343365902584481,-0.012025882875536997,0.00444121483628671,0.004378867054430717,-0.020653782741084356
-0.01245907366332343,-0.06839654964805165,0.040609595756106946,-0.02749929290061986,0.0005273730736914941,-0.013522378083118836,-0.049594178281417114,0.0433414952241284,0.011406420875150043,0.03062853451143014
0.00511498124111117,0.03290934745001025,0.08177932770058907,-0.015620059459552221,-0.021750807041867534,0.009711589629265771,0.008208651639331419,0.059243506187874634,-0.047881128063465256,0.07633466325181702
-0.09995649854184835,-0.04956745487694401,0.039055534048453765,-0.008305474061494556,-0.0601267668859728,-0.022795072889350995,0.005404466697275024,0.07765393930521026,-0.005655241603083503,0.09034557003564588
-0.0964323443357732,-0.00017731605760306404,0.02127136447240578,-0.001568419589984305,-0.036305992803568665,-0.01963600369450843,-0.010763882606972076,0.09649856629593496,-0.012406495665445081,0.15268395660793024
-0.011142094754918773,-0.002957418305056412,-0.09035807515770952,-0.03728211178514159,-0.004499397637354253,0.020649824759171386,-0.053831733533844635,0.06683952283628761,-0.0010434792149543568,0.08702689603249326
0.018084772154982456,0.01473795392222409,-0.007766010977736355,-0.03402988091202904,-0.05487676276834677,0.03236887770572235,-0.008070131592762712,0.060345775334446655,-0.03837823480065266,0.04687452422725491
-0.03168405777144194,0.046401819248365804,0.08468161340090814,0.031455063326811895,-0.012271656181651224,-0.056015680620505985,0.04506871387919251,0.028141264536673483,-0.03673579679379087,0.042295540665125385
-0.034444919010089156,0.030401348336948564,-0.03328939171623723,0.03145089293548473,-0.14560051294449927,0.053312397506943714,0.044724624994480384,0.03137588267352968,-0.034411784095613025,0.013659176721388541
0.0238635685636883,0.04751794948839072,0.09441887267372813,-0.002443374484236998,-0.12375210161960824,-0.05447451058098485,0.08371484531683622,-0.04615342466248914,9.800846829487784e-05,0.05282290383921773
-0.01833444038843235,0.05430399425399048,0.01984292432042592,0.042022753545636664,-0.07334224018068601,-0.01692815246412046,-0.03076454852163995,0.006323996933785491,-0.047638831354566,0.012007041571365104
0.054423024743365474,-0.06941206616208087,0.09698193895537795,0.01046037064992637,-0.01662345581295003,-0.007097758621118391,-0.028802748341921904,-0.041719108025601824,0.03523217805562209,-0.04256669730428474
-0.01119300472756712,-0.041813202943146256,0.04775957650522945,0.008501241576996292,0.013460270738958197,-0.03166259967366941,0.012546357539684676,0.007790156425450548,-0.006459881034360169,0.03467897048124301
-0.03495700184488768,-0.052633182292847164,0.11280481351297345,0.023255017247011095,-0.033492549825542034,0.01948075384276753,-0.005081607619056726,0.06275170553050033,-0.03176392934320483,-0.0049961034029309135
0.05230203960297148,-0.028487247397093025,0.014338908570618066,0.007348394595130708,-0.008746189833179681,0.06466432258926179,0.03652744881602331,-0.03236511408486919,-0.010782330827344902,-0.03691372611376862
0.012244630694491923,-0.006073046387818561,0.022711056742743825,0.0016480382400203834,-0.03803365662058693,0.04111444131000385,0.08707656548814692,-0.019110197110718867,-0.009529344593887575,-0.07472607218484388
-0.0018195169983420655,-0.019768134165611767,0.026904718520710497,-0.029016849783323532,0.021049093082793686,-0.07332425041729278,0.04505934844659488,0.018903692136879185,-0.019489727186072905,0.06432346002324055
-0.014369403505213076,-0.03490005198598601,0.004515073219250127,-0.04599312670516007,-0.00604671272205181,0.033498063503698654,-0.04914470184023836,-0.06961712580525369,0.023788695411306255,0.013627883502939746
1.6899029903443774e-05,-0.0016125290570987278,0.002059327162985363,-0.06998148925629834,0.05322128169216309,-0.014252715216535431,-0.028363612984089452,-0.06922374592824448,-0.038136401295213,-0.05612887048809602
-0.0030135536841212934,-0.016479132498281604,0.06492951957396281,0.008001480551545578,-0.0481041037928074,0.01766331414508679,0.03318210850451657,0.0035423449178833,0.011529009006298977,0.0415881652504714
0.022298929043824814,0.054940052374500246,0.04180297031583865,-0.06027058846571418,0.015353432385309958,-0.052162973133970676,-0.024466392964244032,-0.05109284934313482,-0.034491932436239686,-0.0009992377522661823
0.038444997727358765,0.013765269207995378,0.03355237144346314,-0.030372019696687555,0.012637803853176623,-0.022893986147817538,-0.017452669177398267,-0.03974557316561298,0.0016916479146926106,-0.03543772253819967
0.0019058173522512663,-0.0002465499663703277,0.015328004918918703,-0.027712869344256836,0.10125747946550158,-0.04635386901499536,0.021834334172770926,-0.012186489913867393,0.019272212802506652,-0.012651900495567282
0.052147655282558505,0.00500876535057847,0.06191656172794351,-0.0296524993738394,-0.0060360520732299534,-0.04043830408332179,-0.04443884313796115,0.05019910782720591,-0.012638519264158082,-0.05717695240622821
-0.013096259124071386,-0.007425772871072755,0.06496728264028537,-0.03222453069039956,-0.1043076919217866,-0.02839275809555093,-0.05219158783821307,0.004630217616448293,0.00421560545312554,0.030292499972001636
0.01756404709326624,-0.023158874539646997,-0.0010061936259327454,-0.008019385430667252,-0.02159106661937289,-0.08650567499843918,0.0047872188390996,0.011168452070875797,0.017079457361015713,-0.016432886173729875
-0.04452632878747661,0.062276657623030765,0.054534202146799444,-0.09337601232605804,-0.026306615927814695,-0.07582361974453518,-0.021985062415254476,0.06270332785851968,-0.15737886187572078,0.04063052941276396
-0.04160571113443695,-0.008077814555500653,0.11086221758736792,-0.09084729946353697,-0.07793292763693191,-0.07593412630031222,0.04122204706810731,0.03658456671624377,0.005008507093734298,0.09449082637868385
-0.12123867278687425,-0.0265117057496117,0.2339847108751294,-0.0683521221921947,-0.10941129190767392,-0.046810684408485806,0.055503182912458864,0.1642656896195383,-0.16886044071995304,0.10922908712162047
-0.05108028993753141,-0.02884622357416849,0.14665823001016717,-0.09785019304020734,-0.1551832654510177,-0.04900445498004634,-0.05049206249986238,0.13996188839068865,-0.03478805079524248,0.09868728126939297
-0.0979752455823843,-0.10274823929340136,0.04064940832659989,-0.05172513815700392,-0.08168973525145057,0.0006367994730495976,0.00966816557117835,0.2679612429849697,0.016119335989101084,0.1435509177170692
-0.1094298005578296,-0.01620900422201545,0.13960671651679857,-0.18382439064709374,-0.10204013448297058,-0.037619094368112886,-0.10400410756551723,0.2726323228452668,-0.12287926131206708,0.14694627955855702
-0.004291511563529196,-0.07061763541467342,0.06699049519623591,-0.15297511914149747,-0.10349165205524638,0.12213334636772975,-0.15739457702065754,0.25964679578860583,-0.11232465106580515,0.055647645287968055
-0.06203548143817508,0.002755110773130107,0.09367307660672605,-0.14410718347084817,-0.027787607949428708,0.18556929193193117,-0.12138653827495116,0.23016716734809928,-0.13983528683612903,-0.03221130429620047
0.003001268092348,-0.002232167838745564,0.13249201665802865,-0.07988837169915883,0.05317456685258051,0.04776842859144306,-0.1552307418070644,0.2996672738580804,-0.20134500943522476,-0.048930674073989065
-0.005217539480222835,0.08613932031468441,0.04532026325384877,-0.08719181421304953,-0.03801129945986175,-0.031003077159890317,-0.09603525433685918,0.2545380754951348,-0.1180666561894868,-0.11607843599077226
0.035655639655022366,0.22964234911707043,-0.04926587450152506,-0.08083835383284571,-0.18271209441415642,0.019545856396685764,-0.0644635619990446,0.10972264760007902,-0.14545267144144722,-0.10306706009981144
0.03610224276103019,0.22904944179843545,0.031031619590045297,-0.05184486938286744,-0.24064964525521404,0.05440743066726225,-0.020262780498939186,0.06570261586131315,-0.18038295585473682,-0.1496873279997029
0.09622729251651918,0.17877896551532768,0.05688630782835168,0.01461257530164842,-0.14644497976920837,0.009342709316421371,0.03257926918642655,0.012896829024980214,-0.08990256821446335,-0.015223045857131936
0.056466929927689036,0.20253957116368987,0.011499398941905846,0.020717717876369637,-0.11584183525924499,0.04414771246213452,-0.025885030722329488,0.04378129445337743,-0.084067059427261,-0.022233580376649097
0.12241376099729938,0.061605709796614276,-0.06407433608710657,0.012324239068822185,-0.02127303903455552,0.06788283338835481,-0.010346429298575705,-0.03386228693856547,-0.03571421499626127,-0.03778885609578276
0.015934482020073176,0.012616941492590307,-0.018111606762591284,-0.04640348774805365,0.040434301747995505,0.006063559118961788,0.007493677891301241,0.04887979983347755,0.04562516793671683,-0.029232815408225237
-0.04729504278012,-0.011972842245572438,0.002521227894827795,0.052282020183542735,-0.014712296133421744,0.07476781691165264,0.009806201824860736,0.04520127304210406,-0.04278331045784154,-0.03291075804821733
0.07285337758863789,0.012898169186374944,0.014355024047507155,0.03937817654605896,0.0922534079560869,-0.023303692393204747,-0.0312944086406143,-0.013892953621836393,0.014699979900160056,-0.04473034007063185
0.022388988604788676,-0.005955741857823189,-0.0008847297455547567,0.038104303274620964,-0.02095550656351648,-0.015384815227045604,-0.013614417935096934,-0.061135577320153546,-0.0691001748785536,-0.012706492121728249
-0.018913579803472882,-0.009029214558943415,-0.018690446084472442,0.0036256042367367866,-0.014675242533447715,0.03571093232222667,0.02792794626411755,-0.02779511753389005,0.06823387753922418,-0.004755478583671972
0.004886106164667053,0.006161134869383229,0.012257538802486987,-0.04375113704449925,0.003303479843101108,-0.05664694915235895,-0.0901762639476896,-0.010860949391839073,-0.018328022260029865,0.0396502559330748
-0.03272432268208839,-0.00586564123746044,-0.0037146292018944323,0.0259260370432985,0.01204107601264813,0.05128350357840765,-0.07527586808674407,0.025689625573449094,0.011531569668710667,0.021945500418117755
0.017483497431614346,-0.015355174924081215,0.08152372604659715,-0.03290749075178599,0.018990765185125963,0.016248051170556724,0.04352734521381698,-0.04526822298168412,-0.012145488796992936,-0.026650333361822758
-0.011898818053755988,-0.012501382935969535,-0.011198330661067653,0.07016106096356119,0.007185375307722792,-0.044106227785715366,-0.03631145456485924,-0.04337857118250362,0.019288544953508204,0.04364479283725045
-0.036853504340704134,0.008767313524699566,0.08035014433945567,-0.025212407052560677,0.018303756709070442,-0.026766387766923663,-0.024471918072093705,0.030677919192445852,0.026403400762059846,0.058613903301342446
0.030293201613708968,0.017279207679862272,0.006205765149716026,-0.01776999374313744,0.044479129392090165,-0.012040212957290606,-0.027238586504561495,0.05596389407219994,-0.02296626125195025,-0.042154197923740325
-0.00585801988327158,-0.011256937107547398,-0.004166402642366628,-0.021371421663132325,0.03436805621120665,-0.08050674480716066,0.014504617033863305,0.1586120218187405,0.050591252059628916,-0.02183467842949573
-0.1101874702170696,0.02475570521783641,-0.044655091478826986,-0.009511740646587349,0.046249009007896885,-0.069040479847019,0.06403953278965938,0.21780488369012568,-0.02804652987117733,0.02418111030031485
-0.17474467185805315,-0.019954513839206975,-0.020876172764369844,-0.0206584227097075,-0.012519843974191057,-0.09995827301174971,-0.042985695042641464,0.29800501819867586,-0.03718831956266861,-0.031594646255809065
-0.15634529853589166,-0.08402770559319772,0.04511034159013825,-0.19417885270083576,0.10709106831123882,-0.10305420021498132,0.02998360418970398,0.3441310300078375,0.002122312211341537,0.035607422707758005
-0.17638996287029013,-0.11757541006404335,-0.0005113818341091633,-0.16478198796120255,-0.035689852342840805,-0.1083837297977244,0.0316174439596778,0.29418402781518593,0.030670099891844427,0.07062057761147307
-0.10491812480734809,-0.07875941575588129,0.0797302787263439,-0.11480651001671421,0.07529642644535568,0.04158652524776148,-0.05516879310512372,0.32206148513613303,0.05925065177414159,-0.06664372961484297
-0.13725688600615052,-0.09520052291203,-0.011224193528026841,-0.15965764839253896,0.12565988496830555,0.020288063910197007,-0.17609253630710986,0.2757620076577449,0.06642261154905998,0.08994485431198151
-0.08248392996037654,-0.029793777424279588,-0.05312076236762997,0.06096496994388996,0.0973627908037127,0.03243032654407297,-0.14027809673345573,0.1986766904064444,0.037295131889418236,0.02134368716538758
-0.13821241222496897,0.019943943027880183,0.04971327772738664,-0.004545761858756588,0.023353689500235735,0.13292523179017757,-0.26329255372664023,0.16044304875203697,-0.055433820112116075,0.09920878542848205
-0.1780264061572578,-0.03476429363261624,0.04786401774484831,-0.03510788528477582,0.05298806368393406,0.29217384834520405,-0.20440333902569982,0.31543767544695284,-0.09460622997177971,-0.1029236443465875
-0.010771417879576665,0.0947562012746268,0.048220648383307974,-0.04148436452833199,0.013846201771892977,0.17331787843396265,-0.15378666714483002,0.23850461647073348,-0.09065842646238757,-0.030576636658419414
-0.013819050967495647,0.0355419826639554,0.048946642679913305,-0.04687078792484315,0.06986301478733435,0.0720319133601532,-0.13527668204781612,0.10511972254600052,-0.2646383479939163,-0.1549173430950072
-0.04848331818039538,0.047327365986754015,-0.12056998395823254,-0.04357469944544233,0.08511784295479934,0.20571454714937448,-0.09113857670605809,0.17986242220927462,-0.14756317678938952,-0.08649128857650058
0.08310507859624586,0.1436360258823849,-0.08854583543661154,-0.07262509314145339,-0.016149204278134655,0.08503845437669391,-0.033677557843843325,0.180812901739385,-0.23503755085900072,-0.048347392329479474
0.10251935059644464,0.1554165317457676,0.05663240645610595,-0.07800322611304736,-0.09609251482515428,0.0332973833202698,-0.008101515664787399,-0.037580214362881934,-0.07521069071214993,0.027537612931269266
0.2750245353679349,-0.04881616519707379,-0.07550039167723849,0.01951407924499495,-0.14457572735899876,0.09970306238319487,-0.04490676508432654,-0.11451388211667628,-0.03408677194621789,-0.0618347400952331
0.12687061738086028,0.0019795778671856247,0.0941018116450076,0.01597905512368654,-0.08843089769595579,0.03252498668156913,0.04825929930247912,-0.1698501516893159,-0.11531877082963606,-0.06295162572772889
0.1115035800496482,0.03544261354703825,-0.057310331703721705,0.044972106153542586,0.005635669401965013,0.09323592231879711,-0.029650570381854452,-0.10648159265722168,-0.0697296219783971,-0.06452350660999624
0.0684302269493831,-0.020732678720521713,-0.11444527820965937,0.02881952738322199,0.10209096516656055,0.12678535699791554,0.0036116710586420204,0.038986714044278774,0.00885381480042062,-0.15267295698816577
0.0595897687928289,0.007282418438801392,-0.028669827885356013,0.04598004983034762,-0.04727944382512901,0.043101187785865164,-0.03794913337171019,0.05621420100187194,0.003841022940448808,-0.06332900746509258
0.05594177884922665,0.003510593878829312,-0.024154915905169466,0.010957770428057224,-0.009728648973877449,0.021364722767376214,0.017107875786632153,-0.04825684560591031,0.050341535212990604,0.015078608841678177
-0.009904929430452817,-0.07924863671385673,0.024812368927019934,0.008149425299079254,0.0392260907817023,0.048033906050508626,0.0034702795633335176,0.039357415191697755,0.014062202802456009,0.035237689989748855
-0.01716571901629893,-0.009587699665014436,0.014891180394803815,0.02646655381961436,0.049841563110812864,-0.04182715917125152,0.061476279529330456,0.022988435962509483,-0.003888367869217546,-0.00933368763280038
-0.04797016945092962,0.0011891134566466306,-0.056019540947530665,0.0162880830809575,0.008186042870240808,0.048329273560764684,-0.035950159852010034,0.022314467350123355,0.04617758182346738,-0.024281957282448176
-0.006378880271988866,0.023508980954211837,-0.004412146568210006,-0.015103751149546478,-0.01036230635751469,-0.007757440221672118,0.023290523395740764,-0.00497175814111784,0.02649473287531265,-0.0399613930195605
-0.010172232052635595,0.03716526518979855,0.03830646109392802,0.03786132650631542,-0.02237250803912658,0.05855968459479,0.006853561300193897,0.01918858517108462,0.019671124618671324,0.0064837912523163675
-0.03849206416056934,0.04285598947062198,-0.007362035714029094,0.005489559316038681,-0.06509369190928516,-0.07337848583295194,0.042425275874255555,0.0830643291859261,-0.0009684464740141439,0.0050590189199289605
-0.05760692634195634,0.029496560529675996,-0.11182790064442416,0.091730571544235,0.07072260439369142,-0.07069288437358463,-0.017423966137075534,0.12577666119963976,-0.10250153932967225,-0.03292730196736726
-0.03558467233580812,-0.03364422487800552,0.006412714676550285,0.03416288218516923,0.06076448241148876,-0.06954307673449865,0.08443646949899235,0.1703117589560171,-0.020901116837574767,0.03412396340852284
-0.04057271654343307,-0.07565224472531862,-0.12902282040372423,-0.012562560211428793,0.08747951117105794,-0.06712395499200498,0.030578407838519603,0.24002661781403617,0.06015992874808219,-0.01720826024066395
-0.008758692952432395,-0.10492927826322428,-0.012154561980385737,-0.07394811804436137,0.030489775226177778,-0.08974790476294493,-0.07416121440393879,0.23454879999938513,0.005185123401091888,-0.04629599150886551
0.022037381763793332,0.01708524320447375,0.01037057502553649,-0.052527726896337466,0.023985056481859245,-0.1660021750615098,0.03844115911501722,0.16473276983555382,0.03260450007248179,0.10978743048139572
-0.042197194394866896,-0.026904868888069065,0.04491106495931759,-0.023632437791393658,0.03210938949066758,-0.021518938545485488,-0.03669236709449626,0.1406133347976066,0.061062268819262744,-0.07462445108932822
-0.11760469413823894,0.05252613623902709,-0.08094800314558914,-0.0893223984098404,0.30496779292481924,0.006652584040840166,-0.13957897584038576,0.06759933352976896,0.19968705687617744,0.004397202247982793
-0.054225112474436905,0.15464779482977256,0.07328176917274848,-0.04586892049295027,0.281921217570494,0.04154128391333859,-0.2062774398213741,0.06514128271850043,0.20402499902017998,0.0446818546879626
-0.15134881725787508,-0.035225161246837756,0.0034893684034408017,-0.04569818069395243,0.15434776038929754,0.20375885000637783,-0.2211360701075833,0.001076845553770511,0.22731902032539314,0.02553595298608015
-0.1462064423128712,-0.033329937835252454,0.12596942534703778,-0.0451304520984837,0.1741671159370239,0.17135610309093144,-0.06735855159714904,0.010135818393501948,0.15609794720391165,0.19839659616002023
-0.06140876451303063,0.01931806214863534,0.13226155197025513,0.11110970249358905,0.1234738276077708,0.11463641443335654,-0.0905408076496891,-0.06499771310350869,0.09225830801085956,0.16803282290870122
0.03586241034707869,-0.059906668967207595,-0.005946563521024918,0.006586303210722816,0.31091792774622196,0.18016510490401225,-0.05913062095606017,0.08555172270405394,-0.2147552014211817,0.19778640598245478
0.03155218206116333,0.1660043321067638,0.026263914746077636,-0.01633723909105321,0.24408848618013268,0.06544007792091909,-0.045332882903204655,-0.03610840885326443,-0.2123879882707281,0.15731448159153613
0.028296602908327435,0.03535687017712957,-0.041471026912479114,0.02156691135442365,0.153603577094483,0.10971351886824557,-0.05068206995499306,0.023213663805466012,-0.14450118131246775,0.1126087546042952
0.0014006345925061797,0.17139519563834144,0.03968210506937936,-0.12787093764061744,0.061761618061334976,0.1466353462153247,-0.0918149501027189,-0.017339000520932672,-0.20672213672573128,0.12360750242304662
0.05631287905815449,0.11173392929755738,0.11240093340026026,-0.1033688591099036,0.09169340004987413,0.12194022149765536,-0.0441156541369683,-0.059281226968520485,-0.23660052305674042,0.1840172369309773
0.11285323899941647,-0.08607022083749921,-0.014721371885504125,0.04241210208313658,-0.05940130128508639,0.14655671708556006,0.038332216963650335,-0.17708014596108787,-0.11303422308028466,0.14472138607292448
0.16570539789046318,-0.07454630370087748,0.031463444456476565,0.14364898669297882,-0.09157101671059444,0.09377929697835377,0.08204963215638737,-0.2966536663966588,-0.14852135939814398,0.05394843608214568
0.1923926600635152,-0.11772250293955876,0.03695706241819037,0.15148888244070005,-0.07138828558486084,0.051405075130302395,0.002313211006004213,-0.20147109516925335,-0.10856065765200744,0.09525113735615719
0.22533924675861655,-0.010719478286639914,-0.11486437019243442,0.048513180867186985,0.04391525448446898,0.09158391529674892,-0.007386315156224737,-0.024197583217556794,-0.10112854442559656,-0.05261729132819421
0.08794861975303807,0.03631490827887191,-0.060170187104972635,-0.06314365270009639,0.1060771016510664,0.05728310066886638,-0.027208607332499354,0.006464676799611175,-0.0012066708417020151,-0.03975449338209746
-0.015980419495349667,-0.005346354362452337,0.023431563314042194,0.05203902221114569,0.045443586773180535,-0.06808592152296097,-0.0064922038005000154,-0.03545774008043721,0.016363874798403604,0.009361238254900508
-0.04522989900976735,-0.031055462212638562,0.008241891610850255,0.01774921615088221,0.01093985513241309,-0.00923504651988475,-0.05319503053319065,-0.03223913042426808,0.02142763773987583,0.031236742648549226
0.0007704287055310419,0.0033090861145279723,0.0056350168569119525,0.02823851127520059,0.03336605526858361,-0.02432553257548176,0.014234141303499922,0.03368100121141249,-0.05560980295740714,-0.017169870618466414
0.04482789393428629,-0.06392559652206597,-0.016133721072027006,-0.03980484602129466,0.0673369819332131,-0.007016647656538111,-0.021665031350657827,0.07431068123022032,-0.0067497793792714485,0.016533109152839794
0.011578571108430304,-0.008060195114852807,-0.01945222214997682,-0.05315383237996696,-0.011266814432427497,0.02727686889468989,0.03921072572852967,-0.02273443927434847,0.016519584850031827,0.08445048616206101
0.011511687857651777,0.03881769477766694,0.06110612805429992,0.022240175276680565,0.04601020531465107,-0.023025201559064255,-0.008188841707166666,0.025826629777221614,0.014317759397225675,0.025984668583170507
0.0077935353791406285,-0.051693136561460816,-0.015437739339795632,0.053568941478781044,0.04722665936809471,-0.07614125904509794,0.004598923047650918,0.1866035172240642,-0.05049036087929786,-0.0002842407129727328
0.04995446768409198,-0.026475868802899382,-0.09491131664335763,0.018674742117009223,0.05460559289066093,-0.04957125694702084,-0.02791464919380834,0.25215716864162624,-0.09250531440733446,-0.007228923936357938
0.10829682433416667,-0.12978781629202765,-0.0027144972185514024,-0.02081605012953978,0.06638503553957957,-0.10273782348523106,0.031169981703204272,0.20264915424137778,-0.06987216864191217,-0.011830278240397531
0.06416026851507443,-0.20376086380980324,0.0020633820311450365,-0.08385020917165478,0.14402499346031983,-0.04673750635679062,-0.0032459777625521748,0.24058080649700658,-0.08669898912136453,-0.010639931399945065
0.0330961335789252,-0.04581127951821939,-0.021422837389000058,-0.0532324921819018,0.09773930655541523,-0.13235024107960455,0.005432280466362331,0.13983477888330595,-0.007894703792544226,-0.0611700562359975
0.025390276218249068,0.09504139403389515,0.05528975708177754,0.045726615419505956,-0.027122873168044265,-0.047260376782871066,0.02000516272264014,0.04262635889908018,0.04493999466337298,-0.09125386821883898
-0.024951566221639906,-0.04490243685835782,-0.017792664659536724,-0.049999462802521565,0.058472826956071075,0.12062971493526438,-0.04621757137708723,0.10524698890990171,0.039296376347549955,-0.06286487562281184
-0.06131760181092224,-0.151805977906988,0.009905882883456785,0.04821713238247409,0.06924147119067828,0.10010554969311614,-0.07612576243031015,0.03789130072465858,0.10970163412129907,0.002323249246368705
-0.18994642593950375,-0.03167331357922096,-0.013373348145969667,-0.03543378827511766,0.24726486679655588,0.22727009777840257,-0.19667109519679293,0.003277523089632415,0.12205147202369611,-0.10178060115420262
-0.2788187675182839,0.09574881326250484,-0.023020861305036583,0.09564262603902955,0.20172068350355704,0.20626671144133035,-0.27848046134667165,0.11335895400857308,0.2595064547495532,-0.1251706785110025
-0.18609055406304625,0.06581535901110705,-0.07364665282378845,0.07697899678718817,0.1564163002969764,0.24014582496447076,-0.18889112478444292,0.06567358420166791,0.2445815139139534,-0.016062749730476375
-0.17793763614600985,0.10111504173534022,0.17411581818621732,0.1443358771205934,0.10844502550179314,0.24115366796146434,0.003939300669113556,0.12819540177789318,0.29437741595796424,-0.054240037759239086
-0.040577481176256494,0.1174208779261239,0.18024559997455303,0.008125201207303829,0.0918897947977313,0.23416722766586065,-0.0906073060824069,0.005128083096767827,0.27052173899059606,-0.13971580078760254
0.11077908262086267,0.11873524592285663,0.04298796790232201,0.0640546014492084,0.19101080485444596,0.05238875527132174,-0.10135219143432588,-0.13647177065663274,0.22536442114979688,-0.04928939626742543
-0.1007093475880737,-0.025629596389570585,0.042527344227639,0.07592777856514799,0.07654397548590001,0.2212876884277231,-0.07178830825107117,0.10128349257094883,0.11059466616235797,0.06678455388065545
-0.07782208908045986,0.07659748550140229,-0.000504486562310856,0.0023463979729739207,0.14978851551160743,0.21974255210079593,-0.12413793774032736,-0.04546856764120768,0.07087496204875425,-0.10133783024729145
-0.023246179871656947,-0.1054925591541979,0.07204401852673162,0.1089127535357638,0.07028291381103777,0.13620539180019284,-0.08735898118134428,0.0340872375449737,-0.06376963647447594,0.06549619013463927
0.08820841916247588,-0.16131367928327742,-0.04540423508226566,-0.006155173702043948,0.16282822819246492,0.03893570217025013,-0.0241214671756912,-0.07372547831946379,-0.006408945072073445,0.14016404493614792
0.2546648899745108,-0.003141053393868658,-0.059740875116511355,0.017601451398196105,0.18361363238067413,-0.012028100937239671,-0.02287197067062417,-0.14648866018992007,-0.15611615383001876,0.14217727850019485
0.3207355547412793,0.04493730058348158,-0.001739673155598051,0.029944235291537637,0.07460694216527015,-0.003997912066492449,0.0008637975667990278,-0.19423016934953394,-0.24909613001721703,0.07684199814646718
0.3284718212206121,0.039623132045413706,-0.05102792116496446,0.0652292433064081,0.13751634579983565,0.14245385216960893,-0.026606066257550097,-0.16361478037747104,-0.2186883879359131,-0.031129298961256054
0.1689475679297498,0.027440640179874694,-0.055283888491705915,-0.015699374939497895,0.042925781474703106,0.1318449141652625,0.04420115077013306,-0.01866533492710973,-0.10098178230710476,-0.10717925254482825
0.04485303573060382,0.009881086655815028,-0.02622946008467539,-0.002718260379267546,-0.005031878486515679,0.02439138396195044,0.042655063889425235,0.006409362258390199,-0.03290515225715148,-0.028742277520290425
0.044939088662282585,-0.025276154455516855,0.0013689126325186142,-0.026063663059940623,-0.030673689373027783,0.024093320643310195,0.06558139302739596,0.0019430751684887363,0.03642127767816406,-0.01408105645834969
-0.06628811661538864,-0.05445075753973974,-0.02346447426150772,-0.010570830429621978,0.050990868112931916,-0.015184397489943782,-0.032783969903834136,0.010890098689944649,0.0101336686603442,-0.02515562602042503
-0.052893050153578536,0.01720311150299831,-0.03014769835099804,0.04176575190283288,0.02222622205654525,-0.02654277812998847,0.049788577363170494,-0.031689274020983385,-0.026577659265119204,-0.020639942872505968
0.0498774405673023,-0.043257138670363966,-0.05979132583968166,0.01649169799966404,0.032257320764832356,-0.06962093408532727,-0.018566525153665577,-0.06343244153908822,0.0017547404094181815,0.001055210148885255
-0.004304262039924083,-0.02600104800114728,-0.09326734406518541,-0.03916011869597281,0.08165691868871006,0.0056306149380251705,-0.0246481944831868,0.09216730280788804,0.06869163527686575,-0.04425800543527291
-0.016154488156365346,0.02107150234024238,-0.04791181899324947,0.062289008237303836,-0.014480350427409593,-0.16407456656384334,-0.02140250619844778,0.2617197656661857,-0.07948784625974857,0.008136138545418045
0.12456280113064654,-0.117666007010624,-0.08120121498373999,0.04758275390002884,0.06424737294828643,-0.15372758878047132,0.026906976784339613,0.20515288609036567,-0.02637735318191026,-0.046702147463727556
0.1517885806722084,-0.09512419427051984,-0.003124017025496652,0.002118184765123671,0.103289343054163,-0.12343947928943988,0.03340246110449909,0.16241493125118495,-0.07328673242966902,-0.08030282497718941
0.05695723767167164,-0.13695403058408648,-0.02831553682008704,-0.057539418114514476,0.06693604371436859,-0.04803936439389588,0.05377720610708168,0.19150732891154224,0.048492433344625836,0.0014830078388830305
0.08098522475569718,0.08977451629878244,-0.1354386078144757,-0.14540561742913163,-0.06747537550408916,0.023842043860135102,0.04732074754773442,-0.0237802433409796,0.056021218599855906,0.03601870148337647
0.17994142764306606,0.06072722677761915,-0.021403653252090496,-0.013369263499832144,0.053808105808509574,0.10071387442230358,-0.021245830172433134,-0.02393561708264882,0.0656957398301906,-0.20955849318492747
0.10201621320478627,-0.08340135140551158,0.02928988355066654,-0.030554806958187436,0.0592406824298832,0.08647755798423802,0.014584628779873104,0.04641705327070541,0.10290938676558681,-0.04617909465522254
-0.04253088412509629,-0.008407533057283211,-0.002223999726688903,-0.025257590286472054,-0.10941909012346047,0.007783687094147088,-0.048906611557703324,-0.12047822717634311,0.1889343156732793,-0.10658875344950461
-0.168361627715145,-0.04492668016763982,-0.046405599013400065,-0.035426503747790994,0.07199755667678621,0.057402510753933766,-0.1582152907815491,0.09470148428795218,0.3245141144499399,-0.21278629726067014
-0.19513749381869724,0.023092692460362288,-0.030150560033580173,0.09495445966645198,0.08352812360367558,0.15351659530309966,-0.29337922844412107,0.0448333327769387,0.27504839661360003,-0.0604121389715634
-0.10219805248180289,-0.06287873372740284,0.10834961845856278,0.14092022565607423,0.10035982270591409,0.19625288099499152,-0.13118012727588066,0.03296703374296797,0.3016468484956762,-0.10668895769906549
-0.13257868867243366,0.184013317846456,0.19669102610389638,0.006855842333104175,0.07909405152075305,0.19368426115656304,-0.02309989516578603,0.007314189021430637,0.36259627408058126,-0.1829997238935669
0.043024989092363616,0.13288102620946457,0.023208798973869273,0.08790351082449892,0.0806270950272107,0.29282101919178855,0.006431021152356369,0.0027032326402578115,0.41914999263161873,-0.21849827889268184
-0.0419019329443217,0.08115889370861305,0.025427634744132153,0.2904524277551977,0.22820582670936823,0.1105084784781951,-0.04454403833428007,-0.06655658795281257,0.29295479991302903,-0.24297004765352648
-0.0010289067720898903,0.012786994090277497,-0.025357357289140747,0.13803590863478793,0.09658610229083917,0.2458590123914981,-0.06156016942640635,-0.027623534376619678,0.17090273857905866,-0.01744532443164875
0.10231822388346709,-0.11598170458194162,-0.04627662549809892,0.12652718826691553,0.09537687383599658,0.2566226368564882,-0.025530178625086032,-0.03740209610599731,0.0788466472294208,0.042483723749298735
0.10025846966229289,-0.1250855284562753,0.009572504220208963,0.1480403784535952,0.07864625513470082,0.08762089050456141,0.010802776853343922,-0.0919965592015887,0.052019852428016246,-0.0831486999330914
0.09094503777672971,-0.04165792905160524,-0.06747805076278046,-0.012829376644544527,0.12149308939216213,0.09154001550658744,0.04139446296117139,0.002437806941945465,-0.12168688113037403,0.06342135901821096
0.1209292948744016,0.04356600418852971,-0.06405992136637405,0.02496447624684603,0.17021899055720865,0.10756946321183028,0.04665742726021405,-0.00028460241021285306,-0.1871601283272613,0.07170904116158598
0.34521625305043796,0.07913404478155907,-0.17446548330230582,-0.019335213697702885,0.16528060548131837,0.09738584084290328,0.11363169639657146,-0.15846502950054275,-0.2013957105070065,-0.018983527518106922
0.49100935727702094,0.051519330641817226,-0.16676305594460875,-0.04885510232354068,0.21147675531114726,0.21667588606964272,0.031243507832404652,-0.18910648132555014,-0.2760814192831436,-0.12032436019522079
0.248921665938591,0.06394657413287852,-0.09430752364020538,0.033429477842856756,0.03932406748363713,0.17197935200846118,0.04034128939007825,-0.1049373315696229,-0.13225994835877916,-0.07622722036262924
0.037518536573384866,-0.0291739209421924,-0.048226572413129824,-0.028801295155007293,0.053947742901556295,-0.01590976181367859,-0.026316154949260942,-0.0376934102275924,-0.011771340732388735,0.02090026152510502
0.01849425243239796,0.07787241319611629,-0.02159508228981426,0.03774692371186406,0.04118337333908735,-0.0011134238635528294,-0.01727226564190042,-0.03383108578268848,0.02582399590271968,0.005983159554378082
-0.02213910656624665,0.01805623105251311,0.023260908548501096,-0.009372097970700951,-0.02814758182599948,-0.021475823666193994,-0.024855911429596297,-0.054619790922900896,0.018005460653981186,-0.01840739811765513
-0.010613901758403758,-0.045187777861175366,-0.02600509587238149,-0.004875827550571796,0.003989198289384006,-0.03494741816521084,-0.005962997711248114,-0.010585823936776659,0.02150252837258306,0.033763724107903154
0.01735841401521353,-0.0792525870190788,0.021243069171093924,0.028270363543587546,0.049763725097435325,-0.04965512966402199,-0.013435883708542172,-0.03534532408533201,0.04579302271761319,0.01771642831246984
-0.034577103958987616,-0.11264172583341761,-0.02794974683628861,-0.002213831431981867,0.031756671384727174,-0.12546378207138761,-0.11155495499376589,0.17305335360571877,0.04675323374918254,-0.026413799315460892
-0.036611467936511655,-0.12089251370512236,-0.07853529217739941,0.02042091520924736,0.10167575729347754,-0.22528920651584858,-0.029088562911444498,0.3343946004162586,-0.004201304375843908,-0.06927652171669389
0.04293045122184376,-0.024413934582457133,-0.02093783567856652,-0.08227978957644762,0.1584114630093439,-0.1878782311520838,0.022106173327036013,0.08152665526398187,-0.0538745469224725,0.046368564128447115
0.06833069878990863,-0.0729735661754705,-0.03861943144560159,-0.06080249151149696,0.2218677682742605,-0.07569259252283932,-0.014916995760152402,0.11225250414937478,-0.018521109754316874,-0.10395509966420809
0.16534293648545628,0.06531995403836013,-0.14641144979631485,-0.1281175438490907,0.1191920469008712,0.022590921272972662,-0.05854568613729575,0.1216523263510276,0.15473686996090538,0.001340177312121446
0.2124052738627923,0.02762511434920769,-0.06654625057713795,-0.03850472747021393,-0.08324773946766026,0.0921661653403842,-0.041490298891352896,-0.021080564820721775,0.1951760919881737,-0.01995542829089434
0.2424372268612763,-0.07751990557684361,-0.05341967858221562,-0.028524646239886722,0.09435762042775671,0.013241789445499181,-0.11678629635086826,-0.0022359041168777257,0.022886224979153783,-0.012164539580044301
-0.03140592665783021,0.016168384123968017,0.00827336884994052,-0.04640034089443297,0.08151790096222043,0.03907062301297603,-0.07142105211639255,0.15695334688696333,0.17429748397968653,0.05574366553395502
0.08479452177361535,0.03029250308523577,-0.09963697914528252,-0.1578222132000009,0.06433679427195946,0.131153088748762,-0.20897081892489264,0.07747882676882294,0.08637897053377702,0.026410902198469394
-0.029508694930695852,0.03285692400451318,-0.09585344527607724,0.0174638548237014,-0.004881280429810034,0.10638290987961332,-0.2710861679383937,0.2521473180621948,0.16443391031241808,-0.018025121370694532
-0.1723803051407104,-0.16408230234549603,0.05767988581916342,0.012292760176288792,0.0067801607382823245,0.1212975746948416,-0.15985921823357538,0.11577067822447272,0.21452268240538896,-0.001582582478702068
-0.31291220326714764,-0.13961077553045143,0.2407922370694842,0.12340922827554922,-0.04219169620078771,0.1619453693340884,-0.031042503991980296,0.09173356257542144,0.26220797686973035,-0.16490028970666937
-0.13357637490664237,-0.043095740196504126,-0.007356378688960077,0.07951111719797731,0.0898746962534884,0.0010977559060552197,0.06798663311833518,0.10676840557337208,0.3670615982073431,-0.11826365276139093
-0.13292513062023714,0.06636990671961536,-0.07666329879405594,-0.026249267556665023,0.1661389102437063,0.26535601033825784,0.07602014201782496,0.01780963016810031,0.3203382105948408,-0.07923780576575884
-0.0048064075695809,-0.1977440073899643,-0.026144186855321706,0.13835888816850922,0.13714537905624513,0.13005700059320052,0.17388077636972604,-0.010143735019685586,0.22427469768744457,-0.008593866288603763
0.014541847442595384,-0.06746241450721743,-0.20697622061865248,-0.07241232136158562,0.15566760910420527,0.15979470469747192,0.10100520861218608,-0.16179533695610485,0.2578774316126642,0.07969497534870273
0.03984206146960545,-0.0943411328541349,-0.19628148354174818,0.039106237226298156,0.3322694050370896,0.0840889659817777,0.1572702843425471,-0.06322600025532124,0.20502801630499254,-0.08704413291138156
0.15807536426407642,0.010973616918579813,-0.27486019388087796,-0.09948633731990128,0.16279564942412555,0.11009363591165106,0.0975129279422794,-0.00562035598618366,0.014083110109150887,-0.05458563679910757
0.03387901750182127,0.08022061649181148,-0.15374932376767486,-0.0758782414213248,0.1387580086979271,0.17262564737642372,0.05656060731046989,-0.0650458939524657,-0.08160946754416734,0.027878449097681307
0.16009690560669057,0.003311137890024171,-0.08028424290352032,-0.07010098218310208,0.17104469439974196,0.049996114541351576,0.05732523248409055,-0.018128413344776793,-0.09077845096508715,-0.06690850833913548
0.27605729049852645,0.06684814902211317,-0.12003865621247094,-0.10811790557850853,0.23331187824519287,0.15005844250362363,0.06507553215488764,-0.2451936663895482,-0.1447171901163007,-0.004480183947250823
0.433663757121102,0.05126193817175138,-0.22003666093648888,0.013271702715437867,0.1695722448891629,0.35677101771846315,0.047144910478329353,-0.25584613414414015,-0.19849199418220012,-0.12744604219992214
0.3331311016519432,0.023121774763256518,-0.07832007468285165,-0.023244611053356293,0.09298805704290143,0.17081897448273106,0.06219300402473368,-0.05068412522393171,-0.16548623414138866,-0.06793813880122884
-0.024341553705774312,0.01787230237605546,-0.07899012634921794,0.009072045260608622,0.031952576457252725,0.009567301006255568,0.012458019314486998,-0.040524915680621935,0.06498853245877895,0.04750374375046043
0.008295366637222064,0.04607500975588359,-0.0673978814937371,-0.0345079107865913,0.06348169642013389,-0.06728878185103376,-0.024258106678410406,0.014337085680574598,0.03184280301163537,-0.0417116024638496
-0.028085285524026626,0.042578154453850804,-0.04579814712512544,-0.017241279898082593,0.04109755416151595,-0.021050111015022143,0.01081471776948648,0.006086312765611915,0.018096100311874867,0.010893913893720063
0.020003331677214315,-0.10792355209011774,0.01653036455330368,-0.042764970953420446,0.002724198765728208,-0.0023615170979493466,0.02791653011738096,-0.024867944608409916,0.043019451378153654,-0.010221957210305235
0.015470926595489666,-0.040353610979977854,-0.02437646917198684,-0.011574287738897548,-0.02352533167162104,-0.022889331094427583,-0.015006583450012548,0.019799249894841806,0.07458526358695662,-0.027569909210591718
0.005950702386070659,-0.14769475182880146,-0.06602817846908694,-0.013707759713415504,-0.022362071033382985,-0.03529339246448143,0.030061715087442157,0.1301614386284981,0.029771881126991372,-0.017553822162061302
0.12183103901743775,-0.0992811492679624,-0.0631985967118593,-0.08051499205797509,-0.0352785349968498,-0.09926891171231993,-0.004914893421359002,0.16046598182625674,0.11185018782116189,-0.06371033787752509
-0.0040689170844110485,-0.039062157741612785,-0.0908539768768212,-0.16246881755994702,0.11075256152429547,-0.07095877129360949,0.010167319614586692,0.10429135202594354,0.04727007871825687,0.030300869898737925
0.0946258358649426,0.10085354871195762,-0.10574485730822729,-0.13517061853621298,0.14618198999443835,0.12514915777125232,-0.08059598345012481,-0.0666540013917168,0.1588337339709992,-0.03454009247198322
0.06383236397893398,0.07743390502436795,-0.1304287714850106,-0.1062527261357762,0.15868681074690016,0.08671756717376776,-0.019693405734896714,0.002173427454397662,0.10811890176483661,0.017706585731665673
0.18715819829246655,0.025337931914357126,-0.1475700040014296,0.0005495597592087567,-0.1131669253471908,0.20538291794763136,-0.03585765455299034,-0.04122670038445209,0.1590067434545379,-0.019207195998076274
0.1008545663223751,0.06520948872439518,-0.07025546467447913,-0.07475864573355542,-0.023968204950252266,0.06098655804445349,-0.08040999110950099,0.004053706413497298,0.11150806240545799,0.14275667378396606
0.09487262152149373,0.06675312073007804,0.1285990908265045,-0.03726472983492321,0.1423613258224122,0.08298415417404824,-0.10749708456724663,-0.24581383143749075,0.16727469498454084,-0.04781626420130644
0.1449259741992717,0.016552885516662837,0.027483709736352436,-0.08723654537090136,0.007838909566348341,0.27409894093726545,-0.13925927707722321,-0.26635177159522716,0.1638993929831428,-0.0574414245211119
-0.03460861084490696,-0.06749350110674023,-0.03652367655905913,-0.05440053458574904,-0.03814880820053685,0.20350546811107123,-0.1891300593645143,-0.06532881651360971,0.2634997650403413,-0.17858869301735456
-0.2352925046088911,-0.17444070233652023,0.05921420978306607,0.022845557853931626,-0.0871954507611447,0.20636730374876497,-0.10085239787704252,-0.030714699008464626,0.26503690512573036,-0.1269529328133595
-0.3519418362857564,-0.164565156586478,-0.017579469267010938,-0.06336874275140204,0.05317550167516511,0.04382720463593938,0.2169507725837314,0.07048392300284836,0.4585328716860393,-0.09620890416374736
-0.36484910681123284,-0.27332562104149066,-0.028311076308620793,0.10811218777477838,0.028626083684609567,-0.0862903661962955,0.3188936216342625,0.06431197936993018,0.3178441342923565,-0.06586623623260973
-0.21335068022085357,-0.25308409269966636,-0.09397129124620635,-0.007638053123072631,0.19469271397978297,-0.10257253910851322,0.2483564132942656,0.1389199358185784,0.25659750587971697,0.07577540757419984
0.03821956292035927,-0.29085091834730614,-0.15217204511156918,0.09452928600297336,0.34491699305914675,0.08580953871813814,0.23220187521644428,-0.06712870855132855,0.20382627403893078,0.027767425164314206
-0.0887871532362377,-0.24893692370761455,-0.07099834372772955,-0.008158451941099668,0.3487688023025384,-0.014576722091163667,0.2568956402571931,-0.18977075309894217,0.11315179445211579,-0.012699422897077546
-0.12269721842865615,-0.07139175765464043,-0.008889135042494136,-0.09614209034624746,0.29643568837935,-0.06712202377484426,0.19430457955315625,-0.07758020664422927,0.10169434371810622,-0.09877560920959191
-0.05307983022257064,0.0937924177184484,-0.07265044270356388,-0.12383010640442364,0.20964295369329236,-0.012255367022295974,0.13492802496497994,0.02291013503175306,0.13346777913520896,-0.22044484028623051
0.2112395406541739,-0.001824203395303812,-0.15253951784855024,-0.16927594749112027,0.1503719841638054,0.1402642911513963,0.1627778265413334,0.02665590780132837,0.11540078850993435,-0.011622239548174262
0.09382779325497322,-0.037873383414984245,-0.18527396986689332,-0.14379562665011963,0.2374451402253663,0.1022507013743039,0.1390275901301325,0.05756604991781351,0.008065941562232467,-0.09389033367122757
0.1514281867118565,0.03697025273645617,-0.09797061387812614,-0.1380767349625022,0.30660880564606646,0.32386206786740523,0.16020895423956694,-0.13785222298014002,-0.09928095038050445,-0.17025956615756885
0.27222285290005666,0.10195912367445126,-0.12213058394003042,0.002961608536632976,0.15712578980024106,0.49046068248844854,0.1332101116584199,-0.07013054212676852,-0.2888222289707407,-0.3219087072124443
0.21769290443303446,-0.08392168544785165,-0.12738674178820908,0.035494057916860035,-0.011749250794784099,0.36174790083806807,-0.016513944101186208,-0.006982124588339913,-0.1379926324821716,-0.1852599495247926
-0.004714623765964025,0.004774824833980584,-0.06905724474338064,-0.07706285326976514,-0.023133168533066843,0.13483570559458039,0.020578303391665383,-0.025865194361719787,-0.05862267557805952,-0.014541121453731723
0.02506942126243848,-0.015457647887553981,0.07006553190996673,0.01902632027932935,0.002319796290690907,0.025267999624319023,-0.04158320937280948,-0.03420136910791467,-0.009006851608545835,-0.08526961893122663
-0.08642513870218736,0.02212029852718327,-0.0027661672992240374,0.032496887492990845,-0.02057591468613266,0.007439377521802354,0.012564342204794673,0.010026242442791475,0.06297444379689869,0.0647523014218624
0.07242013376571636,-0.04051696289604451,0.011349303740359333,0.008831856984994134,-0.019472182740481233,-0.034918015251184355,0.018053799393650597,-0.036423592952190026,0.02743096082469031,0.007841877431260042
0.023109951073258746,-0.06663317480324601,-0.0214529538852773,0.02306063204057534,-0.0001413552111547286,-0.012665743618897789,0.01191587168877659,-0.002745978290764397,0.04880120434115064,0.0006284637887067282
0.12427305878987861,-0.10109321597797387,0.0190727438656221,-0.13363819083813208,0.03463725170265129,-0.010933498168802909,0.0053424878838882126,0.054580223999235296,0.12050722640697854,-0.05153680673716235
0.1116512497272465,-0.06566984753742036,-0.03510462433914073,-0.11745903697691805,0.04587484395961185,-0.010862934178305682,0.010082675687779104,-0.07613323249947848,0.15166930946953053,-0.07405906226501131
0.023261675083370775,-0.09638611451205635,-0.050902168782133085,-0.06523830906808807,0.07142041432065883,0.022775522321559466,-0.01929724537885781,-0.09053123826693671,0.24646659340189664,-0.09379391159848154
0.052225405526962455,0.19095998992905924,-0.11052159110645421,-0.11840398494771477,0.06567467194690668,0.1318751411931471,-0.016001107595954186,-0.15420689271564916,0.20146222569405084,-0.07981778657637786
0.05830272269370714,0.0890034150905456,-0.044434693495849484,-0.11805921377162772,-0.021847519401836095,0.23464467074238857,-0.07191612953958701,-0.22358671649296552,0.05480698242336992,-0.06682424066737709
0.027446619076950576,0.04621343861227231,-0.01505660570440068,-0.10801396608940501,-0.02713355604048891,0.1611047074467916,-0.11076224206518773,-0.3109659661049075,0.2940119734828952,0.03501768465902443
0.1509775565763304,0.0980685893254686,-0.04269263172790414,-0.12957674153478285,-0.0916982388319181,0.32585843932344116,-0.052622593688372944,-0.4439881139573454,0.08131791790524942,0.06859943538244086
0.23584334996753561,0.1321294740763081,-0.15257102711842635,-0.004739502940645583,-0.02015829753628051,0.29028438516258687,-0.12585309083528415,-0.5320179760863357,0.032146477298957796,-0.005263287430544279
0.1578318379591163,0.09700068189431352,-0.10768851021215468,-0.02927226331194949,-0.09182090216610368,0.11918789855557395,-0.16048946799048602,-0.5269642865623175,0.04769285743019949,-0.14565727120505678
0.1532086749544011,0.11649484547538205,-0.22594870459451846,-0.15805305850887877,-0.02805225645680053,0.28930604562452306,-0.07340091022931129,-0.5004474047403371,-0.06611753167067781,-0.1190395005450399
0.02512299026560637,-0.15196136210614994,-0.2682465562984546,-0.10608675717640358,-0.11913846094504003,0.11867239206262375,0.05502486188124435,-0.38808558040174435,0.13390547454615215,-0.13703141637019509
-0.19778148834635126,-0.2523834018061435,-0.3766664987750046,-0.09662371963990331,-0.04304580321863413,0.2174767015162501,0.2144447572148908,-0.10009869337211921,0.14616244269741963,-0.1369307011222557
-0.1652493683456536,-0.3904942624188554,-0.2633343287511712,0.14453532347494177,-0.0957581763768707,-0.34077715166915545,0.3739280933912174,-0.06560126998345622,0.1687134155614572,0.005563801890327955
-0.17025022808377807,-0.3327772855266362,-0.1884656512082462,0.015887564832129424,0.2020472583827519,-0.20494006203463808,0.3162521210652458,0.13366448440752143,0.23329202188007864,-0.07851991717785269
0.0011443939509094994,-0.25312511165831014,-0.1556374325183331,-0.031098509029902105,0.317617324389627,-0.29834532384946766,0.0940767668446853,-0.05266739061513609,0.1106022455328504,0.0033236693851012504
-0.10796269960482043,-0.15740140236020914,-0.04107942708720293,-0.1535549565309369,0.29325352287779805,-0.1164310880517928,0.10417902501462252,0.01444870616951029,0.11704650274394081,-0.11846485521302773
-0.1563511559851392,-0.05222279606923914,-0.2046639466608031,-0.2931661323124296,0.20167572078398988,-0.17738245243245246,0.16050184034449003,-0.009397407862464038,0.14836317471458357,-0.018236578284531606
0.032647235515873806,-0.14544437648547007,-0.07742685990532004,-0.2219746120240718,0.23595545210915664,-0.10807227825636548,0.1754103964585874,0.00449600956266202,0.15822533224803284,-0.01960733526869641
-0.007347162873106426,-0.1167255913249298,-0.1583200270754061,-0.28154408384723256,0.30886193871975776,0.015020541902712025,0.1881063170769721,-0.019128240173118493,0.3317734345155349,-0.010142168886388471
-0.08163999434137136,-0.03702756009725111,-0.06937287700271894,-0.1571437538245559,0.34025624668879917,0.08971039916179824,0.08518822043799178,-0.048175311058995564,0.18543905681604733,-0.1558990683248045
-0.09609144489658114,0.0674819718689259,-0.15887296359234437,-0.09431964184071952,0.21166987773708532,0.19852600947210225,0.11391137620921041,-0.1367173778926191,-0.04369496559431348,-0.1878953397801472
0.1078776825336204,0.06359696714858634,-0.15964178802750284,-0.0013988994996063358,0.059815201256200434,0.36851358423834246,0.06360914806415581,-0.014553554107877946,-0.23574673084888567,-0.1894797779049745
0.1945559142111208,0.02419676691694652,-0.2211157076997243,-0.038191043734536696,0.016848824002021475,0.3284780784019402,0.12307502544854777,-0.0061722084238094235,-0.15001962735075608,-0.19418501316005068
0.051842351943829953,-0.03883280816193758,-0.05860952733608254,-0.06358024393241622,0.008144719314358275,0.10725997531027576,0.040203477753662537,-0.03306115994072888,0.001778593825008571,-0.02238242990425972
0.01364785742464695,-0.08987845305377984,-0.00797554939937121,0.06623357696682129,-0.002887105255097696,-0.00394821649608308,-0.03396867941988193,-0.009423473351450433,0.032866120818744037,-0.029357204733197757
-0.001153285475292089,0.010512479064768224,-0.016195081896477042,-0.051822331361165395,0.007373768596536571,-0.005122414706100883,0.0317760334799282,-0.01764322080454569,-0.023870262506028014,0.042236481561321045
0.030247802795952943,0.04048773215288302,-0.016072663431870263,-0.05605375251550574,-0.00498660918526517,-0.05988194943215603,0.06858068719334452,-0.0499486893016119,0.0389332526194288,0.00906375127927064
-0.03896328593046548,-0.08248359591388671,-0.013754478233875315,-0.08008404508842026,-0.06700605943759647,-0.04887505659274034,-0.026999975195892534,0.0903877957717455,0.021551303656877564,-0.008713498653101507
0.1523748795217158,-0.09263494701736602,-0.06788146339598732,-0.059689323933450764,-0.022571022682659158,-0.04625133518929334,0.034935035637712164,0.0074095959644309255,0.07331331783670968,0.031003516941887167
0.16061752283427336,-0.0648009768717017,0.019653465118047102,-0.13998807684734818,-0.04368939336600254,0.06754349920265468,-0.030722490499879195,-0.1304449537189848,0.18299536958106044,-0.006752810347689174
0.028750167183832963,0.1871895129405182,-0.06638819840616712,-0.12830107679946492,0.05141486786147158,-0.006996275039728593,0.037476835266612545,-0.2674878243327801,0.2100341987547027,-0.061754967748307556
-0.07889185897970152,0.1370533139388122,-0.03773366798388484,-0.1845168316365672,-0.03782685634997749,0.1885661249248655,0.07547652803230474,-0.36427890511473277,0.1540879490834347,-0.14524805781807948
0.02452223301898513,0.04588012122625982,0.035316335093411345,0.0251475089130746,0.04036392974372634,0.03371880314190496,0.09240042960927673,-0.42207477711940444,0.19196898456266256,-0.0920131715036663
0.2348555922738076,0.14664763791790572,0.022067596873214777,0.02730386559326549,0.02129739418646922,0.09701566611255824,-0.0521187312971953,-0.5648637427402167,0.16506833457515996,-0.051981461832195396
0.30142850151035233,0.195445379647305,-0.08104666922569473,-0.05052937983102362,0.03868341870146371,0.058593598662943155,-0.11692616519465743,-0.5500181350506501,0.13564252051683134,0.006153228504432742
0.2491847777980201,0.29432567950518185,-0.1336223410473409,0.0016603605467639167,-0.04354323470769969,-0.06372350717086213,-0.12233167706505194,-0.45844075868407563,0.17281517611788205,-0.048873546885518815
0.21226534377955802,0.028139405308375772,-0.14577595136552385,0.04322455899899486,-0.09758795642491712,0.12319939379668383,-0.08515731056244048,-0.37697446108930943,0.03539928555058853,-0.1657667487702429
0.30254394568232373,0.09964184035249904,-0.14692324990508282,0.06040146205192808,-0.023359300839045867,-0.12922757978182914,-0.12796481775630014,-0.2836922638018337,-0.0934108312769721,0.007281447507357872
-0.09753860724454104,0.20680067191051274,-0.22918216436163247,-0.07553734090796896,-0.16199738174030592,0.13527355660237805,0.09240496079521549,-0.18041783818524157,0.05454529407275194,-0.25120327998443664
-0.3552516352618122,0.03362373863684738,-0.5162461806077364,0.046689947557081724,-0.18938688380699664,0.14644111437342003,0.2353453181287622,0.0902579009385643,0.24267777356707523,-0.08836669999081861
-0.10701491944545131,-0.11885507271897769,-0.583548207562759,0.15511503100484636,-0.10854146472910127,-0.27345793978650196,0.23021942013074245,-0.13846277587482814,0.17185699322221423,0.0013578161464692653
-0.07715657275322534,-0.19115785044044023,-0.265814176841211,0.0667453118121944,-0.039125436953486484,-0.38011806941717774,0.13006609398728292,0.022457742231831127,-0.10286833607302089,-0.04028394066352972
-0.1476506548595905,0.03441319973078039,-0.28650144866141036,0.03692236445632798,0.08625210295621064,-0.3454530717579769,-0.06148825622513762,0.04527018802061164,0.06634590632049359,-0.3207020166162453
-0.22974642059618686,-0.1636734161372345,-0.24930024646001345,-0.03265801160317381,-0.006954337568336734,-0.1939592584476241,0.0026735405560606926,0.04919112245584141,0.27966879410033496,-0.21249657658692145
-0.2978545047766546,-0.03142114286064063,-0.03833064183940465,-0.1363797645429707,0.16370303508770068,-0.24442350286825892,0.04116097411578783,0.06357678052511156,0.08761108676902736,-0.10352013628308787
-0.4374360198089352,0.03936582862337672,-0.03050379895808162,-0.18810246981238649,0.18718944116966502,-0.14974965181751926,0.026468410328331627,-0.18183615276558202,0.22170451278270384,-0.03739861624693872
-0.122908294153183,-0.03717114745676597,0.058707037402733066,-0.1651846776554006,0.12098395203264255,-0.12531883692701734,0.1882373575219749,-0.35161144536347755,0.15692994138303426,-0.06477657344872446
-0.1536724497485217,0.10356254893312174,-0.01572172087486568,-0.22722669575911555,0.1137384359652839,-0.11205343120419951,0.11125252397101901,-0.2567876517615325,0.18705372412625365,0.06020945522438409
-0.29948011996403334,0.14927989729060664,-0.054522551465734925,-0.06207254808383416,0.007897391353010465,0.10282215600185478,0.07716169349533457,-0.053571014335631204,0.044454472965602225,-0.0016671888501563813
-0.17116741649921088,0.16059118785266815,-0.10750461185175834,-0.11036691862275297,0.03825641317559827,0.26194658291979583,0.09609938556258799,-0.005802065614164268,-0.04051098724261569,-0.07291232487540938
0.07682753993131033,0.047970075279963054,-0.2540848452013055,0.014231010263704822,0.011695908903183014,0.17260219978683525,0.05446833337949639,0.03073459464535101,-0.053651744278134315,-0.008899452874289495
0.13176117058567452,-0.014755794502764418,-0.04611167006988271,-0.025286565970220373,0.017078140935910275,0.10181172331161709,-0.0033221901696138933,0.0038283749364586297,-0.032439314308094734,-0.06588567654067302
0.04406676906671176,-0.014012780129513997,0.017087287261858364,-0.007153984340505495,-0.07293639760493889,-0.015207091428065388,-0.03884843732081711,-0.0027756405393243966,0.037433588234171304,0.04666020599839193
0.007462406423279976,-0.045797801138192235,-0.036544746693478174,0.036639809895646185,0.06630493020222401,-0.01892021324506413,-0.010504629104887454,0.023864021304950286,0.018481665783323855,-0.015928800043359247
0.0242988863811994,0.03479005227233019,0.0015137699834036902,-0.02907592445263751,0.03369379699049133,-0.014207958387254043,-0.0026123453858376364,-0.05427680090875597,-0.02716488416078705,-0.02994599014428251
-0.0855844825838151,-0.06307097074012626,0.012736664470070394,-0.07589065604428467,-0.04119630916120492,0.09418509666156218,0.06634366273187875,0.00506700786180959,0.07959035387426334,0.0403390934922895
0.04501579061184158,-0.08366470317004414,0.017859585583282375,-0.08616349739011515,-0.020560094534597048,-0.03206781905854231,-0.002579338731144907,-0.08850651773349676,0.11122468556349273,-0.017169436622965183
0.06294960615692091,0.0029184581942243533,0.01338255388309404,-0.06785002641679011,-0.024853077359180253,-0.057464895781452655,-0.013859006978377999,-0.23352878677207894,0.19383267057862108,-0.09549651345436566
0.07252821739551371,0.1573281357477679,-0.03676758729208918,-0.08368033375785701,-0.052727029667496636,0.010235297281555207,0.06601417039662888,-0.3438060803769542,0.15314351985814997,-0.04812090585762031
0.06372139300611135,0.25982835188801595,-0.03948621300491137,-0.04792936422744067,-0.1467034711254645,0.1367108207512783,0.1178050376572573,-0.5552715368023019,0.08874139934528898,-0.24121880491431322
0.14095431443274414,0.16286476034660421,-0.04465524215705855,0.1905270603497314,-0.07889482202623908,0.10673693295490624,0.019186296045254143,-0.5779926233751227,0.034998423250598355,-0.15649762346677154
0.20610939829151476,0.1156107616223643,0.07112706284422625,0.17854145768971175,0.06421898544796957,-0.0936764234850658,-0.11127389150936001,-0.4599832924260613,-0.010435223234374562,-0.17472231522844334
0.14846167055417758,0.13750605784599826,-0.027805497004351122,0.08366651437702155,0.06048469704052452,-0.031341582765764125,-0.1050568452059505,-0.3717559189358677,-0.046058615104430246,-0.1253080003561083
0.17481100610005454,0.10033276116294157,-0.039235875243169856,0.24852665369171825,0.0449338326896875,-0.05112160390737875,-0.15989499339657268,-0.16949096838960814,-0.17079829545033268,-0.20628992604773122
0.22872095999343764,-0.013847881114654924,-0.002206113200073317,0.0929169039039723,0.01602262614030441,-0.047368951247364316,-0.07011863702942107,-0.09558708747043117,-0.13370145379301393,-0.11026784757900865
0.1416737821220203,0.12400290599548836,-0.013616041312268711,0.05326581106518451,0.0676963179557209,-0.08423911123983491,0.008814550472578437,0.0380698435977459,-0.38716761587127513,-0.15239389733009717
-0.17515801652005114,0.27797968786189464,-0.20229235280872845,0.3821139608990215,-0.11339661548641924,0.18436330571516782,0.10650907887606777,-0.13665753731420122,-0.2774517348598083,-0.11672573113150293
-0.24700451855155142,0.3331487214081461,-0.40859223890369994,0.3592224099485323,-0.20934309924832287,0.12858163970165493,0.16164454931840241,-0.06664000558097245,0.1341087451087617,0.12843745286722938
-0.11119520210258578,0.21284431008815063,-0.5131394219437659,0.19399222198776683,-0.2758386040523956,-0.21178271706293386,0.05160046302432931,-0.04779771259094811,0.04534603237046178,0.12545824314578732
-0.08869101179083566,0.13891991099987872,-0.29480838975860385,-0.0010764665382313337,-0.25083329801765897,-0.40874823502917207,-0.12897559807620976,0.040553989006715634,-0.08938458334981594,-0.10791048218848691
-0.1888940187046506,0.15063330724860813,-0.28919459562089656,0.0980743110946609,-0.21133896507111172,-0.279112845072699,-0.12026796120988385,-0.08288801516271654,0.1187764323888705,-0.3235786055083308
-0.11378514741380183,-0.10396116251665426,-0.06598576107865463,0.11474098302260827,-0.15857041768279276,-0.12831932832041335,-0.01713162393040086,-0.022312360215231312,0.07060874818633396,-0.17657758294399892
-0.2935183830013629,0.0914081422878873,0.00040826919507959436,-0.058550191377513716,0.12631734921871454,-0.20945623683639686,-0.05885000416401958,0.006782036708719629,-0.03926033457681991,-0.12483728948162752
-0.26979784143273555,0.019757286757101863,0.014493983770650691,-0.033521139290998536,0.1365857674971512,-0.23350480025634604,0.05388334587896148,-0.025816051143196315,0.10193850542193467,-0.12642566149688822
-0.28594171435873167,0.08624298333235962,0.08036428262906778,-0.07339106137101842,-0.020407709919293842,-0.21687774763869178,0.04679696700051412,-0.1167913241479894,0.12597321698148564,0.012090328417863195
-0.23561853329828977,-0.04577975299721635,0.033607790314269935,-0.06528781597375635,-0.0017219829048707382,-0.18563592444264293,0.06253411692233443,-0.18944798680409353,0.22707298515531107,-0.019847132889166227
-0.3655221803027086,0.15935286719303582,0.2362837742594324,-0.11630584948886709,-0.10085530596058849,-0.09567712520083024,0.08445395767547326,-0.16188492881183553,0.045391266065826295,0.030842630010680088
-0.21442416547570547,0.11585765378934493,0.08112208721346624,-0.024410787249050766,0.010181155562920723,0.04263503008250356,0.051773070803228516,-0.08426966710386805,-0.025311287134299497,0.09120604096281074
0.03730549862812917,0.08164109954474073,-0.12343190089000705,-0.09238563393247304,0.11245768160836324,0.07811014810522515,0.015210378082418898,0.02972407376264082,0.023771801253552983,0.0402776761772253
0.026514824998303037,-0.04783761538288583,-0.10597839094218786,-0.13032605895988772,0.03520524013117579,0.08060499264431133,0.0073766353620184875,-0.012850865879552219,0.018847902696359345,0.014515313637193515
-0.03057867018937911,-0.012098009475298549,-0.02801953483220277,0.00048556193065721646,-0.008808725232094614,-0.055843286117321554,0.030772517776343475,-0.005185639068493575,0.045662047327018854,0.009800302668188538
0.02076042765334084,-0.02372508130414598,-0.010103684090103086,0.023812828350904737,-0.020288895251385747,-0.05102183992737211,-0.014583211741532561,-0.02099317084548973,0.011389929945308077,-0.0023000622271729756
0.027985971051961024,-0.029847516845982507,0.006865586751718444,0.019184287928752698,-0.03729336859356577,0.07257291627803217,0.008625936799801538,0.027819290755004833,0.023161680936955777,-0.012564910268735106
0.07369546578118236,-0.025811558389528505,-0.021134610817105156,0.0019973690369210983,-0.015036620659234964,0.039952607125804805,0.03212414973676531,-0.01780546631024219,0.04192636822544034,-0.03344880309602659
-0.07145528313767051,-0.005646756927174598,-0.0027983554821362153,-0.05671642773857405,0.07591808229453587,-0.01956479303662881,0.0005007636909941193,-0.0019754362418498506,0.05292794535869948,-0.07884940898366893
0.20207887838506794,0.01864184313735432,-0.035752722178803056,-0.038092999863587045,-0.04706386393530745,0.006684737730104195,0.013381272577554268,-0.26163720961562165,0.23945686751985437,-0.18951734899882913
0.23172465495551337,0.0028682148761659857,-0.0069487801995957235,0.043314576213091135,-0.02545005914562483,-0.012755441959346414,0.06054435861007647,-0.4085142139494746,0.15921306351361356,-0.19766369852025692
0.19937822210743308,0.18121949599808768,0.1015110072856375,0.04750794101691441,-0.035470183876975224,-0.016019170010556662,0.10081724866384839,-0.5365442702093114,0.011957329282937622,-0.17538686984343924
0.1961738147831264,0.2421757632175613,0.1288288075268304,0.14085616611288637,0.03114940457072516,-0.019935775919220307,-0.035010479180292424,-0.4104288905567279,-0.08902541073956437,-0.10386889026743606
0.020449580394259148,0.05004422914772162,0.06540827757487283,0.09396449609513166,0.20499779535085663,0.016484400348520743,-9.070822842618492e-05,-0.1904326411651936,-0.1932724330037747,-0.10784345062861342
0.006694658632472299,0.0409315158075645,0.05115938157270955,0.1941799628891228,0.20235428228467764,0.005108968777240204,-0.05220764523325903,-0.08950863882426387,-0.3416334153145707,-0.1487358554624864
0.025186412680855346,0.1439691501388713,0.04460707084774235,0.053374772092726716,0.06874828450133505,-0.00558594129512048,-0.014468371651488211,-0.11995626828802207,-0.1610001623430422,-0.21316891475377528
0.24944269314218337,0.15110430515636086,-0.11227215318420264,0.0939579451383615,0.1641150524574137,-0.09292333187987892,-0.045625122552522594,-0.08981349307293812,-0.3473077373952131,-0.1409626885034289
-0.014997594687627352,0.3463239624172883,-0.14943213473065362,0.1381146335779355,0.07800263249208846,0.0538121928912467,-0.014044258804957632,-0.08945556317092278,-0.3664519234823483,0.03876140268621617
-0.352739094748737,0.27007238634889635,-0.1971657899153618,0.2919964202220035,0.10539840414975102,0.3774965958240917,0.08385165972727261,0.09585347078013094,-0.0943098636006303,0.18792065250245346
-0.04091273979683116,0.09933552329553708,-0.3039248173029063,0.3836769066774432,-0.01746851921251434,0.135734005729552,0.20147895268228602,0.18980670697183327,0.09488373295928723,0.24299258804592072
-0.03444452447595498,0.4631386479667537,-0.2532778414146731,0.2470277632732051,-0.11930544717641905,-0.19160339895108586,0.05029203972051744,0.03436357069788212,0.14645606432874292,0.21763407516584127
-0.17258393161469338,0.22274415708909143,-0.19976491045101794,0.0322341413275812,-0.18607818490094494,-0.3958266227402324,-0.0623900679553943,0.07069711723638858,0.19665101850952926,-0.0702050334516344
-0.04430225982048145,-0.1395705609208697,-0.2561303480901206,0.3230218339745416,-0.1092105543034778,-0.3100476696488963,-0.07646030377672974,0.04937293221403311,0.053644757410774506,0.01837104123410968
-0.02271775367459025,-0.0137360315820623,-0.020477830350151736,0.1348651262754447,0.04807594442847502,-0.10525100157179954,-0.2094765662689621,0.0910292545140791,0.06612342440548326,-0.04326431133718571
-0.0074676160865739675,0.3489913316505896,-0.13488502565257676,0.04570462946868744,0.08426642542312757,-0.1029371906279305,-0.21422334553591205,0.005455277246060167,0.008432196562490044,-0.018754578643064315
0.006870788755973781,0.1110472324772574,-0.08955281974153524,0.025826852293921274,0.032878176760906465,-0.10234897236503052,-0.09877694892786867,0.11683003907075906,0.033832681317180854,0.11305164993602654
-0.11854349200108602,0.07185954165609147,0.04035442027316082,-0.05201659669027053,-0.002909509984067747,-0.3091804018443765,0.034866183203462575,-0.07451929054738453,0.16372773296449988,0.022585442732903114
-0.2558731463238021,0.05524786745955731,0.16645428177416596,-0.1559604863649286,-0.021863442698394523,-0.08509854653024808,-0.014004015740755812,-0.31035729457589184,0.21640198693220075,0.0457878556046936
-0.21763424742091392,0.04804637166495354,0.15809320126725357,-0.1847642668049262,-0.03013144872634182,-0.07152706957678301,0.06840460423277715,-0.15011720173859006,0.001296541504806006,0.1373779597634198
-0.1300610462153436,-0.04393072457534302,0.13605574266946902,-0.2040966482237324,0.09896928424893542,-0.0293190373146868,0.0351724894824002,-0.021639783814125093,0.05281107149451354,0.1345934669868945
-0.023313529035830134,-0.04519921256730324,-0.13664294939341148,-0.1699770128179337,0.07007985418103797,0.0017621091484005414,-0.007177489460319849,0.02649704220028607,-0.014158064665301036,0.11628722565429349
-0.022308910791519025,-0.020949351285616244,-0.08734733775728899,-0.15252776974263363,0.0657836676879756,-0.008047037747835063,0.024314829477628662,0.04860919266972762,-0.003674927584733316,-0.0008710942265352553
0.08224492019765801,-0.025687537642758294,0.018729406866102097,-0.016849439963759927,-0.04451288355146799,0.02353747906577283,-0.02502889681321752,0.007026335598025233,-0.025047438840683355,-0.00234471400003929
-0.0048063954492622045,-0.019290523644904724,0.05611378555080627,0.039445872459934785,-0.010892420966887764,-0.020035430144260194,-0.011401292151825228,-0.018383586773256442,-0.03320101982470525,0.013621983068322335
-0.011512452009990681,0.06923477150879727,-0.08231175619093388,-0.020631267120939906,-0.02390606955573613,0.05083039967859198,0.0864115786856116,-0.022152701524852405,-0.013158498725555036,-0.04012869472532927
0.06961993697543697,0.015070962452353402,0.016198198491116728,0.039376372208703984,0.06281397096058787,0.010658185743566676,0.03569305447938439,0.00867543092224145,0.03599831670974967,0.01016695613168984
0.021190069677279193,0.02318211462041917,0.07172346931725915,-0.0017900065413308883,-0.005216360419345808,0.036322457886706024,-0.00421211246422736,-0.014256627494732561,-0.02668769865317997,0.011232161257816268
0.13741000575044512,0.05753099157714961,-0.11276308038833775,0.038638915751357146,0.035191764253655396,0.05069353056273886,0.03370085762919664,-0.13353531897673263,-0.008271581510219596,-0.08683666974352947
0.2242806028080704,-0.03988034265096273,0.1997045301422203,0.07541045977655081,-0.04818505006270756,-0.16091373501427791,0.0429978526607482,-0.30183517586389336,-0.04383275130087796,-0.17293779612791116
0.13541391714345993,0.022723879622159524,0.326994190095508,-0.005558842679773753,0.02738172243469505,-0.1555194053209669,0.1444078302925923,-0.2633876524967393,0.05103141526465934,-0.060973097760726944
0.07210514607841761,0.005514141504144949,0.33880777891095565,-0.07109505378745039,0.19880421434202297,-0.2092431103247143,-0.016215387536627008,-0.14657821443122077,-0.19629718550208747,0.009675659255006918
0.1097641812538538,-0.05273827300953576,0.21735243750191108,0.058087701087251344,0.03134283862970522,-0.0726273995070011,-0.07338588728280497,-0.08184819285820355,-0.16957865685277573,-0.20902088061550306
0.104756752188904,-0.035428767932541676,-0.037883816197237984,0.18886483837874457,0.041421403485144566,0.05508615739279264,-0.04977907433632432,0.10648660414338854,-0.23150076204249323,-0.1949238058201521
0.13424702187421633,-0.021304116426019624,0.03326745089556391,0.06681910478084616,-0.0520529819108285,0.07836456963596113,-0.12239385145346178,-0.04441605939532245,-0.2339504512841241,-0.07443468827310545
0.05261628137726109,0.1927171118636978,0.0867426444419631,0.11032210131993875,0.11431005528374215,-0.09475987321488831,-0.01888685585899942,-0.1689619031379049,-0.19782388924273223,0.14504580283850046
-0.021166149478742555,0.3260268950559908,0.15092034279992472,0.15364440636121077,0.12178889558048009,0.09266275002878172,0.03241864336277833,-0.07004076019113739,-0.1895163263790694,0.2651123241041429
-0.22637499509587403,0.0985332825178298,-0.08927461662809018,0.23600684628967547,0.1884419295581188,0.18345988220155285,0.08604694445483137,0.050480337903574674,0.06295508453979068,0.29558225900722856
-0.021029260871799398,0.321945761310779,-0.1525136650939087,0.38096116332548907,-0.014198320569158663,-0.1200744996715347,0.06630735446188771,0.17527346767710258,0.21216314202539333,0.39134976305141234
0.03450883519890518,0.37355711702613154,-0.1689784662957141,0.2057801923301227,-0.09435798336580169,-0.2964441609072501,-0.042298076910737836,0.19915755884801725,0.009369892063952676,0.2603649614301486
0.023905575021196765,0.3599496857590002,-0.16929900533124007,0.18957245654935131,-0.19653402558163346,-0.3318254459226558,-0.07020796276314759,0.05035593627173853,0.08748670239907366,0.013026384577867665
0.03224369603337724,0.11761994115363758,-0.1341173601427005,0.2581985238739196,0.12537661868793348,-0.1806866574664258,-0.0896039943539884,-0.04757593203597302,-0.039204427214029974,0.04510718568900231
0.1495441009306205,0.049194761242126454,-0.10259066231515784,0.30822149763534384,0.05485030331867164,-0.19338427393746763,-0.22225391481245885,0.11739431229801824,0.046033721309722136,-0.15604986800066176
0.2534050776534064,0.10332721883818323,0.04903048558902688,0.10643285474718299,0.07210670220695287,-0.2330473492459034,-0.18335011290267272,0.07813930116188282,0.13609669757337162,-0.05024110972358092
0.24854590600947454,-0.03200287040337176,0.13068524932831116,-0.02243043931320655,-0.08450294519991763,-0.21376558136435184,-0.16351158334371377,0.0868014944366082,0.036029989581464826,-0.05380103933876674
0.0524757981978737,0.04159875011024161,0.07960871452860878,-0.019800181253146865,-0.10580125616794805,-0.19110889996849348,-0.10154512024039425,0.10541841073196874,0.004282999928831985,-0.1350539297151444
0.08024143123224906,0.053292167053512626,0.2448718970349775,-0.10094772516649153,-0.18638337130454474,-0.11967364167488886,-0.008062831944881091,-0.1478056074094008,0.040275705322260505,-0.08329622610267412
0.026219077810617674,-0.2725139582251086,0.2100465779879306,-0.32634888836948045,-0.07487594032772918,-0.009816236372948999,0.0320962046135849,-0.14821912494604003,0.08481324718294357,0.02012032802797674
-0.03356489098868244,-0.11007516768118895,0.1097980975760375,-0.3133605493781982,-0.07489170213130875,0.03647448280302186,-0.0004353090003888235,0.04502969299510701,-0.02336861944056832,0.0732144735906831
0.01810093301049056,-0.06417032625691076,0.017752857004938158,-0.09052828624282795,0.06607018751993882,-0.031676870702280924,-0.035907895855604735,0.09437986520409293,0.043455179947910594,0.10353733036340652
-0.023556413890743918,-0.019039772008180435,-0.08112561748177277,0.00713585069496834,0.026233821350043398,-0.02837804010427535,-0.04725098251493971,0.052592831503867746,-0.00997010646156175,0.015386062922192304
0.03794790944736784,-0.09540540908651356,0.01935885588036537,0.012109619739170515,0.018872157145671694,0.007575667392559075,-0.004088124106519503,0.014280957905805861,0.02273169208902349,-0.02245850488233747
-0.03624674994491955,-0.023759174601327742,-0.029132965734265583,0.05619018202217633,-0.041480606149769325,-0.008540708672068839,-0.0033382546405913488,0.03731693300000244,-0.010186209124899686,0.017724115408763425
0.007952773539908944,-0.027912340213154623,0.035991335566304065,0.06929772051493574,0.00913408729909388,0.009770870646524288,-0.030125028327854086,0.026856569511700814,-0.0060716542487532586,-0.02369306618491987
-0.05974383735784768,-0.030630664217486704,0.09566993463081913,-0.04205699288702318,-0.006736653584068163,-0.03620470266489263,-0.019522219495186965,-0.020634736870971403,-0.011561498284384499,-0.04651053186960521
-0.04925686431917724,0.018916751626975096,-0.025523587598057,-0.014405602531215086,0.0034355138694191554,0.03319283581927017,0.008348495018030568,-0.023662416889728994,-0.05821884003137672,0.0038989535740603593
-0.029684343233311324,0.014866311455517015,-0.13625809711693637,-0.023501150787928457,0.08952868446914797,0.10241123518225077,0.016410500114513803,-0.0103548333714696,-0.09671496774737223,-0.07481035280569194
0.13301808879791188,-0.18743392654586363,0.20747889578855774,-0.11916158657883348,0.13564163607485083,-0.06374085464670254,-0.03290842334813908,-0.023758757131470794,-0.13797526081989334,0.0033326527396081063
0.1510619169415162,-0.09531744016917816,0.2456505064278998,-0.26365669990354984,0.1387257469984054,-0.23041542643295362,0.028421679371863646,0.03398223734644673,-0.23326210354297375,0.10922719857369265
0.023804888564680438,0.003342488284934911,0.36734041832147196,-0.13481724803745224,0.1220696268442939,-0.1902190319836822,-0.05972069970051437,-0.1006401952179412,-0.18119280473897315,-0.02950380092827595
0.03937953751281842,-0.020796993209217948,0.36209455013106034,-0.07276394178064162,0.019036407627381048,-0.061053325184273206,-0.10693367051202124,-0.2167077563009319,-0.10955367257384672,-0.0311009536541123
0.025069976042600535,0.02128541125610718,0.16585804170667492,0.06803364690098485,0.1219043239413601,0.03720580292324803,-0.07440702878790413,0.026197869256496045,-0.30238382084348614,0.14580188312545297
-0.0678967666906352,-0.020499249668754584,0.2481983450005267,0.140090722221301,-0.035743145774669874,0.05891493287753266,-0.10790398036855282,-0.03218939055031402,-0.057601111952036765,-0.01889491254097532
0.08621845743202963,0.09140771662951676,0.07376932606923892,0.19941406927272393,-0.007581178131545559,0.12295851651013077,-0.050817430327732276,0.12392253299552988,-0.07873504129972048,0.2193988969448137
-0.02643075951030628,0.34510416680314593,0.07970872367597621,0.20331195002104369,0.03624231756211783,0.21250627887668563,-0.01563687515267823,0.10245699776107371,-0.08589774685735041,0.3250442597310644
-0.13207031604385835,0.36967506362998265,-0.03346693867045154,0.24634491753412574,0.03662259067740336,0.20989370377891445,-0.07541832745191093,0.1938451505979998,-0.025127377988789376,0.4471793298354565
0.037702597177058664,0.30962259548336396,-0.2174372338407283,0.2981556474211247,-0.046057482956919894,0.16767535213647447,0.06236975144275297,0.2617550595834909,-0.0181457185996681,0.5413859652442167
0.03698146421775253,0.19563058969723277,-0.1744534541956101,0.2605145711280244,-0.0006038607703801005,-0.15283809616218513,0.06568551869906963,0.12819238166183866,-0.04661285849687465,0.2666512360801016
-0.05427234574231516,0.3555506008750783,-0.15890705526124604,0.15292701912000672,-0.035481896239010186,-0.1650511174986659,0.02619492180975763,0.04341188518861799,0.0419226405127383,0.060678407074645814
0.2634432867526938,0.13014764528284506,-0.0010395628569982466,0.04772555364206138,-0.03864300416324861,-0.2277886400304706,-0.1086123148903484,0.009368258489977669,0.23512494033818757,-0.03475961465824225
0.2134381695359087,0.11089661417708892,0.09782738590015155,0.07908632515784368,-0.07551254093039632,-0.12606842516058017,-0.14830378373798098,0.03117786885327432,0.19252241712436727,-0.13280646341389427
0.3146941428617209,0.005584701868615853,0.16638610250916577,-0.07681457723290594,-0.028481335362175147,-0.1813993152057349,-0.1441658780651152,0.09703058707367516,0.019493629356219292,-0.02625663428706096
0.286767845762171,-0.07222760439044838,0.24880028291729006,0.044413797124093574,-0.13904927001964007,-0.16106744918440857,-0.08230859717314176,0.0904293388367082,-0.006429747556308541,-0.2682874033673929
0.2179772119461631,-0.13743652335245687,0.11161698960925978,-0.03056803865500912,-0.15076660149636412,-0.20408679304251318,-0.058268169293719675,0.2585902938125192,0.055150081557097115,-0.200789732035098
0.1987128998042983,-0.10978430676252526,0.0954937056792915,-0.061427895942549667,-0.09619340251887211,-0.15948774037986557,0.023740477861516295,-0.0005673272969915429,-0.023899669751946857,-0.1904262541781341
0.03768974018169653,-0.1271094004819539,0.14565900436438825,-0.2293125495547765,-0.0834588203071025,0.09185542890043343,0.0001477818576588019,-0.11445977222840995,-0.1162066121584374,-0.008204384952764439
-0.08652972215511415,-0.12227044113263343,0.021681870199915472,-0.2752031843373213,0.07067470116200873,0.20279289680285578,0.020026509495441595,0.1195461215916681,-0.07817270017827109,0.1259030157399198
-0.06656625454781841,-0.1444038643440859,-0.02431450719076673,-0.1409341265719311,0.093003375468114,0.0577568465689495,-0.057595737977524424,0.05883965968757225,0.0378710659715297,0.2386228106210152
-0.0050075160825590855,-0.019267059341131015,-0.039011582269748143,-0.05109955612554242,0.11153905966587319,0.04093392354464731,-0.0009013693616769547,0.050244365873122955,0.028735706337928022,0.08517467234423041
0.0038707985018430697,0.08918240098628694,0.027488531859224855,-0.03525881500907783,-0.034387122478125316,-0.023536373264517477,0.0034486133622717574,-0.005938591545458778,0.011781168705987364,-0.06168372748552963
-0.044782968429469966,-0.014366125986660276,-0.06722024021873825,0.032910892781472384,0.018735194027575234,-0.03089284254252361,0.07816725529574285,0.011145191577192648,0.01613918402817046,-0.0001754135841532545
-0.033465842072126245,0.02369287022743731,0.004573388211794768,0.03429999456611876,0.023514463076954723,0.03271890173131599,-0.054530082457340624,0.0063678651505204055,-0.0063924802935980286,0.05575538060157773
-0.01394325890112242,0.04576563478651539,-0.029564613401483277,0.008284661129763315,0.011301958406993244,0.040163136274189264,-0.00695547982184384,-0.0013552165061071683,0.024998188771859244,-0.04030417754008233
-0.1070397368202378,0.019874339027484988,-0.06127766998460035,-0.0735987690207604,0.011947902713616246,0.08003730235358696,0.027652711614527415,0.05703457470139633,-0.0016159232720442387,-0.05994495442850051
0.02364447891473911,-0.09688269270823033,-0.06678352878306468,-0.07726545604067885,-0.02045219603718011,0.09910076880057964,0.011874654013668478,0.1422148250092185,-0.0946523019819487,0.016207168595330577
-0.06018012899136948,-0.18542577730763185,0.1848097373502751,-0.281297110167545,0.11924502633277953,0.012999992311605438,-0.010302534985331324,0.13785729703734947,-0.13280030047533462,0.09394268905493419
0.07371778094350963,-0.07277817428339439,0.2966449672943406,-0.34092928978093856,0.10043031949512386,-0.17560182318819384,0.03492979896605928,0.15290902710753715,-0.14878316374902414,0.05952437124960524
0.09047290339016759,0.06201369299930644,0.34268807850461547,-0.2575835590471779,0.19901128845963512,-0.28691532187874225,0.014002279807428257,-0.16912260176754207,-0.22512237601294438,0.022446232046805074
0.04166150927831048,0.07764714599933097,0.22377065376903554,-0.1009562704147643,0.265555536535874,-0.18123081446400677,-0.0337868546361032,-0.24442445420429837,-0.25908431553782907,0.03077610074207
-0.1105743372542455,-0.07893109001226893,0.27255652098817607,-0.05612968612046435,0.07167136689676486,-0.031335823227987294,-0.040642600333842996,-0.11450722499399872,-0.15733176862178302,0.10538025636341876
0.027910483877547507,-0.07485707765623827,0.3091575952189465,0.14041616780804297,0.09639736801634742,-0.07573176722576719,-0.133452511671292,-0.08388086779874551,0.09097658668535478,0.17585230448938935
-0.13373027158115497,0.2634430485088508,0.44877286596341914,0.23937108484246633,0.0002896391988435967,0.012294817824462899,-0.0460760737509739,0.06065814074231243,-0.010071071912303787,0.19602320051284838
-0.06284186200851719,0.36294590753214506,0.15981372479602843,0.13427979439322033,0.1823761841506611,0.04513761254411144,0.0131408271732378,0.3006807743894661,0.09560174664483939,0.2972215292402567
-0.03268333809014107,0.28259544739100617,0.021978459416022052,0.26811684290469473,0.13699238675027764,0.02162263419435805,0.03576907867901401,0.2429742723032221,0.023051453685836092,0.4766716039546874
0.10877916079777386,0.14653114476045037,-0.0019304508005027702,0.2242111677156265,-0.03420785587636137,-0.015464626200749206,0.08486080155798359,0.10885285994039513,-0.07256763661739181,0.6426125462520103
0.24779998768213163,0.1872029236114261,-0.03560856577904129,0.13961648062955495,0.086217618593863,-0.16238801251123477,-0.04012904951215842,-0.0075630039763195205,-0.011264718662229287,0.29453592127524375
0.08655272630533783,0.26067031486131453,0.04927010159900088,0.18795181598195923,0.18931693589245943,-0.1482826605920797,-0.02004513083863178,-0.049468283343511374,0.07983022899985663,0.18795285830203462
0.31170716125143305,0.10678127769674645,0.12496074334382128,0.1051418568394748,0.18877746728168843,-0.1467432130785915,-0.04402884909632109,0.048454100673920066,0.008255502546506827,-0.04195811130720162
0.12978513034619174,-0.030946625588406287,0.24241161031056419,0.10132442566896843,-0.053221409599447746,-0.16583855997867478,-0.12913386470866012,0.23529486529666568,-0.10753729561476232,-0.05917377957822987
0.20575398684603335,-0.12736178563073805,0.2103337390069546,-0.0730258416408073,0.015521509662841626,-0.1560743029731267,-0.06140309779764176,0.20647272121932433,-0.17944307666980966,-0.10544980951042354
0.22989220308357808,-0.07276077179240702,0.1625924616241932,-0.051096207878448284,0.024499526831921456,-0.09153524033995271,-0.08106317221319323,0.194716693655789,-0.14282338853081172,-0.10634177871078933
0.15592364495083894,-0.14635455696823058,0.19923428098392396,-0.026338870101317635,-0.12830391624615614,0.0805410372146077,0.018471287436666952,0.1815555676539919,-0.15376752455637413,-0.08937740470089306
0.10108965555720378,-0.12345524699807794,0.24776888619290516,-0.02871924215875036,-0.12475242303900222,-0.07077130411143043,-0.0032780932928018216,0.1781596015459247,-0.15875407276599945,-0.06303476377000788
-0.06740430801476983,-0.09906511379735672,0.07138576094056968,-0.22671289514176793,0.06534105311851646,0.12199092874000259,0.009126679513271606,0.12585232492556547,-0.1320505694621969,0.011254319618400356
-0.17781473859795754,-0.17648388786243802,-0.053300109139304074,-0.27862974641055155,0.08348163824065487,0.14255080520401417,-0.012360291724861656,0.17570132064767002,-0.15527896958621246,0.20162173221955051
-0.16459539100605633,-0.12988910146106886,-0.01793996022717577,-0.2561311468425852,0.12760489369182712,0.0640443354078326,-0.005167410337365103,0.1319892203884232,0.0721250010796395,0.24766202616873859
-0.09139021387284924,-0.0790979967095068,-0.029210029801787572,-0.10928536401772265,0.08169955307907517,-0.018839094122045343,0.04946176150921984,-0.029267033151235244,0.04403873622189787,0.06527293633313547
-0.055243768978670824,0.06271046139419557,0.010063166300134575,-0.014752387066590439,-0.000511369666275993,0.0071854921636054815,0.025062998703247984,-0.04112557869640436,0.0023331656709092603,-0.0070382003843236715
0.014507277574114916,0.04858256737535455,0.09720545019008942,-0.04304199102315832,-0.004137523139015708,-0.027359768452936473,0.038960114313669324,0.03207061221065213,0.021526388237318252,0.021216870150083073
0.04164102064413098,-0.04495460045932625,-0.01212730802876512,-0.0228189941704813,-0.022227730384239898,0.07691984327133854,0.018733972469290042,0.02136975447871179,-0.005008231229992956,-0.03517584705607658
-0.038387015875707274,-0.01853499788420158,-0.04615398524057345,-0.029813633130024466,-0.008383736778104875,0.0008046176696199361,-0.04579302575448593,0.029373617021445534,0.0013591930461317044,0.01277044653017386
-0.10224208999973121,0.012571472198853814,-0.05286179070865255,-0.02396193328547016,0.009423047875900056,0.026563878068216317,-0.020972054344841496,0.10334039956267324,-0.022433233791029048,-0.03796293385927009
-0.059904905242839444,-0.10269909213260506,-0.12872345806938715,-0.11248550511573509,0.07379235554413881,-0.005107418653608916,-0.10813880689466618,0.28846997676422326,-0.013102978127457959,-0.04148665046706711
-0.04925763703496848,-0.17122461757237034,0.10332220201028505,-0.26903375732411317,0.18298558197425877,0.0887140212592408,0.04752642590315015,0.2505011939993225,-0.15927069898054932,-0.0006362877160466676
