-0.18738568618909696,0.1459152162967511,-0.7154783589094825,0.5517108670270494,-0.3702627721059763,0.12995092451181184,0.2702804983492849,-0.05230980781849581,0.19080781974016894,-0.11361250578518663,0.3983980871604302,0.12073913372912316,0.2183848820005584,-0.35527876014522713,-0.19882272892006866,0.5928983867512542,0.011268554671031676,-0.32743344090762755,0.1754118275144535,0.1404131543959423,0.13816381014450643,0.25527566298921955,0.5880912055417643,-0.26441863778922864,-0.2011530922689648,0.46084077012692715,-0.6727286012959365,-0.04036144999951192,-0.5042719259499365,0.3862337498482275,-0.8130387006348679,-0.3713023733569848,-0.189080061933455,0.03718251497585093,0.10519467691558804,0.2731823122602826,-0.13189485915437482,0.3643118793620288,0.23463992010445925,0.24103687239670374,-0.78870091265737,-0.06846281947650283,-0.012184604544851313,0.15126972842888772,0.26049087417635486,-0.7197707434517412,0.4969846433167939,-0.3396830238028807,-0.3149759297232066,-0.15428888562513118,-0.64649696391436,-0.0788004024355295,-0.1931740516278568,-0.7000861326917057,-0.26351906023709315,0.506602842432876,0.23404974551511376,-0.11724634798018287,-0.26169498654358386,0.3582177217774475,0.6334817490460122,-0.2821242650696791,-0.6320535305941044,-0.44038046166190875,0.115005456406734,-0.6574525588299892,0.1836392487805596,0.5389512148321263,-0.0472763870297726,0.2555692611777216,0.7436602158172502,0.08478982021998326,0.10802646057443077,0.8789003317447032,0.2971344718824865,0.05972048420422221,0.2866666359855174,0.004588194292628941,-0.5745327118783828,0.4171232072050699,-0.4338092401437854,-0.23920286138551952,0.44331428867303546,-0.19293250294070063,0.2878929795157222,-0.08548191411131824,0.16154248490609985,-0.6774253714008832,-0.22637863476325149,0.27897980087278856,0.08669969769967399,-0.01098126230000242,0.2731283366935323,-0.2872714060637127,-0.6495151819744422,0.4700963593015411,0.27173654148080767,0.5208659379129424,-0.11908214398940886,-0.8322396349699994
-0.3317235195039002,-0.577831927185062,0.11751656948026053,0.6536285923030393,-0.03165952619966428,0.1123522590336461,0.3077362056336517,-0.1280333955036522,0.4886410891463686,-0.022470102471303738,-0.18989296985118187,-0.22692616593513168,-0.023144889853343526,-0.3747052296181813,-0.09057514869798167,0.21203564968656144,0.6064537711114972,0.08360787371869717,-0.16666857156555395,0.3153136838075727,0.3442415165232874,-0.5390705616359633,-0.6661708104602935,-0.3661917460474701,-0.4414294595474661,-0.21368714308323938,-0.3605588053268467,-0.5018292248884709,-0.5876168953823737,0.0448161841444696,-0.3204048027460565,0.5564603470810746,-0.7045949133648367,-0.19174278264043668,0.24553296382756518,0.08598599402893191,0.21862744643084608,-0.25901198012460747,0.08285867578352867,-0.16042603759205085,0.26750745273927307,0.32558076598961005,0.7566937130181476,-0.2791742359113616,-0.1952586688630203,-0.3453545360164486,-0.2447766950358675,-0.041210570749960304,0.5938365463368067,0.30040555588895274,0.092568173438093,-0.46350633286948045,0.7063853866651638,0.17151388749662885,-0.35995985086494975,-0.17325524922858423,-0.489445989731364,0.507777244172594,-0.18093016547938764,-0.31369987174198055,0.304013395237373,0.19655734133957403,0.28225500861324415,-0.13051425177960504,0.09197975284776047,0.45319186186822513,-0.15282892529183995,0.26569230731559956,-0.5440163122115452,0.43732780912282015,0.3397902897932316,0.41143675494879955,-0.29361840481318874,0.22509802234111562,0.15971144915947802,0.5820965483821614,-0.2724242820613864,-0.41508669021555344,-0.7129504273256037,-0.35458402155475094,0.5318006866852967,-0.3056962545597491,0.6191905556931236,-0.21774261491736252,-0.9665436657343814,-0.02509737300205095,0.8300998767255393,-0.38636701857768907,0.4462064243774447,0.00812102733826095,0.5825429979884652,-0.3899834666841819,0.8116978375357483,-0.7215732427659767,-0.020685117237908574,-0.12675604202113394,-0.16785626494205402,-0.3884416314796419,0.17214257169745162,-0.39366115565336257
-0.35260940107298344,0.3894891391584327,0.18749081387104924,0.0867928840935855,-0.01746401561024474,-0.19297809753561598,-0.1962436203917229,0.12128260999900939,-0.9064972993539402,-0.08129953575855299,-0.616953591491197,-0.0644348745306132,-0.9451158178562953,0.3994298873108196,0.8106536754157092,-0.3357942497925977,0.15900612910798112,0.7621442111112108,-0.40432766063751263,0.3524627190367595,0.7163231638864764,-0.339502685248302,-0.7612244294612871,-0.7701966116663163,0.33065761813154665,0.2791214150342781,0.8518194338221746,-0.2271516153455211,0.35467554062452367,0.35317610757837037,0.4789737252821201,-0.16048899712520467,-0.2142762153989953,-0.2694784060718491,-0.28491650071791785,0.06992103914931573,-0.6907896465127245,-0.7296172977660939,0.6959149633193671,-0.37158197106120583,-0.012934789820330651,-0.017175622542805163,-0.19627450783232747,0.9528301826796183,0.6567033635025064,0.26776596402111197,-0.4200369171222363,0.21571713032172754,0.2689194305722767,-0.16427621619183627,0.4585833771736208,0.5202113315962492,0.184014104072914,0.6561399595532791,0.18327482329309164,-0.3207389221195792,-0.3234902952096885,0.377978782327773,-0.6409316252762002,0.33844529566210635,-0.30746088560396945,-0.6724250946521272,0.24783780951705928,-0.08868943598815986,0.364474200361168,0.2587912333398963,-0.5000493333295588,0.03054871744522946,0.536405385267002,0.4130757760480387,-0.18130237528406773,0.097496345334358,0.36557349528778027,-0.3672646255069389,0.5044793722079275,0.007068684878175329,-0.8771936267399156,-0.41933368883518407,0.29981362979514453,-0.5111341258193668,-0.02530219101249073,-0.08576014648204193,0.9641525939006672,-0.3679246421253488,-0.6295650371402131,0.20121253438469036,0.39164086483999644,0.01186699615711793,0.0742039330982027,0.353084309537345,-0.09159555670906613,0.32886212596898007,0.27208276657224395,-0.5914408125431865,-0.37006810347816177,0.20851099370437443,-0.19607118156981854,-0.02543909321127292,0.07142842662592194,-0.33041038911335385
-0.08479130478281384,0.6922340820313984,0.2341795119323799,0.07187880886258219,-0.12387988476056082,0.46561380608525504,-0.17053937335298597,-0.5250647922590478,-0.17587230641696938,0.26338272834998244,0.08917847559155424,0.3352812634021747,0.11841337820270377,0.10595397496629824,0.08243568231496239,0.3700949506177166,-0.5833222384240666,-0.4713379317711245,0.618090163088141,0.17793087581368008,0.48427176692704293,0.051690199704683935,0.004991871970805342,0.20099583204148533,0.41541911642092516,0.30809707464869757,-0.43875383061965856,-0.48797645398510814,0.3695822865413817,-0.20583716699481294,0.03904958522974053,0.16799293677104518,-0.4095483271592672,-0.22888281177974024,0.06201352333857218,0.1298419435208936,-0.054923986536002896,-0.7698465941610063,0.17673765119810908,0.30736913799806254,0.40200369514958684,-0.04470981702690384,-1.034258063053475,0.41537191816713936,-0.8356967409823322,-0.1257729599004277,-0.6162263068749148,0.1772296049363106,0.34993436093520275,-0.0567691305589408,0.006588841110821483,-0.11188457230895955,-0.16073259474700768,0.04969178934955648,-0.9467306296192681,-0.028460871077223237,-0.17990139416414055,-0.04525217442153825,-0.32228760960491953,-0.5263093623029595,0.10302589424054727,0.4371351200699322,0.43153934956499074,0.09444182696875367,-0.5409882868675445,0.25087924569530595,-0.23857729000831168,-0.6633872077762283,0.3072703207615216,-0.06020890036816405,-0.29977214421807313,-0.8100460244018197,-0.1852019307487655,-0.4432232586672534,-0.5047904860821728,-0.3005875950416672,0.40933832965716627,-0.402584824966952,0.6915770294610067,0.12479649308820658,-0.5971008638588561,0.3430406764312892,-0.08428683651873817,-0.0965637278731143,-0.21636999087628825,0.2788598091743448,-0.20203379797833546,0.3060657547810652,0.3436589441079428,-0.41559203029441943,0.1623200757228508,0.029878586217076227,0.30754628390085553,0.5577898081137388,-0.035617796052296855,0.0866173844099213,0.17665071116260436,0.2877887186689211,0.27525431546676277,-0.18194228014745364
-0.1102405904136814,0.6176955202716833,0.437998290465018,-0.4258539643166462,-1.4732986800683752,0.7685002513791318,0.383889415770032,-0.4269377926640108,0.32920953993925867,-0.2746208597646648,-0.5479747805079968,-0.881478176255063,-0.08020109569810478,0.38033781260236843,-0.018199333639588235,0.40241515237941394,-0.09736615769665673,-0.5186618724933136,-0.3771398518414441,0.5140000906216733,-0.25533151391241843,0.6541495908787989,-0.02774973295958523,-0.26176153560445153,-0.02059357884639147,0.08019932490092296,0.01839029186722385,-0.9224598838101113,-0.9327343574240385,-0.5367416279054069,-0.2310685662546551,-0.19578460072538276,0.3154398044765658,0.4640749804870268,-0.17904225566812343,0.5254232157926264,0.4647200436051251,0.5284835583398927,-0.3586687987202244,-0.21511971987263337,-0.7922170003116277,-0.3641461219252417,0.20462772685360023,-0.02081370535657566,0.284500711022286,-0.005295004428842336,0.3085197278159072,-0.1861571572264535,0.059433289266758026,-0.5624471520153207,0.43835539166369053,-0.0795010199614664,-0.5558983927165176,-0.32178576479837234,0.04509192757163137,0.29118982560046425,-0.7851576545174349,0.30503484125095637,0.03132095866908014,0.12003996719468463,-0.48265159638872024,0.237593093831649,0.49719880027654734,0.3478926347082764,-0.7073768882097644,0.02432547406105563,0.054315846677222265,-0.15527059799295148,0.4056852982640073,-0.11297180128697987,0.4136099822784983,0.14876560168403186,0.31125147399751657,-0.05279122636730658,-0.08954806517380423,0.08072619704238893,-0.2822446219605102,-0.16243989700963155,-0.13668078301765763,0.41612359791378956,0.05319972769308335,-0.22861880263873702,0.09903940542690279,-0.1713456641114204,0.04274561795525126,-0.3677862054909475,-0.2527902829618252,0.3036433099867845,0.26185413768478905,0.004164055702648387,0.10264270876855185,0.37043887257976577,-0.5630668094380941,-0.15642855702846728,0.33280616770964366,0.22719265119506019,0.6568818320231516,-0.5140414527911826,0.1939623819781189,0.09083378765922483
-0.22088750739877958,0.08457583272475869,0.1981307265493466,0.22489035901277976,0.2703619089768529,0.21031696205317238,0.2500875866241867,0.14750363831309168,0.6166309342768787,-0.09052348165339191,-0.254817063451405,0.1619629618729475,0.20645003858511501,0.39864844269325567,0.2095350084123966,-0.35490129854222313,-0.1963870942613344,-1.0120543604460381,-0.7918017486860575,-0.10415323910719396,-0.5132983674503449,0.5142560200260891,0.02260646817783193,0.290716495110925,-0.16292602508831333,0.13439741476272404,0.21242327325487562,0.21320750284593037,-0.30083759465215953,0.08136694519675147,-0.20597594747033224,0.3031090765140099,-0.5415527301371673,0.40290865478957977,-0.20209178891824883,0.3376364921117062,0.09217103225033625,-0.621565494273648,-0.09459774619853727,-0.11290072779928799,0.18483257967906258,-0.7626604044327876,-0.007589107059189995,0.40716185680837136,0.02665898721344506,-0.7250056544746488,-0.6162963857919529,-0.1336326476258302,-0.7209529757796808,-0.4013030467050728,0.20837164560311175,-0.879713780659797,-0.940949379111378,0.11303940579878,-0.3973396714401491,-0.49053339990154293,-0.2643800743579774,0.24799066328543537,-0.013383021559343239,0.9469760671223115,0.7703126430048396,0.25102862534600995,0.013217903613140273,0.5462977434054908,0.43983609852075756,0.1479342814178629,-0.1154754114913223,-0.643586444535128,0.6737691814336394,-0.03358022317979587,0.09803263214413564,0.5955712642079604,0.047569865208277294,0.001439108522751419,-0.03503324622600509,-0.5746774309241394,0.39987268418197636,0.19134856487028717,0.14705925784313087,0.0868527314868709,0.3133229189836206,-0.10938478538406655,0.329540485543848,-0.10029311139297872,-0.14720710227668357,0.5993960258169344,0.16343741393447353,-0.35271892783809733,-0.044868586724306075,-0.49622118092799383,0.609738453574529,-0.530512433591863,-0.18177785319269063,0.042049123675829345,-0.582394429708848,-0.0808473613565314,-0.7942363080387335,0.550936682305543,0.5400209948893709,-0.6253574464717531
-0.6845084721817126,0.013225129034974031,-0.3732326252393756,0.25937397543918067,-0.1387402184295459,-0.8964240879130004,-0.6020653283498669,-0.0014086841912827833,0.20753613751289826,-0.013057772504007616,-0.19925205778473232,-0.19943031399253722,0.3579179416865627,0.4721119931070464,0.014337684346678743,0.6133421800837848,0.5994909536089791,0.40297267506924617,0.025230655876883418,-0.23506509911168044,-0.3660747072005095,0.41814307684578994,0.005938737269959755,-0.12373442591804722,-1.203564930513691,-0.32401282367591716,-0.2295575915951141,0.2640268253032022,-0.2561549940079746,-0.8389168791580092,-0.6789668902625989,-0.6628525851076014,-0.18619646457259298,-0.19362265955163205,0.15116305568410146,-0.11208821716206842,0.9002682597899688,0.04393800381173495,0.1900886603866364,0.005689153198384733,-0.38181455097730266,-0.7465895760984649,-0.3664824054093115,0.2277367876144531,0.27332990499421933,0.12515818368489984,0.2816317923900104,0.19667008393514693,-0.1406316285546604,0.2792063015741997,0.38537638683502906,0.7596996434654533,0.1402392350194064,-0.14640827107169654,-0.33996208756656887,0.0668380048265256,0.3227215071498657,0.18033110882705788,0.09433438822405585,0.3155139902519793,-1.0038462650049278,-0.28051616363495857,0.7148195578823796,0.04256642269608744,-0.5354316906852601,-0.09124447392661485,-0.7527687785712184,0.30071232333683034,0.39041248785700083,0.13726379641388997,0.22635747366901038,-0.48795117975286895,-0.1007439748355185,0.32635031806110476,0.2906816712689154,-0.08246683055552477,-0.15213718089750597,-0.13718552125874323,-0.7471375971260907,0.01755031172661915,-0.49159519467486784,0.40658873473802526,0.25133984064190695,-0.025681061103936396,0.17924638106260102,-0.8214859318761676,-0.36104883449658115,0.7247762431875774,-0.05357592878216361,0.22072735692359752,0.49318447711248214,0.023774433662606384,1.1384348659500092,-0.7134026075850439,-0.3477081890773366,0.2583977352904296,0.2890426951759353,-0.2745650360094262,-0.1793480651816032,0.47800817303039433
-0.24315194285397237,-0.39903040663429895,-0.492457630932457,-0.16412699080504445,0.22368994405150738,-0.14014221945771088,-0.3987056682925621,0.7472794121161185,-0.47365847033497444,0.2491135070635846,-0.04607573550697647,0.8860703437123445,0.04184895421095421,0.24077742562134138,-0.2574615878684445,-0.18330300223248422,0.4371192020298053,0.15888771358360612,0.7877171433957161,0.13036836566134424,-0.43340961492355035,0.20029414883054975,-0.07214840359472126,0.5532961811043317,0.2441666748155901,-0.2588802722751836,0.0608786815926251,0.2695036839575409,0.21995052385802083,0.08139502624980126,0.7209471251207593,-0.12264391129204075,-0.3077506657899542,0.23549016177216678,0.33084612244800465,0.12416605470868074,0.101456702701602,-0.11963856338462132,0.17904615829514492,-0.510604932665618,-0.08013059028150167,-0.3495455756857547,-0.5662967181730871,-0.7853139388573327,0.2467291608123506,-0.05399407204363375,0.12038397870655236,-0.47604124070689696,-0.13839231611643518,0.5752585594387475,0.47838018217094574,-0.14935108050815202,0.19430358385543087,-1.1149954757284148,0.23145957371537168,0.5222128130362025,0.5205915491681711,0.729766346253031,0.39236986770399285,-0.18510028669094206,-0.16826178160812158,0.38575645597900826,-0.6197648825830032,0.4753027155462805,0.17478981061984863,0.4573585617932327,0.07588010026500529,-0.03640357360174572,0.1697400853919046,0.3880658374040817,-0.2071771126542889,0.3306624191463535,0.2562821889659561,-0.5758594665780347,-0.023427613230990123,0.49206084415395196,0.24264807066004088,0.7053952448608655,0.04868917315306851,-0.3667347802438604,-0.21023966701399738,-0.3253334184177649,0.04846579835648468,-0.22429651499665418,-1.3312500816517336,0.1119866675910739,-0.03429652277871206,-0.025134864189994017,0.48034655010403954,0.1386683062443706,-0.4348409601266569,-0.3142614248333691,-0.10614929168172474,-0.4923388897420758,0.18997302331450225,-0.4137159247412272,-0.3596912220982549,-0.41523149809010274,0.04198352402355572,0.23489909948269408
-0.3524148744920648,0.4035453844523016,0.2295201853720003,0.06260141456816239,-0.02668331118552219,-0.5558773808215138,-1.016334387920393,-0.30861046318847063,-0.5869244633079505,-0.5019518094519775,0.02961224108945453,0.2899816378926383,-0.29219716682061003,-0.04017321127690596,-0.5556514499169323,-0.3710648984057129,0.38621493818047853,0.4638189603240331,0.21534528129991068,-0.012705838764351567,-0.3801775253685106,-0.31714437126165546,-0.6212444628058263,-0.811039053755457,0.08341692540537242,0.42772824672111837,0.05387350664833412,0.1946508358638093,-0.48731496130928403,0.6901114844688936,0.6487705888057093,0.1992559145233209,-0.22328052236809004,-0.3841142028882947,-0.25742498104954453,0.1267828398113763,0.3659460408544106,0.06557294120120852,-0.03396227453419573,0.6368892229378204,-0.6857237156613051,-0.264954606167268,-0.1569833269351161,-0.16495183091484147,0.222581031816128,0.3238031066935921,0.5672836194621641,-1.0131976647896868,0.6296202280156428,-0.4856515890591161,0.4043655036427561,0.29683051701108504,-0.23399367017779246,0.19791342278580049,-0.06558277547729349,-0.019365159164034553,0.004909046229273144,-0.046961266525424206,-0.4357547092539531,-0.5720205292178866,-0.09057011189539059,0.2487966202878688,-0.42956124904795745,-0.28604222836947085,0.25619697029062505,0.5036667660137447,0.2176128905008771,-0.7103867336817008,-0.08421534085650488,0.222051046041351,0.36803821492855693,0.4788082044467208,0.49327856835858663,-0.24954281893204705,0.8432516326124019,-0.21421688515276513,0.24227320754298598,-0.23039945051618105,-0.2675472489833138,0.3578267440633086,-0.29872215476911657,0.4335214457881235,0.09235815465669221,0.03518211503458497,-0.6121744121156916,0.3071764593847727,0.39027181081656603,-0.1360688165788168,0.2282458057767571,0.45024930513000216,-0.034330408394748685,-0.37548348903386203,0.1205785941419483,-0.19774683820410224,-0.653234827765166,-0.3712806142662142,-0.09943920193463755,-0.17945195336414105,-0.5023968026926654,0.128907630007881
-0.07646429482258518,-0.31338265800895737,-0.5511167833726268,0.09299655650875673,-0.46115239665572005,-0.744323181652844,0.11768343938697293,0.42651377744155256,0.282152986734868,-0.10090313692671049,0.43631390643788204,0.3575738037891883,0.33567389531576075,-0.3049751524960049,0.5522196335040241,0.20786485746351477,0.9012020328325533,-1.1146763591282205,-0.14552327888678748,0.11779606266133844,-0.14370751154411582,-0.9770536145589254,-0.5403712400786461,0.7440359166807701,0.01971579967066784,-0.7931287199911877,0.14988207883548238,-0.7192903683997015,0.08859123652365777,0.012896818351348684,-0.5878599669791611,-0.09619599878583313,0.3930342172754335,-0.48437029633349077,-0.24387803008020692,-0.7176084225178376,-0.01668809809542288,0.6950822407226519,0.20700780169293864,-0.957509479003216,-0.3760402246743895,0.4763750985714586,0.34552458004288433,-0.5046529606194676,-0.5879977222496258,0.295714338460799,0.16840530148771718,-0.12852799578576357,0.09725294404178197,-0.2454110869438095,-0.7073983081623998,0.18915960221391193,0.06504697217809478,-0.010774789163610722,0.0777404631636745,-0.5245400593894459,0.20961384087712548,-0.066811429104298,-0.7494778045097166,-0.15991222083032594,0.5258470995133189,-0.1000257328497309,0.09264441393375665,-0.0396184110313439,-0.22820859351092532,0.3677774890023575,0.47005636245700294,-0.07808173419100926,0.18545836939727114,0.10865874682091667,0.5814271875531458,-0.29137846981751914,-0.8282809632107379,-0.41536608810170755,-0.3433207426049648,0.21805483851737817,-0.373536809572686,0.1564484560133847,0.2740691379070139,0.42949781021254757,0.31281776299937397,-0.08967672459844644,0.44395773862444066,-0.6745358165580934,-0.1218137027276192,-0.17582208234614055,1.0060106190387683,-0.3722987474032584,0.4568209611789165,-0.3512675433661534,-0.07537003476244968,0.08034641486032444,-0.3279574438421711,0.011686731246472966,-0.6627314607008536,0.020950217007291404,-0.5025500461322902,-0.0711225738669976,-0.097195569571771,0.14548353766129798
0.48409085647031963,0.15983577033805685,-0.2038355130956288,-0.10726667940279583,-0.0019374068290116174,0.11810671446015145,0.21678889364526144,0.4348613084110307,-0.17539723532744292,-0.07523675135016313,-0.15578646950224545,0.3164768045818291,-0.6682058193985146,0.44795125198151087,0.9200733718526701,0.20075204025129537,-0.30639961965151286,0.039090190066744385,0.494295745992561,-0.06312934586545652,-0.24324409770528,0.38937948880790246,-0.26469728487365074,-0.013100236781290976,-0.3264836747940876,0.037794928217438045,0.2990626090185323,-0.08995437675317138,-0.28158630908453935,-0.4448696136747909,-0.40947952001362775,-0.018397954549873908,-0.50549223254529,-0.47565948194728397,-0.814801286228824,0.6713208037380094,0.41080235608962345,0.2114373531107834,-0.7883579686198015,-0.11344155656666621,0.0022046975546499256,-0.3124500203354796,-0.0815302723143144,-0.10892645090548625,0.17904987867063804,-0.3652598806883688,-0.21225925641101287,-0.5303086459568201,0.09283612485783035,0.6001328435971587,-0.7988197716537587,0.0812440875875938,-0.09560604223586475,-0.44137678513687734,0.3093533431790826,0.09715436646187389,-0.5109944165343215,-0.27290391185148205,0.5701840060401067,-0.1673782502282281,0.5164665762922591,0.04778610781906339,0.581950447546914,0.11024867515279915,0.0528672525628039,-0.26090252393498964,0.4691680029711944,0.2810330987933077,-0.40561431300579276,-0.11395171777410151,-0.8257425503632946,-0.10820834438393256,0.6102195026074722,0.6518857072889852,0.5446359865131383,0.6138468164263503,0.8649906816950041,0.08402239260182556,-0.9817631215211489,0.016145872274380742,-0.026452392484854613,-0.2646740398122763,-0.21189714222398487,-0.1746160440908556,-0.7156699390924851,-0.8571488808388659,0.032345421502332404,0.8186314597164418,-0.19467299943059385,-0.4397449323693114,0.6266115650720888,0.05374096435737503,0.43587231519407416,-0.17774140430956806,0.2673280348826161,-0.14127590586199476,0.11646952589403252,0.2829982772146089,0.6870952572291885,-0.2423543599661567
-0.2838793847809391,-0.11990657786048099,-0.2771092501653875,-0.28031643121568095,0.029537001522784836,-0.41178732309489713,0.0288372521306369,-0.2759219936982337,-0.11146218597763823,-0.10685357600520864,-0.0032217107727689257,-0.0008239399784317422,-0.11999170502936556,-0.1500963787503518,-0.5457614238861503,-0.05555517156274059,-0.30247373204672673,-0.42221645714240313,-0.10985020784146261,-0.11169552856791447,-0.45871962937724015,-0.11838971815240239,0.0338715696071692,0.026368130554912755,-0.25296790515415224,-0.06689619159622502,-0.3803620620232037,-0.25445387671117137,-0.1763331281478304,-0.35476140838095443,-0.40172542246950615,-0.3014429978102067,-0.1498815175104163,-0.10317177254964825,-0.11368513427190594,0.0025748319056111482,0.05955401730411575,-0.07588530626830198,-0.39634815614521507,-0.4129730889390981,0.06374886756788654,-0.4373478767588903,-0.25385311961628587,-0.25565911787353124,-0.28341937724706834,-0.17583636234473884,0.10530679408054312,-0.01990311633192688,-0.1820130472594923,0.015412524378915932,-0.27247515826008,-0.2698334760867136,-0.24373604421277148,-0.0124485071613389,-0.20009707991537515,-0.017622340998717956,-0.05779999042607016,-0.1294969470309953,-0.0833923634833012,-0.16553291406941148,-0.10861425670517359,-0.07145920532266846,-0.029832016439793434,0.03596115582111318,-0.035750218231114975,-0.2537060242399598,-0.31022938463429434,-0.18089653700750752,-0.34734054593854263,0.06402531956189116,-0.40135431654586645,-0.20546796753606408,0.09250750284271508,-0.3228282429252956,-0.11117826503428202,-0.3292976616789005,-0.4574024277320581,0.03892140283986603,-0.18316993879244595,-0.08223841667863205,0.0004209608686659329,-0.12155128874958157,-0.1317213708795465,-0.3310338672574591,-0.17651730508901323,0.07835974001496758,-0.29145822925646414,-0.08347046916796468,-0.2032582847647566,-0.13897985678108662,-0.2305629348676329,-0.1623953751172589,-0.3258619379607822,-0.23820272615848184,-0.23103245998826777,-0.23202017729238136,-0.10260060918004593,-0.3524280811571412,-0.07772918484219901,-0.25238180861970844
0.1684346785752591,0.03626451185924033,0.13719770740062504,0.08389475282204908,0.056499574834355734,-0.13894588135877572,0.006279534819510558,-0.11470160542524256,0.09041820279118297,0.09789697901386603,0.08603751006930213,0.09593631921784847,0.12215336988236938,0.17608091849846774,0.26957106230526195,0.04703246419778585,-0.21610085307348756,0.0203413076240084,-0.3065295555545699,-0.18222940260904044,-0.02524612139248551,0.23129283748910806,-0.04291338360098994,-0.23970855925716578,0.06504393824913741,-0.0007605750891547124,0.2046066291135408,-0.1294925734217266,-0.13424036152565927,0.15176405059467585,0.014724639125917222,-0.3110415740697934,-0.13249512566067745,0.053650248042502464,-0.10450627858502956,0.20776564135631026,-0.33789162557362323,0.032488102929067154,0.16926267932260114,-0.10646311520890413,-0.1377025794473995,-0.045400295209578244,-0.12128114709450276,-0.0023534114198318326,-0.15143760642651166,-0.290351376977709,-0.003744626415997242,0.038218158821874265,-0.14579574928991787,0.08879269861471656,0.31184288258778703,0.10727948518829614,0.13575629143310333,-0.1246534392418752,-0.07815092423102925,-0.25443461878450546,0.13466211402661274,-0.23761279617340764,-0.033945693517564574,0.03433381800496318,-0.29495949886231504,0.13659541147971668,-0.06454393714032124,0.17805291869170564,0.31148737699016166,-0.03230920096517807,-0.2401333631247622,-0.12049225103578104,-0.042313234196985045,0.203527598146065,0.13628671761939307,-0.07615918725631698,-0.04952428834341493,0.11921254713271653,-0.29869547952733455,-0.11211185388787985,0.13277120800315279,-0.18877910018636532,0.22575302561252272,-0.005884458206659389,0.033937952148322785,0.09776733995572418,-0.01362821791351825,0.010448827140105293,-0.07218070328034328,0.21104507183102086,-0.20110711881297857,0.1233997151811221,-0.007397190360263642,-0.05075575340535577,-0.210310907491541,0.04429965671849041,-0.18366225776587028,0.024510701553593157,-0.1987362413802238,-0.11256384966688344,-0.10932075935685716,0.04337419894436131,0.11738132899835303,-0.335793771561768
-0.21831671928326915,-0.3396402573934453,-0.1668416013452541,-0.10293253845598903,-0.1409389712693504,-0.03323006443905477,0.031126390619771637,-0.04280296481266303,-0.07801218843624803,-0.2568237171702245,-0.05840621877098397,-0.1574454470754681,-0.07098516923201449,-0.08150424337239602,-0.2926122240842041,-0.13204006331623064,0.0006372765428033428,-0.2956700703215379,-0.1751129057365825,0.2664570206777817,0.04570857043397366,-0.014448779422270089,-0.2721563409592641,0.1663757159785164,-0.12582664911846014,-0.040017531050959135,-0.150458269920463,0.07734845200503898,0.3271766335971205,-0.09197840833555566,-0.05338461573453795,0.13372192070677408,0.16107054817919425,-0.17308569464022372,-0.26506440051657987,-0.1338544279174651,-0.12051427250847141,-0.07700811036236951,0.08691452795202492,-0.05310458937609828,-0.11964105548791117,-0.038045031881720634,0.09631527810416915,0.11379835813937361,0.0493684308222583,0.27584383470060986,0.17400085363745654,-0.14277246759059148,-0.04171595561986038,0.05489533121866035,-0.14002326862614878,0.003885623556181039,0.22191144541003632,0.017529040927207553,-0.1978634898611351,-0.06165805918266921,0.38755948626619235,-0.2573267878534832,-0.09054128026919737,0.010742062713350972,-0.09624683433598835,0.04568482865135629,-0.07951613249558315,-0.14977739745557925,0.10870220789056544,0.058703052226846554,0.21136606023832996,-0.26035321807447626,0.10759488951033931,-0.051275599827146856,-0.015751596977681734,0.0242965657788235,0.007284668826050133,-0.3821433245013509,0.027968844394801434,0.3612692584652859,0.08687462556357038,-0.09065122826834174,-0.33798567577273747,-0.12852949381682252,0.04608999088853699,0.05973726103076153,-0.1400285218402868,-0.29788395385070005,0.009300775729848209,-0.09111220763540832,0.30355047830773585,-0.1989349577913584,0.13462156675403567,0.0023422791812389896,-0.08313740796457475,0.03353459432178627,-0.031044595810913875,0.23818848519464708,-0.15008123710430704,-0.41015721899455404,0.01957519868287166,-0.26682818074121933,0.14072794903938413,-0.010808121963311781
0.05298290718738545,0.030240172580218286,0.14707708220477975,0.020160394092440734,0.059761707540488485,-0.044702524964869234,-0.081392150878393,0.24920978709187258,0.04922389777343154,-0.43001855069212863,0.0985989179894137,0.07405702374072193,-0.02084461481381944,-0.1680349456558829,-0.06943647407433833,-0.1527404159556322,-0.12711256459357595,-0.22884184100421087,0.1303806955581932,-0.25793703190760164,-0.017076214179412078,-0.1854190316902832,0.02055308939388697,-0.06502132198126558,-0.14904314276088113,-0.08186331159726948,0.2885938146526744,-0.12921135425937152,-0.11484000542854868,-0.04082075555902811,-0.04871522292437685,0.357456933659972,-0.28417694865390786,0.21716506012278325,-0.3670687382549441,-0.12302360732875796,-0.06652359559439464,-0.13123172298248625,0.048644217820510385,-0.15342388682843205,0.17514145857659774,-0.19526854714894176,-0.16035791307921887,0.20980288702798805,-0.17696959698896292,0.10385964917015347,0.002685944777802491,-0.23080950057998736,-0.12806991723611505,0.4367657881965497,0.25507892450316577,-0.06944132257125454,-0.04047423605986914,-0.11284060198437557,-0.007210454051008357,-0.07910852227897426,0.08677518369989468,0.38204192711832846,0.018882701673925754,-0.13286014976830993,0.1639871848771178,-0.13244497480692718,-0.18778846141118882,-0.048387362861039625,-0.03372149734128241,-0.033740864547210904,0.3808151110820716,-0.24518304970503332,-0.0032123329371815043,0.1540737463360504,0.0009140864391077862,-0.10236744701697449,-0.0335231084957287,-0.0803996626532967,0.17725520625069832,0.04524209906928088,-0.3364400857491765,0.18920360531423186,-0.04559644608937281,0.08263704729785701,0.06156816448483884,0.00872146974319984,-0.0064195294298196575,0.040704299610774895,0.17178143745746632,0.21486403243260294,-0.16131466474780554,0.13027157649424143,0.13207296019984224,-0.14582313933689717,-0.053225257654644066,-0.04666146747908969,0.023985112199992286,0.14686106444238686,-0.004577738270353877,-0.0585784352036998,-0.07288182056126266,-0.0577707029980602,0.01321479782531387,-0.05119116881967333
-0.04846839186347707,0.15054968718871237,-0.0418945518817888,-0.05083651821324143,0.08048272197000052,-0.2182609011561779,-0.10556035529904069,0.01459973081378323,0.06554545454592516,0.11032474294421743,0.13328088402610938,-0.24027139071636106,-0.10189399091734076,-0.036897507371351036,-0.05473158484693855,0.10118864398004515,0.1624096287769713,0.07615299275736737,-0.08881035049196297,-0.04719363554781794,0.08872189342683628,-0.15816734985657271,-0.05381126774113066,-0.009211042556375143,0.130894135867768,0.09282237653775988,0.14174937341990565,-0.28984409455462634,-0.022755009098426416,-0.06592331306068777,0.035115413045095786,-0.24690033926595578,0.03517790405678457,0.08143442117861001,-0.12450349321390866,-0.03790650141163733,0.13102429911155924,0.21994826012047564,0.13604025258790908,0.144167082388981,-0.0009522204030507769,0.21000470806888172,-0.020437793717921274,0.013978329518037588,0.09802253106204672,0.117299874732634,-0.0852141392614868,-0.14311737095319227,-0.23409124848071075,-0.0007049650010681343,-0.04179208098532634,0.004442509281253245,0.07489642102592482,0.10394577419105124,-0.021444661568398044,0.10519670083139614,0.012637059052816752,-0.0960797498896819,-0.04025998598402319,-0.19732238140751265,0.17077688135092475,0.06704946197268567,0.054200076294258534,-0.05635215183848777,0.12611963124009087,-0.025870398654985336,-0.2555032267430706,0.11218492252018243,-0.02599974242579943,0.06159858956722036,0.11073074529599125,-0.057958604166355336,0.10261363841938292,-0.028570488007258425,0.04437254643234529,0.0792077480168279,0.12452373426490683,0.13558502994501806,0.045607923999281465,-0.025333946119838635,-0.019680673409691797,-0.04175049564583964,0.06243081409757825,-0.07339933149692468,-0.1400211400074899,-0.1579053944410277,0.016814783225093277,-0.10029459428666848,0.03256307091180246,0.11491711158404996,0.014975009936438063,-0.0164897735310098,-0.02625670938933362,0.19366879616064003,-0.1152621336434678,0.4010629998560125,0.01957052775945843,-0.06063100858998525,-0.11459608494137452,0.03616218042443923
0.03242174565250146,-0.11463113763286802,-0.01573108433523758,0.041956626428542095,-0.3941404562989121,-0.08494122753647357,-0.03367055154983122,-0.2614109065485278,-0.011794268869990738,0.33200935328323633,0.24940882573453402,-0.18218472759701046,-0.09612124619694451,0.2997907204361439,0.15925925715732148,-0.17703741843813364,-0.1840213570976013,0.30825902447137526,0.16242530363648408,-0.26355435665215676,-0.15840787715870974,-0.11376960950946066,-0.042114196191521534,-0.06745765406719181,-0.11709131572428676,-0.46221710851608855,0.003481983776005861,0.12969780357472638,0.25411501878836634,-0.4801937326070099,0.04982549696001263,-0.16661641272570002,-0.06308682856609002,-0.06252296265050684,0.08733040935823386,-0.1362126256732867,0.14759525513490357,-0.24521824010537735,0.07025052421636238,-0.07854112783161235,-0.19238901121703014,-0.18653881994320778,0.41727256352974507,0.009279612754853079,0.18348795783836686,0.11367661790253228,-0.5518502205123396,0.06940629565121142,0.036411585184252,-0.1402545246610723,0.11349739436390455,0.04244002364176257,-0.034939306715551524,-0.07234019035281952,-0.3242741399704698,-0.23366728372228185,0.03631583504796803,0.05750162120498131,0.21076739116349472,0.092565397852129,-0.0038402470465610117,0.15691956776952365,-0.1919624111135669,0.05049377267981298,-0.22146081869214532,-0.03673727002549782,0.04851959383744009,0.09862592248685709,-0.04952856151105786,-0.10928248067674515,0.2118184715893615,-0.08260541979239583,-0.004705650448998786,0.28789135444623604,-0.4049490317292374,-0.04728024283458527,-0.10153697660161043,-0.022262868670136157,0.029314168309811466,0.1614584584959489,-0.014531342491399816,0.024302507466348787,-0.07122929579988772,-0.34496776743713714,-0.10007247971232416,0.026594055998331288,0.03661029286823686,-0.027950003365418315,-0.10981379441973653,0.05963305387096362,-0.018547645839926498,-0.22766937093958597,-0.13799600844338247,0.21194920155365063,0.00961007231908609,-0.1334830934189412,-0.17032714540059385,-0.12088045319800697,0.0343469931943747,-0.1672321986328164
0.378739654353166,-0.17820935083282397,0.06729879135515832,0.08675880712353247,0.18448820432835172,0.43795035333467525,0.07025660101069257,-0.10209653655061088,0.053911467668909106,0.0039352964781976104,0.04629934107161636,-0.160107684928411,-0.1131958824055201,-0.15195357439241572,-0.269825984458552,0.03510355244773062,-0.11498763881028473,-0.23331163881692865,0.0681192883027188,0.2184452425227805,0.057716272287048294,-0.10116613403245858,0.12551004680195363,-0.21687748821823516,-0.015289399751071664,-0.0675083095344013,0.021743219661859065,-0.12417435775711329,0.09808061910361664,-0.2799253119071526,-0.35094178742461807,0.09490047878549887,0.11077612965760388,-0.054399344092982936,0.05061938944414642,-0.010736625037444155,-0.047089951260566594,-0.25145330875253524,-0.13762092005424967,-0.1476678222930946,-0.27747244314589964,-0.17277785866333772,0.35269126229307274,0.1525561164218587,0.009405412615409885,0.009690591001571401,-0.11398908755904286,0.005444616054608562,0.19418544470847712,-0.05133129528289261,0.19355879605689358,0.03730130768140073,-0.256638878406932,0.1012892231238214,-0.2867497239373731,0.07655948049277286,0.30751693565216487,0.18153783821199918,-0.09221293144600991,-0.09920010657393433,0.056090736926265726,-0.05250270065590556,-5.6493817611648e-05,-0.420172424000191,0.27328207123050174,-0.04246195257956377,-0.12925964566476142,-0.10846266825042046,-0.1535351896436222,-0.03419308260893921,0.13734078115338905,-0.09939977148530192,-0.09643101840517801,-0.18396445403003514,0.017692031289698453,0.41720545996107145,-0.048055188764388995,-0.15628039989356782,-0.25209273800281695,0.0025089932842426214,0.04451571237529693,-0.1368545546741435,0.02340108936241126,0.017534700605345243,0.05941848977431009,0.17242007914243995,-0.06780923047476445,-0.07110199383651823,0.1707198098776903,0.23757111415047558,0.09256917348124516,-0.004565502311317106,0.23809399730439687,-0.048823499714034525,-0.27617632554460986,-0.20206322629307877,0.2756890559165805,0.11643138468987163,-0.0919957939686538,0.2396160469452621
0.38809344559561715,-0.1450112810626673,0.3043498555746734,0.21887698142808762,-0.1406327731551924,0.11676807553019541,-0.04011671979201132,0.07333968761389842,0.09915479953029735,-0.06752639951319457,-0.036715364385662426,0.21172427621628065,0.36880632992894125,0.03793640765936195,0.1962323974272911,-0.13057976240956862,-0.46578567180235514,-0.05135670428391821,-0.0973519780158162,-0.07237218791799108,0.00012619733099451615,-0.02225773250286109,0.048412673739172345,-0.20817694377051013,-0.10464348905615908,0.03718542387373526,-0.32517346167093303,0.04766564095413721,0.19494652940050738,-0.08011097320465732,0.0761686732195842,-0.06926278703863285,0.010633175677564121,-0.0020304780876446884,0.32079572914016646,0.08611759389063434,-0.10531555133960296,-0.38411719871762695,-0.11500593952848205,-0.23735290675648257,0.11006310047085752,0.09054914482847937,0.09304081509641869,0.13086024778751942,-0.12675846299017499,0.06725654379216979,0.05677719952074578,0.07272535469847638,0.04838344690343362,-0.26652835180031387,-0.7008330642805956,0.06398901101176287,-0.2673210730999402,-0.06347140012501441,-0.18741119421894054,-0.059529102229296284,-0.20428795340803932,0.14810355598438468,-0.16623125404922023,0.3557301876659004,-0.018841274494573592,-0.12133301589011895,-0.010362364260278882,-0.33632026880469273,0.04775071461935844,-0.14860869290295423,0.015980841325075275,0.05363869738125537,-0.2669710824342799,-0.0656032553114795,-0.23091934591605395,-0.12929949252014258,-0.5069955027401837,-0.03449876400443288,-0.19503100844567306,-0.17866913050284078,-0.15754404563986524,-0.07986324955406629,0.0922489387051398,0.23167632018876047,-0.037201070252270124,0.18058492349711355,-0.23180861412535878,-0.007905274011728596,0.01888669575113582,0.18513114432708033,0.16786329833392397,0.2127265672104783,-0.08770756336771379,0.2338107218144891,0.1359756789211954,0.03280063869494862,0.14654735030424104,-0.24781063822460056,-0.21217605318680363,-0.15801887760148273,0.002562309466501554,0.08370852126641615,-0.1225152857285845,0.1916108132029635
-0.04649217707625672,0.03704541728580799,0.04299505670952204,-0.20826014267528245,-0.07315919112308462,0.15181672976193644,-0.007039331642164432,0.09272303987979828,0.09693549093243034,-0.1631011780973352,0.13082877974209742,0.2566300387172995,0.24660591371105373,-0.16510435846855345,0.16904500095593974,-0.10194865028042054,-0.023228064961855685,-0.026272727400175815,-0.09610061083068193,-0.27519108456901725,0.28705220958485944,0.10821663312691533,0.21975182116150477,-0.16660839058579113,-0.20890983208492042,-0.2397673812608025,0.0813588515203022,0.02750249376640075,-0.16069316864245967,-0.11688890338256794,0.027084442428457273,0.040663430086962674,-0.17504811680019236,-0.21701017388785057,-0.3401585465355888,-0.14596305907710683,0.03750414534769383,-0.02664950023744343,-0.08685774316890088,-0.03031966979993948,0.05139509777285422,0.08502555134695064,-0.43293096289570354,-0.1138044811348189,0.1425603611758275,-0.06821072754114235,0.06304948494837243,0.11263902696310765,0.266680611677853,-0.027729689703216136,-0.2106839670507619,-0.07765487257380645,-0.016886722815880332,-0.17627889660216517,-0.023966430625241578,0.1313008951668982,0.05066099899246232,-0.03533912719949513,-0.057317268290607126,-0.0660675966979981,0.24744568223740715,-0.03541704334710191,-0.19527689116183491,-0.05322281832245529,-0.08907871162899975,0.05310252368757683,0.2474511797681563,0.13556086772347695,-0.05069675012511076,0.20768030042013422,-0.010684234632787056,-0.06909379858360885,-0.009057087851484976,-0.1527058193329016,-0.018536087339346433,-0.27106333005318506,-0.04705288177856401,-0.08259054529304148,0.016074116213133576,-0.1058200249094331,0.055344459670289926,0.1979095435133354,0.0466183662286247,-0.11017972277590571,-0.03149622781789185,-0.015708082384667647,-0.2560919878291883,0.019233649668658162,-0.13124835694366396,-0.3285109980397559,-0.13176030548208217,-0.20526103969501439,-0.4118914615379286,-0.21179808090938843,0.014352368030495687,0.0015696375175494035,0.12065189026240929,-0.02011549602670731,-0.2595175124084492,-0.3122513932002066
0.12711185674923567,0.11589070927438898,-0.29001598528002426,0.26979803433528676,0.05637698999336187,-0.09435316218244501,0.16625836473332095,0.15069391160967463,-0.016436914933605735,-0.004503605967910188,0.21082525293817087,0.15846885155188187,-0.18289638666378943,0.026587791925544314,0.31270845706922806,-0.15168325485152886,-0.11183287878260302,-0.021423912488478407,0.05550659538244578,-0.015039919876840186,0.05636621907986393,0.16432610192958583,0.4130455672027645,0.11487018880683701,-0.1930074486201366,0.1380572152364756,0.21794995192857544,-0.08524292275229353,-0.14444697591738287,0.02900368502492735,-0.00820711377459099,-0.10216142295404605,0.25302271190220627,-0.031624182484851965,-0.12834083570898286,-0.4171415134558879,0.23829765525357272,0.3379491351800988,0.19512522523269754,0.08359652163352703,0.042199139839392136,0.09648352179512616,-0.12941303452306083,-0.17938651109681958,-0.4212997199731764,-0.49260427631050874,0.3311875213855154,-0.07381920386139679,-0.28247221604847994,0.06036483874342538,-0.11634268091690929,-0.17713685038136517,-0.16868066324764178,0.00573876284178426,0.08860745838277856,0.01813648121806659,-0.14333746467901215,0.07404386719687539,0.15132313907302739,0.015585912077606,-0.24888196755573944,0.06633766531921848,0.09047814421251804,0.21649663860891252,-0.27441207951562546,-0.07306081012987936,-0.04569915265386677,0.07696567509451477,-0.16503930580681117,0.2010536932997103,0.0952639061171958,0.13349951616861577,-0.15268767115153598,-0.09867776324759825,-0.15982171588930846,0.16132409786948995,-0.2829859072892258,0.15727939637957575,-0.04031989356036591,-0.044447380353723344,0.03596088536183536,-0.11368344537694387,-0.11693000953055953,-0.15764812541488085,-0.07797034865725717,-0.07556257696979632,0.26036019420222495,0.07366662004855816,0.07201877153889089,-0.027687228413379898,0.3822472804145111,0.02217900677112547,0.21203020723756422,-0.10041579925004993,-0.20542392614027763,0.056334835639069686,0.12360396933069709,-0.14575946001597295,-0.1638256051608457,0.3435680772988533
0.0005465087036345768,0.1382909916978935,-0.014925197166006092,0.23135032172218234,-0.03930593344469888,-0.05530926346497146,0.07792387426011417,0.01326291551831102,0.10022158515316977,-0.08886492560867786,0.22659419051240595,-0.04697927436239052,-0.046136254417728624,-0.04054747543363315,0.17794190586477393,0.13789782404372278,-0.01054176435517515,-0.047966561562497394,0.04962798763183219,-0.17195283207521936,-0.019435321595585017,0.10318183107225035,-0.08279523586409539,-0.04362687701360288,-0.008694475021725606,0.12441514310080037,0.30725636460712197,-0.011398389820206445,0.044510682970789486,0.12784875513255894,0.010587001317219829,-0.030937611086859013,0.05474764043087533,-0.14750486226483886,-0.04599794282728057,-0.05446164199553206,0.03524983509106032,-0.20240925477941285,-0.13017252626630893,-0.006605940318695534,0.19360693600709825,0.18523065844517209,-0.07614796935638726,-0.023679506395789068,-0.04703771654725132,-0.05803362825976053,-0.033820908203903426,0.13024551151113964,-0.0752833810242204,-0.17153583537273728,-0.1770534292126339,0.143317884302377,-0.15922699207120994,0.09556015174698186,-0.16039179322480238,-0.20791659466716098,0.0032071805056653707,-0.05739672249236296,-0.08498758718981213,-0.021217868999912813,-0.04892461348591801,0.18258070550116842,0.10887502502175707,0.005735251084988191,0.05389698373308731,0.18633187985841662,-0.23070641054750232,-0.10297655053945362,-0.18530085199516994,0.03466372224084356,-0.12337307536987206,0.05906987729494659,0.04694786301474133,-0.045186032768196126,0.04131089617337077,-0.17186433821055233,-0.15926875352775624,-0.06070547112894055,0.1974648840042947,-0.16645699242297843,0.016441177146807463,0.04578791668926692,0.19126806495916296,0.07386592675410254,0.026815603188197965,-0.11213547398976634,0.12957559293496923,0.05169649164474468,0.08653285751017874,0.22132662587196655,-0.07929193283365696,0.045525175604949696,0.016048414642602513,0.04273925720733766,0.11717649601166154,0.09430352752233913,-0.09473029985145939,-0.015429153397522917,-0.17992207966278442,0.013737160413611766
-0.12423504783824127,0.06337933606761077,0.08719051074803805,0.07149775646435512,-0.15630980674841125,0.02045796671300226,0.00013093054186267102,-0.07499559148458937,0.0061369885137674334,0.03079148043073501,-0.002708634952982136,-0.1989839538244383,-0.061976288618334686,0.04495438676744841,-0.00986990510357149,0.03852142319341213,-0.18744713645187527,0.29011354983452003,0.19591838613680285,-0.19726748273578598,0.08484216584591321,0.04343348225027336,0.2130678326311328,-0.15852270502317903,0.04628442833317712,0.05087150019315299,-0.07654510399649343,0.103973570620243,-0.048404454645070843,0.058540373201519016,0.15736966666897162,-0.1316256001585401,0.0027074691903298327,-0.1356839073242135,0.22403083349010902,0.07490224279720868,0.18140541855372844,-0.007331611369215745,-0.11064804504656843,0.11451613357286816,-0.08155044560568014,-0.05964937893992008,0.09414978605171982,0.01947217483265312,-0.07549210601983154,0.28498972954754964,-0.17518189138924956,0.06942020734014273,0.03969013277774855,-0.2026835420736987,-0.14814217903581167,-0.19276946866085712,-0.04766252043784835,0.214711204801241,0.020076607073985012,0.038530875980458214,0.07412255805809209,-0.22436947003477384,-0.08742986593550028,0.04581174547119813,-0.18306769303623271,-0.07681349046649544,0.20991093019697613,0.08474101850930538,-0.03999983858901483,-0.04010528956518787,-0.22015039192544425,0.11551192482088257,0.1415385948363855,-0.03466256867874322,-0.03442477248862709,0.039811068778290014,0.0435922040474836,-0.21197976888344525,0.08625917476311895,0.10269709657630297,0.4024167959307667,-0.15607311224822115,0.2565862615607221,-0.17207447873186654,0.14430973625532936,0.11129270668981703,-0.007589947332494197,-0.20184334390957276,-0.13563521795935302,-0.26329389333800407,0.25423377421461585,-0.07827118511844544,-0.020953782745083596,0.1176435787305009,0.1418698928995041,0.10879031248536812,-0.42264203508588316,-0.1450707341405114,-0.13774719700801588,0.08100329982795865,-0.12594132449703607,-0.08007142641869515,-0.16114465959577734,0.02785691805349932
-0.0934238983452955,0.17098053197303145,0.30845636085117656,0.2768278816137953,0.03883009804179386,0.10170892715942843,0.10552158776666262,0.07142851542336143,0.04884964855519924,0.07827095423987354,-0.15822729791548712,-0.023756773453263144,0.05346268017283866,0.053975251387201384,0.3777203157190633,0.11057496399585608,-0.033222939436925926,0.4094130293809378,-0.03849700999820475,-0.26777387159918414,-0.16352292473439475,-0.068835072656733,-0.14634261113422503,0.11634685461736027,0.17534884759388958,-0.047948414827276714,-0.14738086404552278,-0.044827553482414316,0.0033168449728809605,-0.08434889099151989,0.25200017651477036,-0.17834475517799261,-0.07552028581904527,-0.22605720531022355,-0.2205823786704636,-0.13839404665250493,0.13762837793386967,-0.021157093604545887,-0.2699349693206283,-0.06770004017045628,-0.12173735461228977,0.1342782359117518,-0.3854216364021534,-0.08681258106616896,-0.37583447671749665,0.18229448832508274,0.03046244363232233,0.13554989353503544,0.09714089722806532,0.0779749573857013,-0.13252244638343905,-0.17920237176471684,0.23741991359577783,-0.25590016979124713,-0.17013981867924075,0.1760846585700535,-0.07312110996995991,-0.06618903875696791,-0.10703195732544599,-0.008828728862377375,0.13565252382252715,-0.3207830771744985,0.005112141298245537,0.2736416275873313,0.022444564329903927,-0.05013652217185238,0.20180862788974283,0.14588375828338052,0.07506584120722701,0.28100000934224423,-0.22027903894524148,0.10895731220378982,0.14756421593078473,-0.1457096969713513,-0.1476392481311076,0.14697124638050965,0.0763383707646761,0.015160213614567208,-0.05649734871523636,-0.39805899047221455,0.04390762861744326,-0.06176458220781505,-0.13140424284230323,-0.0232687703770358,0.17989133963090206,-0.22273023175225748,-0.07511138610155982,0.2906664975063169,-0.048660116049050565,-0.07383384204249181,-0.04014422443872739,0.22578793775762349,-0.23861209404334127,-0.05708044126281319,0.1309225367222674,0.0908246163836117,0.19033620541206372,-0.28151815434568417,-0.37414790754454985,0.029441207453168992
0.08929801144098537,0.14409937680177165,0.08365858741716665,0.03448870315788978,-0.1108583213517766,-0.3756694714012533,0.0877238048074617,0.0518793473911561,-0.018644466863142355,-0.04474657529842003,-0.17859959992519503,0.015012867272689471,-0.015488206354556094,-0.006703024173771598,0.1818451585768419,-0.2070926416524196,-0.08855158017159077,0.14309986906726316,-0.017264349493850688,-0.08236950049570643,0.10391744288169016,0.05909081597481856,-0.09103050135505825,-0.4849477614257818,0.1443868789497529,0.04296500728359443,0.2991408228861034,-0.06584577902672147,-0.20735915878810915,0.18884756127429653,-0.09730442201686146,-0.19367061587145884,0.10398585264319068,0.027187082557559344,-0.13178217619137875,0.005735670595849578,-0.04707884648968861,0.2679757067775066,-0.0039657754542339945,0.17427873831013418,-0.007973623843237772,-0.1552635404273209,-0.31154319111137685,-0.21232859760292563,-0.21413356368910658,-0.25699979879776386,0.041538183864326284,0.004941250420769253,0.07981797065683612,0.12566688643176094,-0.32295459380023095,-0.09594075094538039,-0.19203760084376226,-0.20084455430513448,0.3181484580121012,-0.07746792559608195,0.27167802007482933,-0.11941292599138469,-0.08707536660155182,0.004523163754648535,-0.23995926424721026,0.19215318210774004,0.19527860487547696,0.16089297752598025,-0.19502221387907498,0.05106809634622538,0.23046445207710012,-0.0007358172509721678,0.15494552341283016,-0.12463578925455981,0.09860210007985086,0.06301540162094196,0.021589222003116602,-0.05594096363443653,-0.11219971641183112,0.04027100241939999,-0.019388430819244976,-0.05078984185806205,-0.0029176607026776408,-0.12269403456757964,0.18407537389196127,0.06627062416090246,-0.10708033982233262,-0.11374491197761726,0.037029057126943876,-0.19325459615576188,0.0718570171605843,0.11718481801824504,0.22644778375839986,0.19090875351337053,0.20770954436761152,0.10068663987721051,0.19747131054090247,0.09289360076792295,-0.16115955597204845,0.2889243228683112,-0.19855204244064967,-0.060024007649134306,-0.020057538402745295,0.08523288787032166
0.11353960345168274,-0.10147611824359991,0.10688441993563581,0.15043684659968115,0.06349556447292237,0.10667215862979162,-0.2931070297200872,-0.17528884504710987,-0.0060071752348671015,-0.03582189147939231,0.170932980143899,-0.08054718437498405,-0.1159668746149387,0.12466203073072903,-0.009319579669917154,0.06846253391481555,0.025483566299476384,0.12737954936525045,-0.05533312090344574,0.06374234034144617,0.0035245735643775786,0.07306946253545098,-0.27833624388614603,0.09007283461238567,-0.00047700427990230034,0.1747142145190382,-0.15423349717255005,0.026316151831454353,0.1540960185653654,-0.1786409935543915,0.09464768987843478,0.04700371375799996,-0.07233686308192258,-0.05260273230173858,0.12854975293029441,0.004387365369981804,-0.13442863327217675,-0.021689564017682055,-0.031884980854892025,-0.00039006295731697444,-0.10196720983896043,-0.009064266587074472,-0.5097166625479547,0.10080876842079661,0.19183540160509835,0.19704630612927757,0.12046498101986368,0.32091167351073313,0.3743672112132897,0.042971889630738475,0.0719970752395285,0.004226730546988949,-0.08043408993025125,0.22729840070414847,-0.1677143068751965,0.08897354544476585,0.275270274667105,-0.04960810052118543,-0.1658121325021929,0.17648953473657683,0.026172479718579507,-0.09333918509728449,-0.18425575323754143,0.08989564437440685,0.11301124865542446,-0.037662058992981064,-0.011965667112778496,0.05417093121848244,0.1149769730785321,-0.0438053064336518,-0.38953404746441866,-0.004360644622345977,-0.1968703925622481,-0.25604282129985667,-0.14667996713493608,0.07721701283441075,-0.4119781788240198,0.02800673801672366,-0.06878722296096014,-0.18745352278489036,-0.05080462633337021,-0.030303889846157214,0.024037043197392374,-0.14454189237399487,-0.010302450203211366,-0.16847906477277413,-0.11098972627392335,-0.1855619071926712,-0.23479626287287386,-0.06943515267842305,-0.20980719584951496,0.0452358939918563,0.00253995138597038,0.14312431060331354,-0.027411230773384913,0.24731161027966875,0.002342109338466616,-0.09069719609459999,-0.031826447337423534,-0.21226612622870755
-0.294865954773601,-0.15576473964888682,-0.14061581816045904,-0.3663937554971668,-0.06858967046827344,-0.0003139545965946269,0.023439729052417566,-0.16352128673552568,0.008200593496512225,-0.10282935497578143,-0.35520843005020974,0.2436002493385985,0.1551799776907484,-0.0401196436228811,0.12332061510177132,-0.008737096752517408,-0.3117730272645521,-0.08021454475426985,-0.21777825418424632,0.0028355492516352436,-0.01814085077316773,-0.17425842185392984,-0.5407358119327621,-0.1318460454909274,0.13740144414941122,-0.2865202592883983,-0.20400754237077534,0.14687486258886584,-0.33930327639040114,0.039487738629684487,-0.12810966607416713,0.2153936700170985,-0.033017301278322385,-0.07625065351872014,-0.03199003722868767,-0.3433617002513102,0.14223207789611708,0.09041036479773497,-0.27559967400412344,-0.04243855799055915,-0.13864721010946396,0.07534995048927799,-0.013692847882766495,-0.3296019632195408,-0.0864634927708814,-0.08977919276716514,0.0550757413871723,-0.22134169949087037,-0.06800413580686963,0.24355696714441932,0.041462043294935656,0.05226536391300098,0.13246779641503173,-0.12483646402118605,-0.25485374024151825,0.1529684630142145,0.15130189109571654,0.061982156162447434,-0.05893362363932017,-0.1693919089530205,0.09663195628025736,-0.11045484379042583,-0.21424817570988758,-0.0811769465588813,0.0686286794931294,0.09434259032768942,0.03817836311679674,0.23739407608719934,-0.12797535835224463,0.10825367420177581,-0.011380179391198673,-0.02152387677616447,0.26237511074206094,-0.1775135195640174,-0.17469420050208836,0.06970846422331184,0.16376259790963515,-0.10125783963184334,-0.3857257573320841,0.20941478402283745,-0.021060108022492696,-0.2839175381754687,0.05833187705006019,-0.054149095746192207,0.04113185552116086,-0.13238178043691246,-0.10456267755117138,-0.17009538830739931,0.07541106051933878,-0.38645275470455387,0.07928190997854002,-0.3479103986929232,-0.6671853290836699,-0.19524171499587414,0.03791132163991608,0.105674081648914,-0.12867720868332636,0.5399481010569664,-0.0870557695878638,-0.25993047568275246
0.062489302201831555,-0.24020127468928515,0.20450304430708452,0.15274680205677899,-0.20968102640350886,0.023555488099333246,-0.10462489333993255,0.15862798282141494,-0.18553294727106373,-0.24193093467148152,0.07709410528812177,0.07777928083910793,-0.08074199561286786,-0.10753611349797827,0.14063527497231926,-0.07832091779175457,0.1016532097797269,0.0282241374807704,-0.10527051614916312,-0.05910800274483944,0.06191538562190349,-0.1962883214584131,-0.3750863281722653,-0.10684028588933732,-0.00905749933647261,0.17844084301344035,-0.10804073452096088,-0.005929376019691418,0.06958519028790962,-0.1808720996800582,0.08548520632919572,-0.042572568338973674,-0.15604843825738637,-0.19557308180664837,-0.03351878613250781,-0.15351005052273145,0.28361804062181567,-0.010903492980745798,0.09586978943685778,-0.13989345649391288,-0.1607379363135296,-0.08608340597747896,0.0032134039644069676,0.1787407200180765,-0.13238035126489364,-0.09800484235803485,-0.1840343553332608,-0.11545471479288248,-0.1385987582289336,-0.48880818072445786,-0.058491544002767584,0.06906748319953135,-0.008357574917326381,-0.1763154825081156,-0.2329751988760386,0.011492272145309856,-0.1837975472455761,-0.3954322189371164,0.01378413309767269,-0.05753499299957861,-0.05741945755758263,-0.2941146151020001,-0.06489059432780175,-0.00734954133156291,-0.2549814201001325,-0.024524973813459687,-0.044963501372849844,-0.12291146395180606,-0.11431328121741917,-0.03078335878651089,-0.13074155994691647,0.15789098348900035,-0.02348560713757169,-0.1424881180743901,-0.13475624570743797,-0.045375768295074365,0.013125617363170429,-0.03228870774519782,0.1964618326860342,-0.1101429550783062,-0.025180203131304677,-0.044954555598518964,-0.15658027709434177,-0.09783540669141465,-0.16494248898153435,0.011150830081012779,0.055712930232392745,0.07704468279331955,-0.12615326789829626,0.17185899904418722,-0.01263028659526561,0.0937597797758096,-0.22709185912701071,0.11357848397540445,-0.11096987904063912,-0.23657308750580075,0.30785738329592993,0.02719300828792607,-0.1499576182647056,-0.12648738313502694
-0.24236595578747797,-0.1985904104734514,-0.15380231115636755,0.03320041103983151,-0.17133087722530313,-0.10257303031446151,0.07506552962099171,0.27542310769789313,-0.13708876010825008,0.2832534153646444,-0.18459067371121066,0.043638553964333394,0.0473834312003517,0.0017235194648004795,-0.4956351781881434,-0.11476909327318177,0.19538478645290258,-0.2167135886821855,-0.03622568790587087,-0.07295250444660974,0.19897424781090853,-0.11316470826519205,-0.26965943317904395,-0.1184788081619927,-0.014673264014240765,0.352855491451235,0.013801941759748432,-0.04628088942596483,0.34538784604601935,-0.035468712853203084,-0.012916150816990631,-0.1613043159499398,0.2753987469748587,-0.05680075873504881,0.10438698880749886,-0.04308803224418138,-0.11717788019305639,-0.042442652297305095,0.11365290401336729,-0.04416500143249068,-0.09606433439027079,0.3881376006134621,-0.02460399718905154,-0.17320354400385915,-0.23868178801954526,0.16742783395030392,0.04464779715309204,-0.11122718742785224,0.16439975645264573,0.1244036773521358,0.004395317482392331,0.09382222785692837,0.0068234647027291175,0.2477217811399184,0.033359752454903836,-0.031138462361654316,0.026149597666667634,-0.1930762915986267,-0.24371049749404047,-0.12192753066143976,-0.19769313292716584,-0.13728968269264555,-0.10233057238372369,0.15927310178829907,-0.23944129947988624,-0.15943247419843315,-0.19053274889985317,-0.05289635565924445,0.037259138017854555,0.023306372137520664,0.0979174595827645,-0.16828848566793905,-0.1668190208393521,-0.20860571990118282,-0.09570091903694057,0.1678509091010855,0.1629341080357143,-0.057071453450730135,-0.2521047465721302,0.18609742572752402,-0.2731783413299552,0.19030111365789262,0.20139585480694366,-0.19752281878221511,-0.06904019053368823,-0.33678641926110287,-0.25126020446526415,-0.06412074553707375,0.06138690696557126,-0.1380189399808437,-0.018605742035696354,-0.08601772790917159,0.23791402767130937,0.28315161294560826,-0.1613815813473546,0.2463471725814033,-0.1490989826096005,0.08927753964931574,-0.2796797167605595,-0.14612933639192763
-0.2457760058085497,0.20386115872698446,-0.4364549692712346,-0.33129811506996276,0.06265506588522393,0.13880532010308724,0.21007495859885725,-0.06495881667962101,-0.15958281434233174,0.16983136030584498,0.08996747639742521,0.2050779047986619,-0.044759468599349025,0.0690336649813495,0.15826874780241454,0.1724102563968421,-0.14438046638945115,-0.4386676479895511,-0.08365520068556916,0.09034740854915856,-0.2442504950111955,-0.07726562285017725,0.23171071098832435,-0.055191076092630284,-0.10899751920688087,-0.00273222955135972,-0.16808466445038955,0.06686593977988761,0.13571088297988046,-0.14894410672419142,-0.10009530013664912,0.0385189400227155,0.007037381862018268,0.03024929553651674,0.03734791951185642,-0.02722978542309915,0.2410411587051474,0.049692518228065266,-0.1820758163162828,0.1592794642591271,0.03326216978354513,0.5632375778424346,-0.1746978654452159,-0.14798929402264902,-0.287507711727521,0.02673580520295291,-0.15523251880784186,-0.037715391734191195,-0.05067827551083751,-0.2109290335843335,0.2668248051272735,0.023449843451714778,0.00893999827318605,0.12660019699012787,-0.17345980239806405,-0.15266089651634762,-0.24767290955699103,0.0781562603461223,0.1377646309644984,-0.21492150043406294,-0.1890831236849282,0.09716259520549693,0.17599405411573724,-0.02612116892821165,0.08949941827948338,-0.021653600439855588,-0.4555008610348499,0.0917909288429268,0.14005691595684533,-0.16268814343394944,0.04993798757646213,-0.17750696363151297,0.18029243906030856,0.6319084665931262,-0.2467694875287492,0.034052626321647295,-0.22835352604724082,0.15987596317543748,-0.45658471813969137,0.005468952885371643,-0.0010902528241050055,-0.2704572459289437,0.04398688125057793,-0.1362371870200506,-0.06877232588756846,0.24261504600565406,-0.1274737811304495,-0.23520882761468473,0.2650631751795583,-0.13078205922075056,-0.1032698878398845,-0.1943395251071969,0.11166679449685758,0.005080389257701664,0.21466806526582197,-0.33701486555863613,-0.05138953641443569,-0.009875246038883559,0.4233528141958441,-0.10200184277652383
-0.21058993205741364,0.09976399263011944,-0.44133629306258343,0.3008617002093229,-0.022975135012349397,0.417418414690383,0.04312920059040118,0.041319130849719644,-0.190239231833083,0.005250499382476991,-0.4394508403823112,0.03820017078396212,-0.03926966231089271,-0.09583520783595363,0.020524029024440026,0.14783518505590335,0.15806331400308424,-0.16704773439007004,0.1716321035559625,0.019216706382769875,0.3539399780231848,-0.07999133412387488,0.02564272233389264,0.09720251335260272,-0.09374673171757791,-0.01027620041892622,-0.23226904285018174,0.10248227372460815,-0.029269556184556098,0.06662632587497452,0.12123845277158403,-0.06056231298337228,-0.20530373347836015,0.20372502909554238,-0.41946332276624737,-0.05861552081093634,0.1597687086800513,0.18693703085683475,-0.28200657131493717,-0.24620511672412154,-0.2165903685591522,0.30950808501582433,0.22276306690669181,-0.0069151428017559585,-0.17065498126381207,-0.10842827580903416,0.10428912931527924,0.026335719012026783,-0.10362144125403135,0.09764217737786507,-0.13983939594559713,0.19145654604167145,0.1094965163488462,-0.1294590367653303,-0.4611186598011192,0.11000090805630192,-0.2794199448808759,0.044078735775398274,0.25104060585720733,-0.2951866178136397,0.19430295081565632,-0.4262058316368076,-0.07481106084652836,0.29225672165533967,-0.3340742511874076,-0.06526123807355766,-0.08174021292569131,-0.003782527899163041,-0.12615833731481776,-0.03898382159174782,-0.0724046883803458,0.08724211059875263,0.26621199554221564,-0.08490964663466992,0.03163468493431382,-0.137493405729429,-0.2049974544178921,0.12714925985409417,-0.002820137532558796,-0.22044273977732798,0.0757761677958257,-0.05122611432254692,0.0716907768048793,0.1836493828242929,0.25225295582961815,0.23278329424417785,-0.04680240835011639,-0.16083792357693125,-0.007967778808046876,0.05042563698120634,0.1655962283707905,0.21621044686334737,0.048380107779476655,0.2615604177385106,0.15934891573582782,-0.12162630647810457,-0.18021665782912755,-0.27323840761155604,-0.10470261137857158,-0.324177883154725
-0.16371508613852118,-0.21505174784274622,0.19304506852731748,-0.11317149906155875,0.027701365412194957,0.24300654668309674,0.04458838145883511,0.04409573069601898,-0.13455664670684522,-0.03802243213428338,0.15862868227051174,-0.17712717566174252,-0.18096077447858538,-0.17649609825966425,0.02549112063841649,0.14795767066225823,0.017824582172224376,0.19378721550439762,-0.09338462061180719,0.0021802291813579336,-0.19524009023050234,-0.004843539633491421,-0.09774446882586527,0.010468543281100792,-0.03591255859769512,0.09147007775940266,-0.10461991575625176,0.08679193274028521,-0.04193706387389375,-0.061678020412666366,0.08250326920694971,0.09360591480179069,-0.09561098315433875,-0.12501051836183052,0.03597011952922484,-0.2761760703328877,-0.15550011705671002,-0.03006308872343246,0.0647325804427028,-0.08080321205126982,-0.06086694019680467,-0.14994271549090107,-0.11084623244839706,0.033674659091041295,-0.040406953181449136,0.11027490874891317,-0.24301766645886977,-0.012750396432221736,0.05374728655227806,0.03224791971560431,0.015298121272907523,0.04918126154589977,-0.05190866865058733,0.05078230752932559,-0.12872919515400633,-0.09876565689235665,0.10727178332580094,0.05365398483543148,-0.03319765965275385,0.11455420662187801,0.014868955753691316,-0.008829754734763861,-0.14045112145731867,-0.08163824528752628,-0.2901156778696009,-0.02904325214195543,0.3318267041274485,-0.12406399486550938,-0.09975849491775093,0.08787095620432285,-0.09911201016058403,0.008434060522766377,-0.26350196304761786,0.012199855285251297,-0.3190867031891482,-0.026956747063090987,0.12602065640313415,0.2015622963042085,-0.392125969120089,-0.07341774312985011,-0.1732928879543991,-0.15851287390997845,0.012702092601549723,0.023003576340193777,0.2661088264913347,0.07317699659754734,0.02817186616198361,0.04764824397149172,-0.11156749455327954,0.05531255008990748,-0.002061334038283088,-0.10704247656834227,0.06253705669991791,0.15370750268261762,0.0024770225572704795,-0.2813705370855584,0.09009650566043442,0.22165541426977223,-0.0511499701924985,0.11156891418430169
-0.1654096001461126,0.253598205022665,-0.3471455884065526,-0.3378335557400606,-0.07210184939945714,-0.09172837086287243,0.10386414367189242,-0.15480961287906603,-0.011934575799215091,-0.006293208019475254,0.054782920811947466,-0.03644824594266386,-0.10683119855555337,0.1314150876355319,0.020489995006242594,-0.0825671979926095,-0.11324345499520104,0.04184684074855464,-0.11067708041407648,0.03386953996718194,-0.2669738051345679,-0.022733979352064573,-0.1756718417590596,-0.036412588999929774,-0.19112491604388906,0.1035334270896729,-0.16330895250797559,-0.1361455453096344,-0.34198897948500995,0.13635930746434552,-0.1454331585620579,-0.353274100077618,0.10220831576408483,0.01464455786341403,-0.10487107536736605,0.2325968423488605,-0.11802211717433798,0.05166249884553796,-0.4000521094730832,0.009918189018604199,0.17541888086862956,0.34434601262543196,0.0400912082702818,0.2634568465896799,-0.1386373156255712,0.07242410690939519,-0.1219762551349209,-0.16183660561934016,0.0512443128115669,0.25453169512179097,0.01069670405855882,0.22229085532028928,0.1334034547235929,0.08277686839400517,-0.0037925490850525515,-0.009570096220144902,-0.04576174462364396,-0.06761559388688107,0.08404702129483696,0.03457898913516074,-0.2271545840246597,0.008928772920636027,-0.14547489946958547,-0.2092402401242439,0.17786417934035664,0.003943383024145573,-0.011821996274480568,-0.016420038971146283,-0.11551959075564333,0.1814864902985117,0.10186831300696508,0.007624094421736904,-0.1507899869354079,0.16074554180642384,-0.17017010658307016,-0.03603238311692477,-0.2706854044487351,-0.07640451064184016,-0.20166084596909348,0.01979406477003281,-0.0030168722673330813,-0.19195839859276767,-0.09879333232614612,0.16839562781690134,0.020394819100625655,0.006359564207604409,0.28505395274908363,-0.2602849011944564,-0.004638991914428468,-0.1542462352192459,-0.18799418554642042,0.024446534466531042,0.38145335203021696,0.062242176120572146,-0.0770831375788124,0.11940703533437139,0.0689099664112258,0.10492493550334639,0.04025225766099717,-0.25569840096878554
-0.1618898130740374,-0.11994949735873087,-0.6059797270940042,-0.03718239063785219,0.017013545297426578,0.08206368928653927,-0.024005706725815125,0.09390509798218978,0.09178183565074176,-0.061387083651367275,-0.000904712681682916,-0.1621835271248238,-0.1358233684360441,0.16492568485405357,0.27640193582430667,-0.1406929572435292,0.2903550546784589,0.039133781742979996,-0.1573835704624804,0.18948049094905375,-0.06874486050118693,-0.098405612150856,0.013665748750556862,-0.06239229869201874,0.0965889112032244,0.12829047397498142,-0.08558875848136528,0.11871854045040087,0.23873839993293988,-0.11422068548098695,0.31832021308530195,0.21786988854766767,0.023005730902725386,-0.07145609715995392,0.41273978192925753,0.010873325850850168,0.21807467040609832,-0.10106610110376114,-0.17479404695853906,-0.3257854441622024,-0.2741183941412425,0.02816430091232511,-0.06929522221757936,0.1741535401882438,0.017923217662470275,-0.05255315510621305,0.1108115931817068,0.24627482880855447,0.23569369976389826,0.032421384233857674,0.06512161944309894,-0.014247123611123548,-0.09416391357748913,0.07326707519053025,-0.069414131867157,0.1476353001185776,-0.1786811048780805,0.1351151384899736,-0.11196962543575391,0.22712341887377413,-0.046764874211101606,-0.1074001570447367,0.17663013423741195,0.039495146253595126,-0.1310191535610271,0.17766491115200517,-0.17208057601873208,0.18924095198528298,0.02971488574708778,-0.13392958037325817,-0.023881650537550515,0.19471184262757296,0.11592446541392458,-0.14125553893961199,-0.11769541348421332,-0.02891639308035935,0.22890119400621547,0.1258251681245901,-0.10454347103327664,0.015576975298997145,0.20123864364006322,-0.11072477213057014,0.034369966326016695,-0.06741181104855745,-0.1992736536401712,0.29928322082410663,0.23363539231315375,0.15440683889179443,0.020479721728415844,0.0799283672064353,-0.099007624841514,0.05718261686429767,0.20234787569593546,-0.023375232539970182,0.007762411687996845,-0.19653951604182807,0.20669225257474444,-0.4082335425344377,-0.10406151074488837,-0.10868057217546474
-0.37859318854697666,-0.3277928122716422,0.05555819384313815,-0.24728578565923418,-0.08186880391611571,0.10552053138478022,-0.32798309680311327,0.15565592224355096,-0.05051684198045972,-0.18641290210003034,0.17814916507904513,-0.3135096567434941,-0.057450278302587386,0.04168033962804686,0.12084139163999966,0.28422139046771927,0.1491707350782587,-0.07584617326951822,0.10428764517096557,0.24799972314453847,-0.06960460187818651,0.024752397299370236,0.02831427844576343,-0.3459825258721635,0.03057820020026827,0.2061058177315134,0.23133389594347753,0.13657520412362237,0.2513996075659546,-0.03168599605242721,0.0951838450487877,0.25783699284360906,0.12326925021972851,0.11795439226364561,-0.0009336236061720035,-0.06432682087294099,-0.14567095192215632,0.09910200287262512,0.2219489813272234,-0.15248771367894098,-0.1877443911100024,-0.256553885131058,0.3029826219253251,0.11879891639434441,0.10597032096383568,0.16155829752040965,0.024888440263494203,0.3373347995575367,0.2077652536627217,-0.08600738609074064,-0.45305597041172024,-0.2257245909171021,-0.0405470523583645,-0.12619038617725795,0.18136845155861062,0.16947188172054758,0.0581667459116922,0.08559296535392369,-0.21114656703926543,-0.049043715293706935,-0.16682028735372362,0.07920044454870273,0.04089072138589521,-0.1586188655689875,0.025411736882011732,-0.13361590938190102,-0.3437621265216074,0.05391148590963032,0.08614390895006992,-0.1776438717573506,0.00814841681898646,0.17822272047971124,-0.05035210032395529,-0.00996430822618739,0.43795779817858965,-0.02951882580605038,0.14655545301662742,0.15480224947406176,-0.16317462386526158,-0.13218743025832233,0.08697964581918118,0.21007785778860427,0.1507553855118297,0.24718772778378767,-0.3944780908759735,-0.0028604204604603597,0.010427349386975527,-0.25869818725944654,0.11241326952700566,0.12968623591728548,-0.005567147144307575,-0.021866018945322266,-0.14945091360224505,0.08091074339747538,0.016673928144284162,-0.017969464639250466,0.07426981224440331,-0.27978198976473356,-0.0029422330040146084,-0.05737785024312532
0.17627688977348033,0.13472357584591158,-0.26187757865458067,0.16590861146802624,-0.40503823322169163,0.05277109483153165,-0.20678845691808964,-0.1323409147690184,0.15271385744767105,0.05918921053069562,-0.07336784504326319,-0.011199973806069697,0.28013387011467983,0.09367349500647708,0.28696178794590943,-0.11393106554969752,-0.15425241618542318,-0.23121992821952114,0.08039575571692374,-0.4288911093966869,0.19862973953525997,-0.11604488854630732,0.02006365667933584,-0.18896521970026056,-0.051075781678875366,-0.038885209501232726,0.23254424307459678,0.15152816696865484,-0.18131625748957506,-0.13733868502750965,-0.2847367634806323,-0.020032235108510363,0.09148292269674112,0.04183330023320465,0.052915125903065886,0.06391192794440254,0.0876706172743055,-0.004924051463823603,-0.06704057682023876,0.0189311049514118,0.11533494999525212,0.22901578219792593,-0.09868958480708537,0.10081035757172371,-0.3039628302729035,0.15499320177193113,-0.05742999466916403,0.12477652637597601,0.09266206505333961,0.19180551759666162,-0.06587644846457921,-0.1923898090282545,-0.3284844142900866,0.018044541138018674,0.1085781881756944,-0.18670791675550721,-0.36279496483758505,-0.01286240912838778,0.09036610654652566,-0.05494178161373942,0.04810468318517043,0.12608189229203967,0.29727586140889306,-0.08210060111525197,0.06933133626434272,0.019293526279389465,-0.2637834423625139,-0.14147924416607788,-0.15805831860120934,-0.2462067067934625,0.006415546410039616,0.16434330522577734,0.22294286090038604,-0.44240203194229577,-0.0562965861754306,-0.3636944444879386,0.03714346444226759,0.18446356237031433,0.14462977748111513,0.13053113580634845,0.0615017066271289,-0.09001258572590796,0.03522680758470181,-0.4638856271484599,-0.35982462864645287,0.15266799379523194,0.0050646428342561575,0.16372317403210282,-0.1278252944625295,0.026101283367474488,-0.10125679130311373,-0.10713067356195903,-0.17493303340951416,-0.10239228560983833,-0.06131254663728132,0.195468589043125,-0.049571521521050516,-0.009847035380323388,-0.3289141675788864,0.11224988045039276
0.06022778555447378,0.12705852680303242,0.09722021831626974,-0.04997903302330713,0.12208538986118819,0.1005450032310097,0.2673646305357484,0.0029664616832602935,-0.19464502248326124,0.01195570602622091,0.15388945664682363,-0.04429847845048647,-0.06029845197046647,-0.23618846090066922,-0.17115898041753053,0.06159441111534854,-0.2273938122449344,-0.12338598794089982,-0.060263349186703466,-0.22165230947874293,-0.020993829875282435,0.3288722759937854,0.01677685489280285,0.08394059878254265,0.1562798947916124,0.301874296642466,-0.3745502831523439,-0.08416214481332436,-0.11564389663448586,-0.052064126766040816,0.07295917798911304,-0.25142418296991226,-0.023464183007824428,-0.27302801495829526,0.3764389154427772,0.11928793051899976,-0.03790077683871996,-0.19038732464819075,0.0367672621454591,-0.09829879120363354,0.28687867082346785,0.08493253097477185,-0.33779017241177334,0.0981754743770889,0.08610332018692762,-0.018567046565009546,0.015211051397173766,-0.0033568955739524285,-0.10841593825353099,-0.1292681607191869,-0.28428606222348346,0.05158471509510496,-0.019643544072651346,-0.125127016114834,-0.09277466057991422,0.0993656274455884,0.06228068159272299,-0.16794946687901885,-0.13887113338243504,-0.10118308541726667,-0.001939978434808109,-0.09147866742459933,0.06148596913906878,-0.045614360923405595,0.28519723619928433,-0.04285815660235525,0.0780738598229625,-0.05287288264529853,-0.11998243633364328,0.3913466164446392,-0.01850140686571723,-0.02472083097020324,0.13383109381040428,-0.042608407025344484,0.008714687606936947,0.1488952774260368,-0.017479637997930116,0.008165646077429155,0.009928022986648743,0.03683592176911484,0.10903831035112242,-0.053408647850657284,0.03087987569640495,0.09178396196015912,0.2204242767925851,-0.2778664127092735,-0.02927540492607436,-0.11502315823297156,-0.05053996272130927,0.13007568390624938,-0.2698286365796205,0.11981796825518198,0.16991027367927078,-0.17772557521430474,-0.21608283748705875,-0.645698861097225,0.09113792551910077,-0.07164823159428417,-0.1928580200406636,-0.21297324782467128
-0.017571142877451096,0.02281826458688197,0.03823487003295781,0.13095085482501576,-0.03569037345725997,0.19340022332601595,0.047286124734181936,0.08745825622622175,-0.07055405106400318,0.25393796744503094,-0.03954650570439254,-0.1845506472037912,-0.18669417974010974,0.03442608163382266,-0.33668934183531624,-0.029614336017850747,-0.12909435458152405,-0.28283388362367,-0.12561921651235303,-0.21245702352038542,0.03244736413105075,0.04982976929134188,0.0198501039490917,-0.054115187306580215,-0.06156119681274276,0.15774605492919705,-0.17976261568199417,-0.21688363033798735,0.3263573544353826,0.060012588820698605,-0.15876811003552732,0.035834190917145785,0.022605479348371,-0.1466485923855357,-0.0020830953531493454,-0.0983777543605227,-0.2375391072679746,-0.04392609600130874,0.11310786432326472,-0.029244754835631655,0.014956550427415406,0.084452586207297,0.2927708277795419,-0.12755374948078774,-0.10980367037560704,0.2767117113073566,-0.08094984463198318,-0.021226236819679015,-0.10663634668629475,-0.12070162440225328,-0.20033625611445438,0.013396981816166621,0.1019767237184218,-0.09243287743162375,-0.17861334670100779,0.012549326221478335,0.07356157034634657,-0.06238215529928155,-0.1504265494467274,-0.05895505243329016,-0.05854035876614838,-0.08584489120339396,-0.027443490216922817,-0.18722268743862722,-0.1929309379946549,0.019477724805866074,0.183966462464771,-0.1960948499015382,-0.00871872406628891,-0.07048690056528532,0.17135619549927794,0.0020345976619823673,0.03023734840941718,0.06920490352892326,-0.09904750451745158,0.05505431291361555,-0.06925149284381069,0.1786210220009335,-0.25602286549037434,0.01987727283160585,0.20986125970843883,0.014175618834217378,0.0025224864735684154,-0.04577952206177887,0.09052961953584485,-0.07200116164231636,-0.0686609513621988,0.1629837165252607,0.17636000507887217,-0.04138694193984628,-0.074366508155536,-0.12470289677282573,0.0033441072943330274,0.1219251853338205,-0.14347484333348795,-0.3458143478865049,-0.03869593081188222,-0.057798187020792646,0.24661128715405897,-0.1684882620001601
-0.15402561477691595,0.4579269354890041,0.23245763213975576,-0.22592095832968448,0.08146656189017797,0.0633081136361748,-0.1993592525893184,0.14060135673957394,0.05306004754630808,-0.057433442549643575,-0.2026630307809364,0.19319746946753594,0.07935867410243615,0.15890270521209426,-0.06645309811748754,-0.13740491733325821,-0.23246027092019592,-0.1314649858318322,-0.04439421759129337,0.22542198314230272,0.3479506390957592,0.045624165003073064,-0.3639025556980527,-0.052087025541796624,0.17098038299169616,0.21600590791881663,-0.01455289881784765,-0.04093456921267603,-0.3600560022298515,-0.012923211664120002,-0.04741724735344386,0.21642086542474925,-0.09326540409994258,0.046293247841610874,-0.49497248225497575,-0.005115605892151347,-0.146153612938273,0.07764905097310139,-0.004876003508672435,-0.19270553071338767,0.06709144031819313,0.0371221235991096,-0.33546873761682855,-0.02909766909195153,-0.025271063270075025,0.08268184662082777,0.010091984584183632,-0.13762042977922828,0.2934959714430554,0.027082165942551303,-0.13413464206385392,0.030633989261498195,0.02865140512015503,0.0632219931416376,-0.0038263157408176254,0.14902530735578226,0.11794338773818794,-0.040137843910437,-0.07702674475040189,-0.0482115205565502,0.25414808663569916,-0.011727503202876369,-0.2278378932196477,0.17205476421128682,-0.271066036114332,-0.01973562264354931,0.1885260863440803,-0.09102109537521359,-0.09664920155664421,0.011447772148704533,-0.008938411237000789,0.20785685353270889,0.05541686322923889,0.10930931372309834,0.016365789570946605,0.09934781784480333,-0.11763627628297192,0.10603124951486746,-0.15855190614329548,-0.25102796890270596,-0.11724397410324111,-0.025523860827365723,0.1706284843637596,-0.017515005760798386,-0.027317291132163867,-0.2107306018712855,-0.10273422861387631,-0.15475767751131358,-0.18101338518842394,-0.1507968466373229,-0.09159563190642013,0.010240555193961396,-0.33736424541879406,0.14473376542600136,0.07381758265145068,-0.057394294530809374,-0.04143562550361467,0.06457805283900346,-0.04810164417760134,-0.03961002085537509
-0.17882246814911856,0.14358633421504852,-0.31204842143208245,-0.47252877966600315,-0.21000595868070368,0.2255474635688673,-0.07616407293864065,-0.06480353354349044,0.1185299531121072,-0.05831583348633626,-0.009315607079558525,-0.4226868175350186,-0.17875736685677837,0.0853796385678359,0.1984079293827396,-0.14806907292230545,-0.32105495164746645,0.3061093693072476,0.004933644684511455,0.003580797348964178,-0.296209375168237,0.08254190643426325,0.14574534849785065,-0.09443182440294413,0.12292920379289637,-0.1334865455284135,-0.23220952355437363,0.06681127266512578,0.17531912671344962,0.2172392612992569,0.15490969800938958,0.10005817800555405,0.0259957643362306,0.13611403052057613,0.1678062464490759,-0.013113828435335349,-0.022468078055397862,0.07452520845931634,-0.01558623069908222,0.05376061297986332,-0.19423634545337815,0.051787593660787806,-0.12798167626814705,-0.01124961912675932,0.3805382687218917,-0.03115021569632867,-0.23269308400100164,0.137810479173472,0.08821254428477081,-0.13457526652567892,0.08182831690198886,-0.06062724861977092,-0.1928568529376601,0.2419776906863371,-0.08309345856171425,0.08414300709153778,0.17034745980825106,0.007890677388989754,0.16080043526409402,0.14813098951880474,0.10872285197152799,-0.09157244973359308,0.12551675985829105,-0.05694508301800297,-0.3256959270208185,-0.1908207415341831,0.0812706406606568,0.1882366472260473,0.19243434769731108,-0.32021955436844196,0.2106487399481069,-0.07850329942736223,-0.016570926261472028,0.12220519298407002,-0.18855262918874213,-0.19783021128270406,-0.241729550932826,0.0517102682920545,-0.27918615582403916,-0.176734090661606,-0.09947673787926498,-0.06673428571677029,-0.06404238732836812,-0.1020089832498839,-0.14104205668216024,-0.12532883281181814,-0.18798669496968995,-0.07521138017140505,-0.020713303129119953,0.022671152888805612,0.05018772500467218,-0.12059115055484587,-0.08827294484522212,0.2613642537828545,0.11333560298753412,-0.16014460486232662,0.1037068771110267,-0.13962316432951025,0.10703453221991559,-0.050506161333788595
-0.3342701065451742,0.10565843204630594,0.40625129479506716,0.1181309889750852,0.17845669521578553,-0.05780703773814969,0.2783366557590826,0.09585594731301318,-0.11434553925835429,0.042409937591161885,0.32950809349886073,-0.38256966119831853,0.06998944769595009,-0.21702391240717633,0.19752355444563754,0.04853042734839724,-0.18572800335838058,0.07323753225975498,0.05066575280002165,-0.05184341804801939,0.123352834558846,0.29711849049832556,-0.25055009590742805,0.2601693535149788,0.17561145603604808,0.12946635224290703,-0.050674020887283996,-0.0741821860559567,-0.19442834931018124,0.09580293718537408,-0.3563451539348933,-0.1264422758564323,0.26900962136748036,0.005943621583930177,-0.06695602148560839,0.16722167857668882,0.07717543896732068,-0.0745831942971363,-0.2526346439709619,0.007099205967689267,0.05529468719322962,0.4153945372950985,-0.13002688959590547,-0.009983146152721294,0.04710855547633086,-0.05299052043983866,-0.08499847594227905,-0.0770862132638344,-0.10880691946623774,-0.0719441313224113,0.09184025183813115,0.07892782374987636,0.021716024724969286,-0.10477411803997407,0.047330540474568854,-0.147155207332887,-0.3944982647154013,-0.16910535181746889,-0.0379721487120435,-0.1783085968996515,0.11897776107585199,0.09034338020666721,0.2151787144810216,0.12640893762476574,0.21693034197908767,-0.04412987334852816,-0.06761797766543609,0.07930465552647402,-0.02250243545616984,0.21729184496576065,0.21459797805258582,0.016426817039883565,0.21466263641172373,-0.24218014683653355,0.07080762151879248,-0.024552726409394078,-0.2580410499090943,0.07393965759588775,0.0015778240923533375,-0.011470942914082445,0.023873480311982265,0.0006180922092199256,0.08476678720035338,0.14418362519011582,-0.11871205030935483,-0.06645024809810365,-0.0009066388911481562,-0.2249642603626562,0.025954973543610173,-0.0797117445701772,-0.12748505423636253,0.0129620255389928,-0.03472238219642134,0.36697575070476346,0.152861239522644,-0.13064206442712065,-0.0017242047882300886,-0.3215542800150442,-0.2513082268088633,-0.3828148932710995
0.05616557643401262,0.2603104690636628,-0.047623489772015797,-0.12111122984677472,0.30314030509534584,0.07354488115641916,0.009926935849396952,-0.03211972285507867,-0.17307192869973262,0.029958895682022823,-0.17944147901102603,-0.1499571488087765,-0.18085074118328923,0.44591058973082803,-0.01718353641006397,-0.15771302622831637,-0.015143280218831923,0.1485493601060044,-0.01726369207163354,-0.22807157539470613,-0.20576505288841762,0.3512619134362015,0.11747437721608506,0.007605130539308271,-0.15058412804764346,-0.08838247699552661,-0.14879282244760555,-0.003093296791533115,0.10884394365050166,-0.07044762857892409,-0.014425343735730475,0.03960843436765271,0.05817663141923211,-0.07618907563553073,0.40747276117539527,-0.001977772248063553,-0.0655032356488541,-0.057354329864671344,0.11390332244377012,-0.22301950606061088,-0.05945594496063466,0.1433656622168875,-0.18074863506710487,0.1822698929656255,0.16937319879702042,-0.07815980066350639,0.08683162674804855,-0.10813782526272267,-0.182055816459824,-0.2106800739580602,0.020625132019668483,0.15842639343170642,-0.04293323485601684,0.13127928135599612,0.14630158520857836,-0.022663324292864197,0.044528552065540614,0.1813024027364016,-0.10599618751218186,0.06571840414702565,0.17592642386070564,-0.012372220146415177,0.5352682328074813,-0.01796091521246751,-0.32949902292939315,-0.00755985091987808,0.15810662567583628,-0.015544592209970952,0.04679106033339936,-0.06650918898488518,0.0009649245060841694,-0.3461635948454525,0.08613123017047254,0.19346836294442346,0.17339152141095568,-0.00774655160143711,0.2420353803204155,0.21235941378006984,0.1110822291804346,-0.02839908484084239,0.021453777566703452,-0.04080922308774898,-0.04733060057696464,-0.062037983017438764,-0.08495778387547218,-0.23623339333178117,-0.03904278517574168,-0.0694254292425629,0.0007109766033512482,-0.0013636165619686671,-0.10359265777127605,-0.14777306210132396,0.06908867921431945,0.06362378584822966,-0.17174169690653274,-0.20600910096189246,0.0074915810256151,0.06381248492448355,0.15209643542211537,-0.1249181272978658
0.24194636665768723,0.09654971480688987,-0.24630657982342005,-0.10714992432494687,0.3455738801094454,0.17640623829455795,-0.029338591959327982,0.003322076178790553,-0.06558704339899582,-0.23057035898191056,0.02662890328602046,-0.03851001206171594,-0.05910431960370646,-0.13631789461062788,-0.1799631772476748,-0.011593989367173591,-0.09379938415877355,-0.13070688978606307,0.11429527690080785,0.011613167644149382,-0.14769391716841915,-0.0031286750347767575,-0.13374588959416583,0.16652323032837282,0.019062982481188234,0.05676777727636179,-0.3021620104607491,-0.17038962317695802,0.3287363013236008,-0.2739306655926835,0.40491083861617777,0.3964239861053826,0.18518512562479109,0.05667006360014707,0.45773912871442446,-0.22294482956970843,0.054621417958248576,0.00571098190614012,-0.10587444033913591,-0.020230237534479743,-0.21392495332555822,0.3595970041425193,-0.16405476200239677,-0.027061923296280058,-0.08477280900560466,0.141237782471214,0.14168933477858714,0.2344506864291155,-0.2619397041133532,-0.011916306589181112,-0.0034192115430923165,-0.10195832580466178,-0.29820276315868105,0.04706639635856401,-0.12939370175225,-0.002757603096191103,-0.21802898150924319,0.20025397342654497,0.4386355996793417,-0.21475537126091732,0.015327855052852647,-0.21724079954908648,0.06274813025065606,-0.15155382014045787,-0.31678856506860026,-0.08276847389574941,0.09837290286871656,-0.10917651063345678,0.09101814205573171,0.06866578279793899,0.11404209917191659,0.2987769262450817,0.3492246776579351,0.09747025437837821,-0.28918293964663505,0.05180368155809828,0.007712073517328628,-0.14515223273784392,0.02778377514165747,-0.09410907890353626,-0.11467540748909455,-0.002638716239588146,0.11111185507779177,-0.12968809284096872,0.08547241680278145,0.06929567094916624,-0.05462611231662847,0.13937676956585332,0.11240966857226405,0.03272580809162378,-0.08099169136752461,0.40905397858435005,0.22482965818542555,-0.09153872104132753,0.15078935948801164,-0.22945493345548304,-0.10866016986683386,-0.008626044684376617,0.17964095914770226,-0.26802149445406653
0.23008092528622356,0.10119924744938927,0.12317754561125627,-0.1198377076825793,0.05744260870259934,0.061364908649481,-0.06726437316053913,-0.19575045640001912,-0.026567102198891378,-0.14342440773277262,-0.02138764416336364,-0.11725639333903186,0.11406224085992045,0.18033465658078007,0.15564168401989534,-0.2347437741568327,-0.07875391504259983,0.20938215847795025,0.1755617639768561,-0.06718683779836612,-0.24186227467506397,0.1737020367881949,0.0025751930483514634,0.1282025324091658,-0.2185100082543696,-0.07718303704367856,0.3805019145221482,-0.11029088681720359,-0.3939648972230855,-0.10618328014828311,-0.21324322240949395,0.036166287690218644,0.008020536098249284,0.0513103215844684,-0.1642555784506509,-0.060133509859357004,-0.16171674313729525,-0.04012304192326783,-0.23466370525122426,0.003878868032692588,0.05397865452943587,-0.09286552678740932,-0.010937259784108977,0.11368306779319477,0.0996260298676695,0.03331642278946312,-0.044747712244106085,-0.261993745891603,-0.31313014329590094,0.07791567180901982,0.17277731335287336,-0.021797920591252583,0.0603153061564045,0.05345179215473428,-0.16872574266237467,-0.2289429979905473,-0.40674667470091375,0.34588051986347185,0.09764998331127511,-0.14483759255805442,0.09748085230061145,-0.04471159856097945,0.14241577924172172,-0.07288333673761858,0.10018988419098099,0.1296834308312471,-0.006542665221891376,0.005019808741311092,0.24649721837848634,-0.10292151718350963,-0.13131379599644952,-0.0067173860586269415,-0.3554252505747444,-0.05096930490225703,0.18736552592601527,-0.016266826597818505,-0.09517232294976159,0.31132134129640804,-0.12076357193032532,0.028079508882184114,-0.2568151821283813,0.014515011147857483,-0.20589733178708625,-0.1881645218340041,-0.25614876289060995,0.06845529754213206,-0.19942496666302098,0.061254650781587774,0.04758830057135723,-0.2267939438987509,0.11138881829270147,-0.10246723795021258,0.20041138509730183,0.18386364938380592,-0.04054779408624924,-0.07983775787411555,-0.26055686259767624,-0.2330140412018887,-0.07754531767123565,-0.22066278176347462
-0.275298731946584,-0.37390441520626855,-0.18011898356857622,0.026543995243314977,0.01279283224372567,-0.3518616946812847,0.08730164880637015,-0.02637456961873931,0.09461573553050723,-0.026779447901094502,0.04669117509222372,-0.052141109022489016,-0.15255010330242788,-0.08388446425668669,-0.3463822184384781,0.045433838124149147,-0.13740228069715563,0.3090385606310196,0.07877806711609452,0.17171078548018653,0.017574591230180216,0.3352426315570166,0.22191128407296953,-0.016675403379032366,-0.16857434530676968,-0.13279441980226506,0.08197348688248277,-0.3646206754130409,-0.08789619295685619,0.2448264770171807,0.09562377060335517,-0.05680065487197072,0.02597155690045105,-0.14705253584457428,0.13281033378427975,0.05116692580263344,-0.042729191291886646,-0.25350324083256703,0.07875221842199075,0.20335367867761728,0.1428711252653993,-0.1982896663729132,-0.0719480457352188,-0.0542097522895399,0.05658977800910017,-0.2769081743960609,-0.20210914220696796,-0.2555319287227396,-0.10863865716146025,0.08509292779582027,-0.17930931729819974,-0.26128986618374933,-0.24064105077866332,-0.20917574266307234,0.048053653458461784,-0.06352936722866595,0.07492945221455746,-0.2943926983311225,-0.10360392236297068,-0.18514699184488517,0.03147737379479723,-0.023203170849725868,0.2778984052641092,-0.07502376007313225,0.23548686800427854,-0.025978022383604825,-0.16114827611680332,0.24403360500419996,-0.0528496810673508,0.10124435847807094,0.17365054718169742,0.1007566774175647,-0.12227758817655528,0.06388965163904657,-0.12846916004277767,0.14087463569888187,-0.20461038218565744,0.09830971653798302,0.2652764757703301,0.12745096210289109,0.10439271669020213,-0.16189610201420537,0.10874880201398007,0.09511515213028458,-0.22897080255742008,-0.41384052475870964,0.04987407341921606,-0.20390756823422987,-0.06636024598606305,-0.06595378069375649,-0.0965590930082817,-0.304203878775402,0.3202833511137379,-0.10643460016768784,0.1831966699541655,0.008505596211050856,0.029372444861668914,-0.05151009217853435,-0.08129056541587672,0.0836701034865096
0.0044120208593911225,-0.07073510847475473,-0.2195503328677819,-0.20841068149585992,-0.006793296419970981,0.030139399284933855,-0.032314848730241263,0.12492342750796764,0.004944261478710868,-0.3833819436797653,0.10636517927759645,-0.012030088851237316,-0.15675742308948884,0.045640364290746686,0.01167263199281221,-0.05574562743295122,-0.10201286005831925,-0.20256476806405949,0.05259472602434543,0.1480420051649071,-0.17477117251203778,0.09888458476555344,0.055046361549834624,-0.14480962207174164,-0.06066336364785006,-0.08287796379439927,0.0917660099908754,0.10027461336849892,-0.11212204553013887,0.18098092211245528,0.14260950874533365,-0.020969359316446255,0.08641656541640509,0.03440715813765415,-0.14616939819737124,0.04853199730573481,-0.11079704944500997,0.0032621322784770635,-0.06364559633673161,-0.05166696189334579,-0.021770033363357397,-0.19122663413353716,0.29613737638686677,0.0977055777950638,-0.03341668383324311,-0.21332478071374972,-0.05033320854138306,-0.02620422030351773,0.07675941415404736,0.011691964352771722,-0.0784696774134869,-0.13760779729977357,-0.059181502623298174,0.010959103537089699,0.264838311978426,-0.13511192643701506,0.4576557304465276,0.047364551623058186,-0.005931113359386713,0.14413812824831515,-0.11197576429733427,0.0292067941657926,0.0420478690254535,-0.21955297238237137,-0.2170309629238488,-0.11677830906716859,-0.07801907236087657,0.03126890119390518,-0.03307851415822314,-0.05518271632236803,0.030914578341789335,0.06234247928200796,-0.06801123080734714,0.25668573152618995,-0.036277806160724624,-0.12604553379403519,0.027958894016931378,0.16399724384164624,-0.04336774071512652,-0.01122425713090872,0.030768017915992128,-0.0020791240057358305,0.08508507937030375,-0.04646863685265063,-0.14605198361669386,0.19461077463164564,-0.041593669643902334,0.1649331842184795,0.2669486301666477,0.15531796302538411,0.10859322646646465,0.017074587506751768,0.20876660037837452,-0.10667048932491706,0.012858876142952518,-0.21420112756142126,0.04236735283231981,-0.17264058088216683,-0.06543994587091392,0.15676932838940838
-0.1403568002237785,-0.16228104240086713,-0.058214454883715364,-0.2668157634448544,-0.010241100495262365,-0.11355191392951813,-0.08773468250444254,-0.012806895075644847,0.03402197190175817,-0.16376321096675178,0.185258989313026,-0.09754849556821969,0.1935216880294768,-0.21512046957293582,-0.007885676030147904,0.06110354293089027,0.10590671607875138,-0.23712197831951792,-0.15272590336703135,-0.05783150530835071,-0.13325056341519237,0.24613147657701342,-0.29577472650472414,-0.24560917282260372,0.15188793357741673,0.06652718754751064,0.15602661928166542,0.29360189814399484,-0.2469381898132807,0.1353969282420578,0.25260648290003346,0.07110975486135085,0.16013426832721725,0.01149859963697931,0.003488023050887297,-0.12146119845009647,0.06613999100192135,-0.031146228848057497,0.21079460884438067,-0.14308884946970002,-0.033302734425291386,0.18586709842644056,0.0787920125292722,-0.214291782101209,-0.2670435094857149,-0.16463425369998627,-0.06711089045734131,0.15963355045240332,-0.04960570697114133,0.03939328076317942,-0.04401314316061028,-0.15375790557058114,0.10324522153265017,0.05807942083632782,0.0016976483603850063,-0.08192393574078195,0.08637606502590546,-0.08778739311146436,-0.1373907587423877,0.014439061298750406,-0.17761081386131997,0.2803136798294827,0.2818734068473734,-0.19831601237949834,-0.4041242687614436,0.04841069952848601,-0.13313426914121582,-0.06625078933498468,0.06303615655804397,-0.13958412164403167,0.22275134493577436,-0.09291834063353546,-0.011957141297655252,-0.08280847264673888,-0.01864374353009206,0.0726554116197598,0.2125975690917861,-0.011799812687405067,-0.10419560682008155,-0.07453036334247218,-0.054244058545266725,0.12221845916868693,0.00040096858121746557,0.06710994706530092,-0.14470085895122425,-0.0013737111742100929,0.0994329469848272,-0.30814050532476306,-0.07157545754843124,0.28299979978358525,0.33430116288527384,0.05031533640402901,-0.3515303764875566,0.04467311119330976,0.04478912861960212,0.2813914196597039,0.1173390374451629,0.02643209395467312,0.23380605708761018,-0.012903851092397473
-0.1883456264004094,-0.20149381789391993,0.13193769204106495,0.11817251191461155,0.018375939624652452,0.009188119644015677,-0.03426779272207648,0.09482262664496367,-0.20036439328482877,0.15021505211424577,0.13347324166410782,0.09393453251702215,0.04874833414462987,0.17737546354423572,-0.2526961458245894,-0.11834774264573703,-0.014155388303542654,-0.2883417624727428,-0.04255111059760153,0.08422236324243411,0.004520093719762843,-0.041777812728758495,0.2183336863483417,0.03384547328464776,-0.049711621003005496,-0.27299891165894286,-0.03714363964946498,0.04027265527598377,0.36522273329181765,0.03844368072526956,-0.235672022535654,0.05716183715954108,-0.023926542448860465,-0.06387197753160362,0.10976816321958521,-0.06352723516208195,-0.19062284631522583,0.10234954081144049,0.08844289652367292,0.022177518804756984,-0.0886855893205856,-0.060411019051467896,0.09239080901955674,-0.03754005113922066,-0.030508268512262113,0.16329469936541888,-0.008049809558885856,0.21024422112694835,-0.09830694332935276,-0.008308842567358088,-0.15261421640272876,-0.23817910422283434,0.004637330908586533,-0.07254422480178126,-0.16020776132734665,0.36243482414868916,0.5008514550609283,0.12943309231807218,-0.03385205433824282,-0.0746607294149185,0.033247828114731016,-0.28715560354905567,0.17767923267203112,-0.11477602850519601,-0.1571980695872888,0.13275295476795138,0.05650713063454851,-0.12816431960999203,0.051890698891325526,0.027742435853234996,-0.11036410209513071,-0.3351068402959632,0.004729908610746608,-0.2535719836876901,0.08830402581302096,0.1433299088707868,-0.09361080876205752,0.10398156493803624,-0.03573728592640274,0.09451798248501164,0.3222167425915471,0.05719658866375396,-0.03966671011034333,-0.10414080683194087,0.08754369468250858,0.22721976853708384,0.041722429064661774,-0.0385865265388093,0.07177805212645236,0.09937578113898705,-0.0928632776075218,-0.366173971617552,0.11067299031556946,0.17955193642149286,0.015374116805102095,-0.28330463081075286,0.16446714169556675,-0.02939109674495399,-0.13366264373979855,0.01726494256979863
-0.2232780968792298,-0.18734373439436344,-0.08555537356343235,0.22832297341204633,0.0176050065001833,-0.19349690771214126,0.15507004468146734,0.09342921835094264,-0.2776019637319286,0.07451627337869238,0.12227288812784043,0.47443341743642614,0.03997677539675401,0.012034795603890723,-0.028263659515839104,-0.07861373454521658,0.18057076174465247,-0.04426485943104748,0.07043899809900216,-0.101423103069192,0.2626208851228695,-0.22704620515428772,0.06340538808550747,0.22279942000721953,-0.07663375607165848,0.13022489864856454,0.0742889865493625,-0.43030136920984235,-0.1340953941549717,0.0651554805914224,-0.08232981448820484,-0.2140049512322556,0.059300363606110386,0.09407609446845382,-0.18090950396695687,-0.044055360586838205,-0.19129624441607956,0.35164710311943265,0.2891068771168382,-0.14713654776010712,-0.05326985125626722,-0.08520153813732605,-0.35913465681649237,-0.24063687758772692,-0.31743219552525603,-0.12341564487013794,-0.06484975152881518,0.09641243726325092,-0.508250934588573,-0.04784059852396029,0.3077839155866612,-0.12817087779313324,0.09747102576673,-0.07236844321594522,-0.1361444437604859,-0.033452680014678104,-0.23170214016270743,-0.1340488356394337,0.06251309273860733,-0.1711018884584291,-0.2715832727772902,-0.2542695661734737,0.11958636841000267,-0.2914952521871954,-0.02295914673545784,-0.1190698349535606,0.19052048941667557,0.014532318813829595,-0.21797536033782092,0.0324141336145818,-0.32830179463757114,0.2758050099083757,-0.013484793585496592,-0.28016085964610465,-0.18029870385887062,-0.5094960589933992,-0.24040744152016402,0.04206438172420356,0.14265517468895086,0.06718940604319897,-0.2236026099161804,0.17232648746873674,-0.09958837247662457,0.09993843441801298,-0.0687918561532858,-0.17007540959548745,0.0029655040885411374,0.10332499558583445,-0.17625963622749694,-0.00024210485814171956,0.08866027414444598,0.10500342276038925,0.2245774747031847,0.2555379751517881,0.21089233315549027,0.39209977582136657,-0.08710322825504341,-0.10675455705915685,-0.32830039028155794,0.24997556858794512
